svm_type c_svc
kernel_type polynomial
degree 3
gamma 0.333333
coef0 0
nr_class 2
total_sv 3
rho 0.456133
label 10 11
nr_sv 1 2
SV
1.37991475356505e-30 0:14.15 1:1318556 2:211 3:100 
-1.253973383503556e-30 0:11.86 1:549576 2:3954 3:6 
-1.259413700614925e-31 0:28.6 1:2862896 2:3891 
