svm_type c_svc
kernel_type polynomial
degree 3
gamma 0.333333
coef0 0
nr_class 2
total_sv 2
rho -1.39531
label 10 14
nr_sv 1 1
SV
2.844599245350959e-37 0:9.22 1:1396468 2:101 3:93 
-2.844599245350959e-37 1:2545888 2:38 
