svm_type c_svc
kernel_type polynomial
degree 3
gamma 0.333333
coef0 0
nr_class 2
total_sv 3
rho 1.14381e+21
label 11 14
nr_sv 2 1
SV
1.156928250755829e-10 0:11.86 1:549576 2:3954 3:6 
2.795014173086244e-10 0:28.6 1:2862896 2:3891 
-3.951318639767787e-10 0:83.15 1:2553348 2:35 3:6 
