svm_type c_svc
kernel_type polynomial
degree 3
gamma 0.333333
coef0 0
nr_class 2
total_sv 4
rho 2.52025
label 11 12
nr_sv 2 2
SV
5.808214785942558e-29 0:11.86 1:549576 2:3954 3:6 
8.55495090507242e-31 0:28.6 1:2862896 2:3891 
-2.159949391623062e-29 0:10.51 1:796317 2:1717 
-3.733814903370551e-29 0:12.99 1:795669 2:1715 3:100 
