svm_type c_svc
kernel_type polynomial
degree 3
gamma 0.333333
coef0 0
nr_class 2
total_sv 4
rho 1.5423
label 11 13
nr_sv 2 2
SV
5.786931199082918e-29 0:11.86 1:549576 2:3954 3:6 
4.478616611230711e-31 0:28.6 1:2862896 2:3891 
-1.977281789399789e-29 0:1304.67 1:621109 2:2591 3:12 
-3.85443557579547e-29 0:604.86 1:736158 2:1921 3:6 
