svm_type c_svc
kernel_type polynomial
degree 3
gamma 0.333333
coef0 0
nr_class 2
total_sv 2
rho -1.06313
label 12 14
nr_sv 1 1
SV
2.110343510066199e-37 0:10.51 1:796317 2:1717 
-2.110343510066199e-37 1:2545888 2:38 
