svm_type c_svc
kernel_type polynomial
degree 3
gamma 0.333333
coef0 0
nr_class 2
total_sv 4
rho -1.97063
label 12 13
nr_sv 3 1
SV
6.116728460278161e-29 0:12.99 1:795669 2:1715 3:100 
4.052197938005052e-29 0:34.24 1:694373 2:1710 
6.03417806566731e-29 0:53.14 1:695073 2:1691 
-1.620310446395084e-28 0:604.86 1:736158 2:1921 3:6 
