svm_type c_svc
kernel_type rbf
gamma 0.0078125
nr_class 2
total_sv 1200
rho 0.00884786
label 10 14
nr_sv 600 600
SV
0.03125 1:0.01 2:0.01 4:0.77 
0.03125 1:0.01 2:0.01 4:0.77 
0.03125 2:0.01 4:0.78 
0.03125 2:0.01 4:0.78 
0.03125 2:0.01 4:0.78 
0.03125 2:0.01 4:0.78 
0.03125 2:0.01 4:0.78 
0.03125 2:0.01 4:0.78 
0.03125 2:0.01 4:0.78 
0.03125 2:0.01 4:0.79 
0.03125 1:0.01 2:0.01 4:0.79 
0.03125 2:0.01 4:0.79 
0.03125 2:0.01 4:0.79 
0.03125 2:0.01 4:0.79 
0.03125 2:0.01 4:0.79 
0.03125 2:0.01 4:0.79 
0.03125 2:0.01 4:0.8 
0.03125 2:0.01 4:0.8 
0.03125 2:0.01 4:0.8 
0.03125 2:0.01 4:0.8 
0.03125 1:0.01 2:0.01 4:0.8 
0.03125 1:0.01 2:0.01 4:0.8 
0.03125 2:0.01 4:0.8 
0.03125 2:0.01 4:0.8 
0.03125 2:0.01 4:0.81 
0.03125 2:0.01 4:0.81 
0.03125 2:0.01 4:0.81 
0.03125 2:0.01 4:0.8 
0.03125 2:0.01 4:0.81 
0.03125 2:0.01 4:0.81 
0.03125 1:0.01 2:0.01 4:0.81 
0.03125 1:0.01 2:0.01 4:0.81 
0.03125 2:0.01 4:0.81 
0.03125 2:0.01 4:0.81 
0.03125 2:0.01 4:0.81 
0.03125 2:0.01 3:0.01 4:0.8 
0.03125 2:0.01 4:0.82 
0.03125 2:0.01 4:0.81 
0.03125 2:0.01 4:0.81 
0.03125 2:0.01 4:0.81 
0.03125 1:0.01 2:0.01 4:0.81 
0.03125 2:0.01 4:0.82 
0.03125 2:0.01 4:0.82 
0.03125 2:0.01 4:0.82 
0.03125 2:0.01 4:0.82 
0.03125 2:0.01 4:0.82 
0.03125 2:0.01 4:0.82 
0.03125 2:0.01 4:0.82 
0.03125 2:0.01 4:0.82 
0.03125 2:0.01 4:0.82 
0.03125 1:0.01 2:0.01 4:0.82 
0.03125 2:0.01 4:0.82 
0.03125 1:0.01 2:0.01 4:0.82 
0.03125 2:0.01 4:0.83 
0.03125 2:0.01 4:0.82 
0.03125 2:0.01 4:0.83 
0.03125 1:0.01 2:0.01 4:0.82 
0.03125 2:0.01 4:0.83 
0.03125 2:0.01 4:0.83 
0.03125 2:0.01 4:0.83 
0.03125 2:0.01 4:0.83 
0.03125 2:0.01 4:0.83 
0.03125 2:0.01 4:0.83 
0.03125 2:0.01 4:0.83 
0.03125 2:0.01 4:0.83 
0.03125 2:0.01 4:0.83 
0.03125 2:0.01 4:0.83 
0.03125 2:0.01 4:0.83 
0.03125 2:0.01 4:0.83 
0.03125 2:0.01 4:0.84 
0.03125 2:0.01 4:0.84 
0.03125 2:0.01 4:0.83 
0.03125 2:0.01 4:0.83 
0.03125 2:0.01 4:0.83 
0.03125 2:0.01 4:0.84 
0.03125 2:0.01 4:0.84 
0.03125 2:0.01 4:0.83 
0.03125 2:0.01 4:0.83 
0.03125 2:0.01 4:0.84 
0.03125 2:0.01 4:0.84 
0.03125 1:0.01 2:0.01 4:0.83 
0.03125 2:0.01 4:0.84 
0.03125 2:0.01 4:0.84 
0.03125 2:0.01 4:0.84 
0.03125 2:0.01 4:0.84 
0.03125 2:0.01 4:0.83 
0.03125 2:0.01 4:0.84 
0.03125 2:0.01 4:0.84 
0.03125 2:0.01 4:0.84 
0.03125 2:0.01 4:0.84 
0.03125 2:0.01 4:0.84 
0.03125 2:0.01 4:0.84 
0.03125 2:0.01 4:0.84 
0.03125 2:0.01 4:0.84 
0.03125 2:0.01 4:0.84 
0.03125 2:0.01 4:0.85 
0.03125 2:0.01 4:0.84 
0.03125 2:0.01 4:0.84 
0.03125 2:0.01 4:0.84 
0.03125 2:0.01 4:0.84 
0.03125 2:0.01 4:0.84 
0.03125 2:0.01 4:0.84 
0.03125 2:0.01 4:0.84 
0.03125 2:0.01 4:0.84 
0.03125 2:0.01 4:0.84 
0.03125 2:0.01 4:0.84 
0.03125 2:0.01 4:0.84 
0.03125 2:0.01 4:0.84 
0.03125 1:0.01 2:0.01 4:0.84 
0.03125 2:0.01 4:0.85 
0.03125 2:0.01 4:0.84 
0.03125 2:0.01 4:0.84 
0.03125 2:0.01 4:0.84 
0.03125 2:0.01 4:0.84 
0.03125 2:0.01 4:0.84 
0.03125 2:0.01 4:0.84 
0.03125 2:0.01 4:0.83 
0.03125 2:0.01 4:0.84 
0.03125 2:0.01 4:0.85 
0.03125 2:0.01 4:0.84 
0.03125 2:0.01 4:0.84 
0.03125 2:0.01 4:0.85 
0.03125 2:0.01 4:0.84 
0.03125 2:0.01 4:0.85 
0.03125 2:0.01 4:0.85 
0.03125 2:0.01 4:0.85 
0.03125 2:0.01 4:0.85 
0.03125 2:0.01 4:0.85 
0.03125 1:0.01 2:0.01 4:0.85 
0.03125 2:0.01 4:0.85 
0.03125 2:0.01 4:0.85 
0.03125 2:0.01 4:0.85 
0.03125 2:0.01 4:0.85 
0.03125 2:0.01 4:0.85 
0.03125 2:0.01 4:0.85 
0.03125 2:0.01 4:0.85 
0.03125 2:0.01 4:0.85 
0.03125 2:0.01 4:0.85 
0.03125 2:0.01 4:0.85 
0.03125 2:0.01 4:0.85 
0.03125 2:0.01 4:0.85 
0.03125 2:0.01 4:0.85 
0.03125 2:0.01 4:0.85 
0.03125 2:0.01 4:0.85 
0.03125 2:0.01 4:0.85 
0.03125 2:0.01 4:0.85 
0.03125 2:0.01 4:0.85 
0.03125 2:0.01 4:0.85 
0.03125 1:0.01 2:0.01 4:0.85 
0.03125 2:0.01 4:0.85 
0.03125 2:0.01 4:0.85 
0.03125 2:0.01 4:0.85 
0.03125 2:0.01 4:0.85 
0.03125 2:0.01 4:0.85 
0.03125 2:0.01 4:0.85 
0.03125 2:0.01 4:0.85 
0.03125 2:0.01 4:0.85 
0.03125 2:0.01 4:0.85 
0.03125 2:0.01 4:0.85 
0.03125 2:0.01 4:0.86 
0.03125 2:0.01 4:0.85 
0.03125 2:0.01 4:0.86 
0.03125 2:0.01 4:0.85 
0.03125 2:0.01 4:0.86 
0.03125 2:0.01 4:0.86 
0.03125 2:0.01 4:0.85 
0.03125 2:0.01 4:0.85 
0.03125 1:0.01 2:0.01 4:0.85 
0.03125 2:0.01 4:0.86 
0.03125 2:0.01 4:0.86 
0.03125 2:0.01 4:0.85 
0.03125 2:0.01 4:0.85 
0.03125 2:0.01 4:0.85 
0.03125 2:0.01 4:0.86 
0.03125 2:0.01 4:0.86 
0.03125 2:0.01 4:0.86 
0.03125 2:0.01 4:0.86 
0.03125 2:0.01 4:0.86 
0.03125 2:0.01 4:0.86 
0.03125 2:0.01 4:0.85 
0.03125 2:0.01 4:0.86 
0.03125 2:0.01 4:0.85 
0.03125 2:0.01 4:0.86 
0.03125 2:0.01 4:0.86 
0.03125 2:0.01 4:0.86 
0.03125 2:0.01 4:0.86 
0.03125 2:0.01 4:0.86 
0.03125 2:0.01 4:0.85 
0.03125 1:0.01 2:0.01 4:0.86 
0.03125 2:0.01 4:0.86 
0.03125 2:0.01 4:0.86 
0.03125 2:0.01 4:0.86 
0.03125 2:0.01 4:0.86 
0.03125 2:0.01 4:0.86 
0.03125 2:0.01 4:0.86 
0.03125 2:0.01 4:0.86 
0.03125 2:0.01 4:0.86 
0.03125 2:0.01 4:0.86 
0.03125 2:0.01 4:0.86 
0.03125 2:0.01 4:0.86 
0.03125 2:0.11 4:0.81 
0.03125 2:0.11 4:0.81 
0.03125 2:0.11 4:0.81 
0.03125 2:0.11 4:0.81 
0.03125 2:0.11 4:0.81 
0.03125 2:0.11 4:0.81 
0.03125 2:0.11 4:0.81 
0.03125 2:0.11 4:0.81 
0.03125 2:0.11 4:0.81 
0.03125 2:0.11 4:0.81 
0.03125 2:0.11 4:0.82 
0.03125 2:0.11 4:0.81 
0.03125 2:0.11 4:0.81 
0.03125 2:0.11 4:0.81 
0.03125 2:0.11 4:0.81 
0.03125 2:0.11 4:0.82 
0.03125 2:0.11 4:0.81 
0.03125 2:0.11 4:0.81 
0.03125 2:0.11 4:0.81 
0.03125 2:0.11 4:0.81 
0.03125 2:0.11 4:0.81 
0.03125 2:0.11 4:0.81 
0.03125 2:0.11 4:0.81 
0.03125 2:0.11 4:0.82 
0.03125 2:0.11 4:0.81 
0.03125 2:0.11 4:0.81 
0.03125 2:0.11 4:0.82 
0.03125 2:0.11 4:0.81 
0.03125 2:0.11 4:0.81 
0.03125 2:0.11 4:0.81 
0.03125 2:0.11 4:0.82 
0.03125 2:0.11 4:0.82 
0.03125 2:0.11 4:0.81 
0.03125 2:0.11 4:0.82 
0.03125 1:0.01 2:0.11 4:0.82 
0.03125 2:0.11 4:0.81 
0.03125 2:0.11 4:0.82 
0.03125 2:0.11 4:0.82 
0.03125 2:0.11 4:0.81 
0.03125 2:0.11 4:0.81 
0.03125 2:0.11 4:0.82 
0.03125 2:0.11 4:0.82 
0.03125 2:0.11 4:0.81 
0.03125 2:0.11 4:0.81 
0.03125 1:0.02 2:0.11 4:0.82 
0.03125 2:0.11 4:0.81 
0.03125 2:0.11 4:0.81 
0.03125 2:0.11 4:0.81 
0.03125 2:0.11 4:0.82 
0.03125 2:0.11 4:0.81 
0.03125 2:0.11 4:0.82 
0.03125 2:0.11 4:0.83 
0.03125 1:0.01 2:0.11 4:0.81 
0.03125 1:0.01 2:0.11 4:0.82 
0.03125 1:0.01 2:0.11 4:0.83 
0.03125 1:0.01 2:0.11 4:0.82 
0.03125 1:0.01 2:0.11 4:0.81 
0.03125 1:0.01 2:0.11 4:0.82 
0.03125 1:0.01 2:0.11 4:0.81 
0.03125 2:0.11 4:0.82 
0.03125 2:0.11 4:0.82 
0.03125 2:0.11 4:0.82 
0.03125 2:0.11 4:0.82 
0.03125 2:0.11 4:0.81 
0.03125 2:0.11 4:0.83 
0.03125 2:0.11 4:0.81 
0.03125 2:0.11 4:0.82 
0.03125 2:0.11 4:0.82 
0.03125 2:0.11 4:0.82 
0.03125 2:0.11 4:0.82 
0.03125 1:0.01 2:0.11 4:0.82 
0.03125 2:0.11 4:0.83 
0.03125 2:0.11 4:0.81 
0.03125 2:0.11 4:0.82 
0.03125 2:0.11 4:0.82 
0.03125 2:0.11 4:0.82 
0.03125 2:0.11 4:0.82 
0.03125 2:0.11 4:0.82 
0.03125 2:0.11 4:0.82 
0.03125 2:0.11 4:0.82 
0.03125 2:0.11 4:0.82 
0.03125 2:0.11 4:0.83 
0.03125 2:0.11 4:0.82 
0.03125 2:0.11 4:0.82 
0.03125 2:0.11 4:0.82 
0.03125 2:0.11 4:0.83 
0.03125 2:0.11 4:0.82 
0.03125 2:0.11 4:0.82 
0.03125 2:0.11 4:0.83 
0.03125 2:0.11 4:0.82 
0.03125 2:0.11 4:0.82 
0.03125 2:0.11 4:0.82 
0.03125 2:0.11 4:0.82 
0.03125 2:0.11 4:0.82 
0.03125 2:0.11 4:0.82 
0.03125 2:0.11 4:0.82 
0.03125 2:0.11 4:0.82 
0.03125 2:0.11 4:0.82 
0.03125 2:0.11 4:0.83 
0.03125 2:0.11 4:0.82 
0.03125 2:0.01 3:0.17 4:0.45 
0.03125 2:0.01 3:0.01 4:0.63 
0.03125 2:0.01 3:0.01 4:0.63 
0.03125 2:0.01 3:0.01 4:0.63 
0.03125 2:0.01 3:0.01 4:0.62 
0.03125 2:0.01 3:0.01 4:0.63 
0.03125 2:0.01 3:0.01 4:0.64 
0.03125 2:0.01 3:0.01 4:0.63 
0.03125 2:0.01 3:0.01 4:0.64 
0.03125 2:0.01 3:0.01 4:0.63 
0.03125 2:0.01 3:0.01 4:0.63 
0.03125 2:0.01 3:0.01 4:0.63 
0.03125 2:0.01 3:0.01 4:0.63 
0.03125 2:0.01 3:0.01 4:0.63 
0.03125 1:0.01 2:0.01 3:0.01 4:0.64 
0.03125 2:0.01 3:0.01 4:0.63 
0.03125 2:0.01 3:0.01 4:0.63 
0.03125 2:0.01 3:0.01 4:0.63 
0.03125 2:0.01 3:0.01 4:0.63 
0.03125 2:0.01 3:0.01 4:0.62 
0.03125 2:0.01 3:0.01 4:0.65 
0.03125 2:0.01 3:0.01 4:0.66 
0.03125 2:0.01 3:0.01 4:0.66 
0.03125 2:0.01 3:0.01 4:0.67 
0.03125 2:0.01 3:0.01 4:0.67 
0.03125 2:0.01 3:0.01 4:0.66 
0.03125 2:0.01 3:0.01 4:0.65 
0.03125 2:0.01 3:0.01 4:0.66 
0.03125 2:0.01 3:0.01 4:0.67 
0.03125 2:0.01 3:0.01 4:0.66 
0.03125 2:0.01 3:0.01 4:0.66 
0.03125 2:0.01 3:0.01 4:0.66 
0.03125 2:0.01 3:0.01 4:0.66 
0.03125 2:0.01 3:0.01 4:0.67 
0.03125 1:0.01 2:0.01 3:0.01 4:0.66 
0.03125 2:0.01 3:0.01 4:0.67 
0.03125 2:0.01 3:0.01 4:0.66 
0.03125 2:0.01 3:0.01 4:0.67 
0.03125 2:0.01 3:0.01 4:0.66 
0.03125 2:0.01 3:0.01 4:0.67 
0.03125 2:0.01 3:0.01 4:0.66 
0.03125 1:0.01 2:0.01 3:0.01 4:0.66 
0.03125 2:0.01 3:0.01 4:0.67 
0.03125 2:0.01 3:0.01 4:0.66 
0.03125 2:0.01 3:0.01 4:0.66 
0.03125 2:0.01 3:0.01 4:0.66 
0.03125 2:0.01 3:0.01 4:0.67 
0.03125 2:0.01 3:0.01 4:0.67 
0.03125 2:0.01 3:0.01 4:0.67 
0.03125 2:0.01 3:0.01 4:0.66 
0.03125 2:0.01 3:0.01 4:0.66 
0.03125 2:0.01 3:0.01 4:0.66 
0.03125 2:0.01 3:0.01 4:0.66 
0.03125 2:0.01 3:0.01 4:0.66 
0.03125 2:0.01 3:0.01 4:0.66 
0.03125 2:0.01 3:0.01 4:0.66 
0.03125 2:0.01 3:0.01 4:0.66 
0.03125 2:0.01 3:0.01 4:0.66 
0.03125 2:0.01 3:0.01 4:0.66 
0.03125 2:0.01 3:0.01 4:0.67 
0.03125 2:0.01 3:0.01 4:0.66 
0.03125 2:0.01 3:0.01 4:0.66 
0.03125 1:0.01 2:0.01 3:0.01 4:0.66 
0.03125 2:0.01 3:0.01 4:0.66 
0.03125 2:0.01 3:0.01 4:0.67 
0.03125 2:0.01 3:0.01 4:0.67 
0.03125 2:0.01 3:0.01 4:0.66 
0.03125 2:0.01 3:0.01 4:0.66 
0.03125 2:0.01 3:0.01 4:0.66 
0.03125 2:0.01 3:0.01 4:0.66 
0.03125 2:0.01 3:0.01 4:0.66 
0.03125 2:0.01 3:0.01 4:0.67 
0.03125 2:0.01 3:0.01 4:0.66 
0.03125 1:0.01 2:0.01 3:0.01 4:0.66 
0.03125 1:0.01 2:0.01 3:0.01 4:0.66 
0.03125 2:0.01 3:0.01 4:0.66 
0.03125 1:0.01 2:0.01 3:0.01 4:0.66 
0.03125 1:0.01 2:0.01 3:0.01 4:0.67 
0.03125 2:0.01 3:0.01 4:0.66 
0.03125 2:0.01 3:0.01 4:0.66 
0.03125 1:0.01 2:0.01 3:0.01 4:0.66 
0.03125 2:0.01 3:0.01 4:0.66 
0.03125 2:0.01 3:0.01 4:0.66 
0.03125 2:0.01 3:0.01 4:0.67 
0.03125 2:0.01 3:0.01 4:0.66 
0.03125 2:0.01 3:0.01 4:0.66 
0.03125 2:0.01 3:0.01 4:0.66 
0.03125 2:0.01 3:0.01 4:0.67 
0.03125 2:0.01 3:0.01 4:0.66 
0.03125 2:0.01 3:0.01 4:0.66 
0.03125 2:0.01 3:0.01 4:0.67 
0.03125 2:0.01 3:0.01 4:0.66 
0.03125 2:0.01 3:0.01 4:0.66 
0.03125 2:0.01 3:0.01 4:0.66 
0.03125 2:0.01 3:0.01 4:0.67 
0.03125 2:0.01 3:0.01 4:0.66 
0.03125 2:0.01 3:0.01 4:0.66 
0.03125 2:0.01 3:0.01 4:0.66 
0.03125 2:0.01 3:0.01 4:0.67 
0.03125 2:0.01 3:0.01 4:0.66 
0.03125 2:0.01 3:0.01 4:0.67 
0.03125 2:0.01 3:0.01 4:0.65 
0.03125 2:0.01 3:0.01 4:0.66 
0.03125 2:0.01 3:0.01 4:0.67 
0.03125 2:0.01 3:0.01 4:0.67 
0.03125 2:0.01 3:0.01 4:0.66 
0.03125 2:0.01 3:0.01 4:0.66 
0.03125 2:0.01 3:0.01 4:0.66 
0.03125 2:0.01 3:0.01 4:0.66 
0.03125 2:0.01 3:0.01 4:0.65 
0.03125 2:0.01 3:0.01 4:0.66 
0.03125 2:0.01 3:0.01 4:0.66 
0.03125 2:0.01 3:0.01 4:0.67 
0.03125 2:0.01 3:0.01 4:0.67 
0.03125 2:0.01 3:0.01 4:0.67 
0.03125 2:0.01 3:0.01 4:0.66 
0.03125 2:0.01 3:0.01 4:0.67 
0.03125 2:0.01 3:0.01 4:0.66 
0.03125 2:0.01 3:0.01 4:0.67 
0.03125 2:0.01 3:0.01 4:0.66 
0.03125 2:0.11 3:0.01 4:0.71 
0.03125 2:0.11 3:0.01 4:0.71 
0.03125 2:0.11 3:0.01 4:0.72 
0.03125 2:0.11 3:0.01 4:0.71 
0.03125 2:0.11 3:0.01 4:0.71 
0.03125 2:0.11 3:0.01 4:0.71 
0.03125 2:0.11 3:0.01 4:0.71 
0.03125 2:0.11 3:0.01 4:0.71 
0.03125 2:0.11 3:0.01 4:0.71 
0.03125 2:0.11 3:0.01 4:0.71 
0.03125 2:0.11 3:0.01 4:0.71 
0.03125 2:0.11 3:0.01 4:0.71 
0.03125 2:0.11 3:0.01 4:0.71 
0.03125 2:0.11 3:0.01 4:0.72 
0.03125 2:0.11 3:0.01 4:0.71 
0.03125 2:0.11 3:0.01 4:0.72 
0.03125 2:0.11 3:0.01 4:0.71 
0.03125 2:0.11 3:0.01 4:0.72 
0.03125 2:0.11 3:0.01 4:0.71 
0.03125 2:0.11 3:0.01 4:0.72 
0.03125 2:0.11 3:0.01 4:0.71 
0.03125 2:0.11 3:0.01 4:0.71 
0.03125 2:0.11 3:0.01 4:0.71 
0.03125 2:0.11 3:0.01 4:0.71 
0.03125 2:0.11 3:0.01 4:0.72 
0.03125 2:0.11 3:0.01 4:0.71 
0.03125 2:0.11 3:0.01 4:0.71 
0.03125 2:0.11 3:0.01 4:0.71 
0.03125 2:0.11 3:0.01 4:0.71 
0.03125 2:0.11 3:0.01 4:0.71 
0.03125 2:0.11 3:0.01 4:0.71 
0.03125 2:0.11 3:0.01 4:0.72 
0.03125 2:0.11 3:0.01 4:0.71 
0.03125 1:0.01 2:0.11 3:0.01 4:0.71 
0.03125 2:0.11 3:0.01 4:0.71 
0.03125 2:0.11 3:0.01 4:0.71 
0.03125 2:0.11 3:0.01 4:0.71 
0.03125 2:0.11 3:0.01 4:0.71 
0.03125 2:0.11 3:0.01 4:0.71 
0.03125 2:0.11 3:0.01 4:0.71 
0.03125 2:0.11 3:0.01 4:0.71 
0.03125 1:0.01 2:0.11 3:0.01 4:0.71 
0.03125 2:0.11 3:0.01 4:0.72 
0.03125 2:0.11 3:0.01 4:0.71 
0.03125 2:0.11 3:0.01 4:0.72 
0.03125 2:0.11 3:0.01 4:0.72 
0.03125 2:0.11 3:0.01 4:0.72 
0.03125 2:0.11 3:0.01 4:0.71 
0.03125 2:0.11 3:0.01 4:0.72 
0.03125 2:0.11 3:0.01 4:0.71 
0.03125 2:0.11 3:0.01 4:0.72 
0.03125 2:0.11 3:0.01 4:0.71 
0.03125 2:0.11 3:0.01 4:0.72 
0.03125 2:0.11 3:0.01 4:0.72 
0.03125 1:0.01 2:0.11 3:0.01 4:0.71 
0.03125 2:0.11 3:0.01 4:0.71 
0.03125 2:0.11 3:0.01 4:0.72 
0.03125 1:0.01 2:0.11 3:0.01 4:0.72 
0.03125 2:0.11 3:0.01 4:0.72 
0.03125 2:0.11 3:0.01 4:0.72 
0.03125 1:0.01 2:0.11 3:0.01 4:0.72 
0.03125 2:0.11 3:0.01 4:0.71 
0.03125 2:0.11 3:0.01 4:0.72 
0.03125 2:0.11 3:0.01 4:0.72 
0.03125 1:0.01 2:0.11 3:0.01 4:0.72 
0.03125 2:0.11 3:0.01 4:0.7 
0.03125 2:0.11 3:0.01 4:0.71 
0.03125 2:0.11 3:0.01 4:0.71 
0.03125 2:0.11 3:0.01 4:0.72 
0.03125 2:0.11 3:0.01 4:0.71 
0.03125 2:0.11 3:0.01 4:0.72 
0.03125 2:0.11 3:0.01 4:0.72 
0.03125 2:0.11 3:0.01 4:0.71 
0.03125 2:0.11 3:0.01 4:0.72 
0.03125 2:0.11 3:0.01 4:0.72 
0.03125 2:0.11 3:0.01 4:0.72 
0.03125 2:0.11 3:0.01 4:0.72 
0.03125 2:0.11 3:0.01 4:0.71 
0.03125 2:0.11 3:0.01 4:0.71 
0.03125 2:0.11 3:0.01 4:0.71 
0.03125 2:0.11 3:0.01 4:0.71 
0.03125 1:0.01 2:0.11 3:0.01 4:0.72 
0.03125 2:0.11 3:0.01 4:0.71 
0.03125 2:0.11 3:0.01 4:0.72 
0.03125 2:0.11 3:0.01 4:0.71 
0.03125 2:0.11 3:0.01 4:0.72 
0.03125 2:0.11 3:0.01 4:0.71 
0.03125 2:0.11 3:0.01 4:0.71 
0.03125 2:0.11 3:0.01 4:0.71 
0.03125 2:0.11 3:0.01 4:0.72 
0.03125 2:0.11 3:0.01 4:0.71 
0.03125 2:0.11 3:0.01 4:0.72 
0.03125 2:0.11 3:0.01 4:0.71 
0.03125 2:0.11 3:0.01 4:0.72 
0.03125 2:0.11 3:0.01 4:0.72 
0.03125 2:0.11 3:0.01 4:0.72 
0.03125 2:0.11 3:0.01 4:0.71 
0.03125 2:0.11 3:0.01 4:0.72 
0.03125 2:0.11 3:0.01 4:0.72 
0.03125 2:0.11 3:0.01 4:0.71 
0.03125 2:0.01 3:0.01 4:0.74 
0.03125 1:0.01 2:0.01 3:0.01 4:0.74 
0.03125 2:0.01 3:0.01 4:0.74 
0.03125 2:0.01 3:0.01 4:0.73 
0.03125 2:0.01 3:0.01 4:0.73 
0.03125 2:0.01 3:0.01 4:0.74 
0.03125 2:0.01 3:0.01 4:0.73 
0.03125 2:0.01 3:0.01 4:0.73 
0.03125 2:0.01 3:0.01 4:0.73 
0.03125 2:0.01 3:0.01 4:0.73 
0.03125 2:0.01 3:0.01 4:0.73 
0.03125 2:0.01 3:0.01 4:0.73 
0.03125 2:0.01 3:0.01 4:0.73 
0.03125 2:0.01 3:0.01 4:0.73 
0.03125 2:0.01 3:0.01 4:0.74 
0.03125 2:0.01 3:0.01 4:0.72 
0.03125 2:0.01 3:0.01 4:0.73 
0.03125 2:0.01 3:0.01 4:0.73 
0.03125 2:0.01 3:0.01 4:0.74 
0.03125 2:0.01 3:0.01 4:0.73 
0.03125 2:0.01 3:0.01 4:0.73 
0.03125 2:0.01 3:0.01 4:0.73 
0.03125 2:0.01 3:0.01 4:0.73 
0.03125 1:0.01 2:0.01 3:0.01 4:0.74 
0.03125 2:0.01 3:0.01 4:0.73 
0.03125 2:0.01 3:0.01 4:0.73 
0.03125 2:0.01 3:0.01 4:0.73 
0.03125 2:0.01 3:0.01 4:0.73 
0.03125 2:0.01 3:0.01 4:0.74 
0.03125 2:0.01 3:0.01 4:0.73 
0.03125 2:0.01 3:0.01 4:0.73 
0.03125 2:0.01 3:0.01 4:0.74 
0.03125 2:0.01 3:0.01 4:0.73 
0.03125 2:0.01 3:0.01 4:0.73 
0.03125 2:0.01 3:0.01 4:0.73 
0.03125 2:0.01 3:0.01 4:0.73 
0.03125 2:0.01 3:0.01 4:0.74 
0.03125 1:0.01 2:0.01 3:0.01 4:0.74 
0.03125 2:0.01 3:0.01 4:0.73 
0.03125 2:0.01 3:0.01 4:0.73 
0.03125 2:0.01 3:0.01 4:0.73 
0.03125 2:0.01 3:0.01 4:0.74 
0.03125 2:0.01 3:0.01 4:0.74 
0.03125 1:0.01 2:0.01 3:0.01 4:0.73 
0.03125 2:0.01 3:0.01 4:0.73 
0.03125 2:0.01 3:0.01 4:0.73 
0.03125 2:0.01 3:0.01 4:0.74 
0.03125 1:0.02 2:0.01 3:0.01 4:0.73 
0.03125 2:0.01 3:0.01 4:0.73 
0.03125 2:0.01 3:0.01 4:0.74 
0.03125 2:0.01 3:0.01 4:0.74 
0.03125 2:0.01 3:0.01 4:0.73 
0.03125 2:0.01 3:0.01 4:0.73 
0.03125 2:0.01 3:0.01 4:0.74 
0.03125 2:0.01 3:0.01 4:0.73 
0.03125 2:0.01 3:0.01 4:0.73 
0.03125 2:0.01 3:0.01 4:0.74 
0.03125 2:0.01 3:0.01 4:0.73 
0.03125 2:0.01 3:0.01 4:0.73 
0.03125 2:0.01 3:0.01 4:0.74 
0.03125 1:0.01 2:0.01 3:0.01 4:0.73 
0.03125 2:0.01 3:0.01 4:0.74 
0.03125 2:0.01 3:0.01 4:0.73 
0.03125 2:0.01 3:0.01 4:0.74 
0.03125 2:0.01 3:0.01 4:0.73 
0.03125 2:0.01 3:0.01 4:0.73 
0.03125 2:0.01 3:0.01 4:0.73 
0.03125 2:0.01 3:0.01 4:0.73 
0.03125 2:0.01 3:0.01 4:0.73 
0.03125 2:0.01 3:0.01 4:0.73 
0.03125 2:0.01 3:0.01 4:0.73 
0.03125 2:0.01 3:0.01 4:0.74 
0.03125 1:0.01 2:0.01 3:0.01 4:0.73 
0.03125 2:0.01 3:0.01 4:0.73 
0.03125 2:0.01 3:0.01 4:0.73 
0.03125 2:0.01 3:0.01 4:0.74 
0.03125 2:0.01 3:0.01 4:0.73 
0.03125 2:0.01 3:0.01 4:0.74 
0.03125 2:0.01 3:0.01 4:0.74 
0.03125 2:0.01 3:0.01 4:0.73 
-0.03125 
-0.03125 4:0.01 
-0.03125 4:0.01 
-0.03125 
-0.03125 4:0.01 
-0.03125 4:0.01 
-0.03125 4:0.01 
-0.03125 
-0.03125 
-0.03125 
-0.03125 
-0.03125 4:0.01 
-0.03125 4:0.01 
-0.03125 
-0.03125 4:0.01 
-0.03125 
-0.03125 4:0.01 
-0.03125 4:0.01 
-0.03125 4:0.01 
-0.03125 
-0.03125 
-0.03125 
-0.03125 4:0.01 
-0.03125 
-0.03125 
-0.03125 
-0.03125 4:0.01 
-0.03125 4:0.01 
-0.03125 4:0.01 
-0.03125 4:0.01 
-0.03125 
-0.03125 
-0.03125 
-0.03125 4:0.01 
-0.03125 4:0.01 
-0.03125 
-0.03125 
-0.03125 4:0.01 
-0.03125 4:0.01 
-0.03125 4:0.01 
-0.03125 
-0.03125 4:0.01 
-0.03125 
-0.03125 1:0.01 4:0.01 
-0.03125 4:0.01 
-0.03125 4:0.01 
-0.03125 4:0.01 
-0.03125 
-0.03125 4:0.01 
-0.03125 
-0.03125 
-0.03125 
-0.03125 
-0.03125 
-0.03125 4:0.01 
-0.03125 1:0.02 4:0.01 
-0.03125 1:0.01 
-0.03125 
-0.03125 4:0.01 
-0.03125 4:0.01 
-0.03125 4:0.01 
-0.03125 1:0.01 4:0.01 
-0.03125 4:0.01 
-0.03125 4:0.01 
-0.03125 4:0.01 
-0.03125 
-0.03125 
-0.03125 
-0.03125 4:0.01 
-0.03125 4:0.01 
-0.03125 
-0.03125 4:0.01 
-0.03125 4:0.01 
-0.03125 
-0.03125 4:0.01 
-0.03125 
-0.03125 
-0.03125 
-0.03125 4:0.01 
-0.03125 
-0.03125 
-0.03125 
-0.03125 
-0.03125 4:0.01 
-0.03125 4:0.01 
-0.03125 4:0.01 
-0.03125 4:0.01 
-0.03125 
-0.03125 4:0.01 
-0.03125 4:0.01 
-0.03125 
-0.03125 
-0.03125 
-0.03125 4:0.01 
-0.03125 4:0.01 
-0.03125 4:0.01 
-0.03125 4:0.01 
-0.03125 
-0.03125 4:0.01 
-0.03125 
-0.03125 4:0.01 
-0.03125 
-0.03125 
-0.03125 
-0.03125 
-0.03125 
-0.03125 
-0.03125 4:0.01 
-0.03125 4:0.01 
-0.03125 4:0.01 
-0.03125 4:0.01 
-0.03125 
-0.03125 4:0.01 
-0.03125 
-0.03125 1:0.01 
-0.03125 
-0.03125 
-0.03125 4:0.01 
-0.03125 4:0.01 
-0.03125 1:0.01 
-0.03125 4:0.01 
-0.03125 4:0.01 
-0.03125 4:0.01 
-0.03125 4:0.01 
-0.03125 4:0.01 
-0.03125 
-0.03125 4:0.01 
-0.03125 
-0.03125 
-0.03125 
-0.03125 4:0.01 
-0.03125 
-0.03125 
-0.03125 
-0.03125 4:0.01 
-0.03125 4:0.01 
-0.03125 4:0.01 
-0.03125 
-0.03125 
-0.03125 1:0.01 4:0.01 
-0.03125 
-0.03125 4:0.01 
-0.03125 4:0.01 
-0.03125 4:0.01 
-0.03125 
-0.03125 4:0.01 
-0.03125 4:0.01 
-0.03125 
-0.03125 4:0.01 
-0.03125 4:0.01 
-0.03125 4:0.01 
-0.03125 4:0.01 
-0.03125 
-0.03125 4:0.01 
-0.03125 4:0.01 
-0.03125 
-0.03125 4:0.01 
-0.03125 4:0.01 
-0.03125 4:0.01 
-0.03125 4:0.01 
-0.03125 4:0.01 
-0.03125 
-0.03125 
-0.03125 4:0.01 
-0.03125 
-0.03125 
-0.03125 
-0.03125 
-0.03125 4:0.01 
-0.03125 4:0.01 
-0.03125 4:0.01 
-0.03125 4:0.01 
-0.03125 4:0.01 
-0.03125 4:0.01 
-0.03125 4:0.01 
-0.03125 4:0.01 
-0.03125 
-0.03125 
-0.03125 
-0.03125 4:0.01 
-0.03125 4:0.01 
-0.03125 
-0.03125 
-0.03125 
-0.03125 
-0.03125 4:0.01 
-0.03125 4:0.01 
-0.03125 
-0.03125 4:0.01 
-0.03125 4:0.01 
-0.03125 
-0.03125 
-0.03125 
-0.03125 4:0.01 
-0.03125 4:0.01 
-0.03125 4:0.01 
-0.03125 
-0.03125 4:0.01 
-0.03125 4:0.01 
-0.03125 4:0.01 
-0.03125 4:0.01 
-0.03125 4:0.01 
-0.03125 
-0.03125 4:0.01 
-0.03125 4:0.02 
-0.03125 4:0.01 
-0.03125 4:0.01 
-0.03125 4:0.01 
-0.03125 4:0.01 
-0.03125 4:0.01 
-0.03125 
-0.03125 
-0.03125 
-0.03125 
-0.03125 
-0.03125 4:0.01 
-0.03125 4:0.01 
-0.03125 
-0.03125 4:0.01 
-0.03125 4:0.01 
-0.03125 
-0.03125 
-0.03125 4:0.01 
-0.03125 
-0.03125 
-0.03125 4:0.01 
-0.03125 4:0.01 
-0.03125 4:0.01 
-0.03125 4:0.01 
-0.03125 4:0.01 
-0.03125 
-0.03125 4:0.01 
-0.03125 
-0.03125 4:0.01 
-0.03125 
-0.03125 1:0.01 4:0.01 
-0.03125 4:0.01 
-0.03125 4:0.01 
-0.03125 
-0.03125 4:0.01 
-0.03125 
-0.03125 
-0.03125 4:0.01 
-0.03125 4:0.01 
-0.03125 
-0.03125 
-0.03125 4:0.01 
-0.03125 4:0.01 
-0.03125 4:0.01 
-0.03125 
-0.03125 
-0.03125 4:0.01 
-0.03125 
-0.03125 4:0.01 
-0.03125 4:0.01 
-0.03125 4:0.01 
-0.03125 4:0.01 
-0.03125 4:0.01 
-0.03125 
-0.03125 
-0.03125 
-0.03125 4:0.01 
-0.03125 
-0.03125 4:0.01 
-0.03125 4:0.01 
-0.03125 
-0.03125 4:0.01 
-0.03125 
-0.03125 4:0.01 
-0.03125 4:0.01 
-0.03125 1:0.01 
-0.03125 
-0.03125 
-0.03125 
-0.03125 4:0.01 
-0.03125 
-0.03125 4:0.01 
-0.03125 1:0.01 4:0.01 
-0.03125 
-0.03125 4:0.01 
-0.03125 
-0.03125 
-0.03125 4:0.01 
-0.03125 
-0.03125 4:0.01 
-0.03125 4:0.01 
-0.03125 4:0.01 
-0.03125 
-0.03125 
-0.03125 4:0.01 
-0.03125 4:0.01 
-0.03125 
-0.03125 4:0.01 
-0.03125 4:0.01 
-0.03125 4:0.01 
-0.03125 4:0.01 
-0.03125 
-0.03125 
-0.03125 4:0.01 
-0.03125 4:0.01 
-0.03125 4:0.01 
-0.03125 
-0.03125 
-0.03125 4:0.01 
-0.03125 
-0.03125 
-0.03125 1:0.01 4:0.01 
-0.03125 4:0.01 
-0.03125 4:0.01 
-0.03125 
-0.03125 4:0.01 
-0.03125 
-0.03125 
-0.03125 4:0.01 
-0.03125 
-0.03125 4:0.01 
-0.03125 
-0.03125 4:0.01 
-0.03125 4:0.01 
-0.03125 
-0.03125 
-0.03125 
-0.03125 4:0.01 
-0.03125 4:0.01 
-0.03125 4:0.01 
-0.03125 
-0.03125 
-0.03125 4:0.01 
-0.03125 4:0.01 
-0.03125 
-0.03125 4:0.01 
-0.03125 
-0.03125 
-0.03125 4:0.01 
-0.03125 4:0.01 
-0.03125 
-0.03125 4:0.01 
-0.03125 4:0.01 
-0.03125 
-0.03125 4:0.01 
-0.03125 4:0.01 
-0.03125 
-0.03125 
-0.03125 
-0.03125 
-0.03125 4:0.01 
-0.03125 1:0.01 4:0.01 
-0.03125 
-0.03125 
-0.03125 4:0.01 
-0.03125 
-0.03125 4:0.01 
-0.03125 4:0.01 
-0.03125 4:0.01 
-0.03125 4:0.01 
-0.03125 4:0.01 
-0.03125 4:0.01 
-0.03125 4:0.01 
-0.03125 4:0.01 
-0.03125 4:0.01 
-0.03125 4:0.01 
-0.03125 
-0.03125 
-0.03125 4:0.01 
-0.03125 4:0.01 
-0.03125 4:0.01 
-0.03125 
-0.03125 
-0.03125 4:0.01 
-0.03125 4:0.01 
-0.03125 4:0.01 
-0.03125 4:0.01 
-0.03125 4:0.01 
-0.03125 
-0.03125 4:0.01 
-0.03125 4:0.01 
-0.03125 
-0.03125 
-0.03125 
-0.03125 4:0.01 
-0.03125 
-0.03125 
-0.03125 
-0.03125 4:0.01 
-0.03125 
-0.03125 4:0.01 
-0.03125 
-0.03125 
-0.03125 4:0.01 
-0.03125 4:0.01 
-0.03125 4:0.01 
-0.03125 4:0.01 
-0.03125 
-0.03125 
-0.03125 4:0.01 
-0.03125 
-0.03125 4:0.01 
-0.03125 
-0.03125 
-0.03125 
-0.03125 2:0.01 
-0.03125 2:0.01 4:0.01 
-0.03125 2:0.01 
-0.03125 2:0.01 4:0.01 
-0.03125 2:0.01 
-0.03125 2:0.01 4:0.01 
-0.03125 2:0.01 4:0.01 
-0.03125 2:0.01 4:0.01 
-0.03125 2:0.01 4:0.01 
-0.03125 2:0.01 
-0.03125 1:0.01 2:0.01 
-0.03125 2:0.01 4:0.01 
-0.03125 2:0.01 4:0.01 
-0.03125 2:0.01 
-0.03125 2:0.01 4:0.01 
-0.03125 2:0.01 4:0.01 
-0.03125 2:0.01 4:0.01 
-0.03125 2:0.01 
-0.03125 2:0.01 4:0.01 
-0.03125 2:0.01 
-0.03125 2:0.01 4:0.01 
-0.03125 2:0.01 
-0.03125 2:0.01 4:0.01 
-0.03125 2:0.01 4:0.01 
-0.03125 2:0.01 4:0.01 
-0.03125 2:0.01 
-0.03125 2:0.01 
-0.03125 2:0.01 
-0.03125 2:0.01 
-0.03125 2:0.01 4:0.01 
-0.03125 2:0.01 4:0.01 
-0.03125 2:0.01 4:0.01 
-0.03125 2:0.01 4:0.01 
-0.03125 2:0.01 4:0.01 
-0.03125 2:0.01 4:0.01 
-0.03125 2:0.01 4:0.01 
-0.03125 2:0.01 4:0.01 
-0.03125 2:0.01 
-0.03125 2:0.01 
-0.03125 2:0.01 
-0.03125 2:0.01 
-0.03125 2:0.01 4:0.01 
-0.03125 2:0.01 
-0.03125 2:0.01 4:0.01 
-0.03125 2:0.01 
-0.03125 2:0.01 4:0.01 
-0.03125 2:0.01 4:0.01 
-0.03125 2:0.01 4:0.01 
-0.03125 2:0.01 4:0.01 
-0.03125 2:0.01 4:0.01 
-0.03125 2:0.01 
-0.03125 2:0.01 4:0.01 
-0.03125 2:0.01 
-0.03125 2:0.01 
-0.03125 2:0.01 4:0.01 
-0.03125 2:0.01 4:0.01 
-0.03125 2:0.01 
-0.03125 2:0.01 4:0.01 
-0.03125 2:0.01 
-0.03125 2:0.01 4:0.01 
-0.03125 2:0.01 4:0.01 
-0.03125 2:0.01 
-0.03125 2:0.01 4:0.01 
-0.03125 2:0.01 
-0.03125 2:0.01 4:0.01 
-0.03125 2:0.01 4:0.01 
-0.03125 2:0.01 4:0.01 
-0.03125 2:0.01 4:0.01 
-0.03125 2:0.01 
-0.03125 2:0.01 4:0.01 
-0.03125 2:0.01 
-0.03125 2:0.01 4:0.01 
-0.03125 2:0.01 4:0.01 
-0.03125 2:0.01 4:0.01 
-0.03125 2:0.01 4:0.01 
-0.03125 2:0.01 4:0.01 
-0.03125 2:0.01 4:0.01 
-0.03125 2:0.01 4:0.01 
-0.03125 2:0.01 4:0.01 
-0.03125 2:0.01 
-0.03125 2:0.01 
-0.03125 2:0.01 
-0.03125 2:0.01 
-0.03125 2:0.01 4:0.01 
-0.03125 2:0.01 4:0.01 
-0.03125 2:0.01 4:0.01 
-0.03125 2:0.01 
-0.03125 2:0.01 4:0.01 
-0.03125 2:0.01 
-0.03125 2:0.01 4:0.01 
-0.03125 2:0.01 
-0.03125 2:0.01 4:0.01 
-0.03125 2:0.01 4:0.01 
-0.03125 2:0.01 4:0.01 
-0.03125 2:0.01 4:0.01 
-0.03125 2:0.01 4:0.01 
-0.03125 2:0.01 
-0.03125 2:0.01 
-0.03125 2:0.01 
-0.03125 2:0.01 4:0.01 
-0.03125 2:0.01 
-0.03125 2:0.01 
-0.03125 2:0.01 4:0.01 
-0.03125 2:0.01 4:0.01 
-0.03125 2:0.01 4:0.01 
-0.03125 2:0.01 4:0.01 
-0.03125 2:0.01 
-0.03125 2:0.01 4:0.01 
-0.03125 2:0.01 4:0.01 
-0.03125 2:0.01 
-0.03125 2:0.01 
-0.03125 1:0.01 2:0.01 4:0.01 
-0.03125 2:0.01 4:0.01 
-0.03125 2:0.01 
-0.03125 2:0.01 4:0.01 
-0.03125 2:0.01 4:0.01 
-0.03125 2:0.01 
-0.03125 2:0.01 
-0.03125 2:0.01 
-0.03125 2:0.01 4:0.01 
-0.03125 2:0.01 4:0.01 
-0.03125 2:0.01 
-0.03125 2:0.01 4:0.01 
-0.03125 2:0.01 
-0.03125 2:0.01 4:0.01 
-0.03125 2:0.01 
-0.03125 2:0.01 4:0.01 
-0.03125 2:0.01 4:0.01 
-0.03125 2:0.01 4:0.01 
-0.03125 2:0.01 4:0.01 
-0.03125 2:0.01 4:0.01 
-0.03125 2:0.01 4:0.01 
-0.03125 2:0.01 
-0.03125 2:0.01 
-0.03125 2:0.01 4:0.01 
-0.03125 2:0.01 
-0.03125 2:0.01 4:0.01 
-0.03125 2:0.01 4:0.01 
-0.03125 2:0.01 
-0.03125 2:0.01 
-0.03125 2:0.01 
-0.03125 2:0.01 
-0.03125 2:0.01 4:0.01 
-0.03125 2:0.01 4:0.01 
-0.03125 2:0.01 4:0.01 
-0.03125 2:0.01 
-0.03125 2:0.01 
-0.03125 2:0.01 4:0.01 
-0.03125 2:0.01 4:0.01 
-0.03125 2:0.01 4:0.01 
-0.03125 2:0.01 
-0.03125 2:0.01 4:0.01 
-0.03125 2:0.01 4:0.01 
-0.03125 2:0.01 4:0.01 
-0.03125 1:0.01 2:0.01 
-0.03125 2:0.01 4:0.01 
-0.03125 2:0.01 4:0.01 
-0.03125 2:0.01 
-0.03125 2:0.01 
-0.03125 2:0.01 4:0.01 
-0.03125 1:0.01 2:0.01 4:0.01 
-0.03125 2:0.01 4:0.01 
-0.03125 2:0.01 4:0.01 
-0.03125 2:0.01 4:0.01 
-0.03125 2:0.01 4:0.01 
-0.03125 2:0.01 4:0.01 
-0.03125 2:0.01 
-0.03125 2:0.01 4:0.01 
-0.03125 2:0.01 4:0.01 
-0.03125 2:0.01 4:0.01 
-0.03125 2:0.01 
-0.03125 2:0.01 4:0.01 
-0.03125 2:0.01 
-0.03125 2:0.01 4:0.01 
-0.03125 2:0.01 
-0.03125 2:0.01 
-0.03125 2:0.01 4:0.01 
-0.03125 2:0.01 
-0.03125 2:0.01 
-0.03125 2:0.01 4:0.01 
-0.03125 2:0.01 
-0.03125 2:0.01 
-0.03125 2:0.01 4:0.01 
-0.03125 2:0.01 4:0.01 
-0.03125 2:0.01 4:0.01 
-0.03125 2:0.01 
-0.03125 2:0.01 4:0.01 
-0.03125 2:0.01 4:0.01 
-0.03125 2:0.01 4:0.01 
-0.03125 2:0.01 4:0.01 
-0.03125 2:0.01 
-0.03125 2:0.01 
-0.03125 2:0.01 4:0.01 
-0.03125 2:0.01 
-0.03125 2:0.01 4:0.01 
-0.03125 2:0.01 
-0.03125 2:0.01 4:0.01 
-0.03125 2:0.01 
-0.03125 2:0.01 4:0.01 
-0.03125 2:0.01 
