svm_type c_svc
kernel_type rbf
gamma 0.0078125
nr_class 2
total_sv 119
rho -0.734252
label 10 13
nr_sv 91 28
SV
0.2323074482275014 1:103.5 2:168 3:86.8333 4:77.5 
0.1771356857567024 1:71.8333 2:168 3:76 4:77.5 
0.05298899443443803 1:17 2:168 3:75.3333 4:77.6667 
0.1675150287795854 1:26.5 2:168 3:74 4:78 
0.02156376481719548 1:10 2:168 3:70.6667 4:78 
0.1987988528682192 1:10 2:168 3:86.6667 4:78.3333 
0.05286558288524407 2:168 3:68 4:78.3333 
0.04031805643465027 1:56.5 2:168 3:69.5 4:78.6667 
0.0932030919868496 1:77 2:168 3:70.8333 4:79 
0.1808209841370489 1:47 2:168 3:73.6667 4:78.8333 
0.1053836633209454 2:168 3:78.3333 4:79.8333 
0.1835853738198425 1:117.5 2:168 3:68.5 4:79.6667 
0.008734086721802104 2:168 3:60.8333 4:80.3333 
0.05851200168476457 1:20 2:168 3:63.1667 4:80.1667 
0.03899314713421164 1:10 2:168 3:62 4:80.6667 
0.002104727574968423 1:10 2:168 3:64.1667 4:80.6667 
0.09714450810293612 1:77 2:168 3:60.1667 4:80.8333 
0.26576444379717 2:172 3:572.333 4:80.1667 
0.0221492733511072 2:172 3:58.6667 4:81.5 
0.08015647584055992 1:30 2:172 3:57 4:81.3333 
0.1881210256723428 1:103.5 2:172 3:72.6667 4:81.5 
0.09964925266091204 1:47 2:172 3:57.8333 4:82.1667 
0.009673208526101117 2:172 3:56.8333 4:81.6667 
0.1207465498409756 1:56.5 2:172 3:69.1667 4:82 
0.05799149888222268 1:10 2:172 3:55.5 4:82.1667 
0.03803837765636154 2:172 3:55.1667 4:81.8333 
0.03459569658650248 1:41.5 2:172 3:53.3333 4:82.3333 
0.1075743293338096 1:77 2:172 3:54.3333 4:82.1667 
0.02661778211650547 1:46.5 2:168 3:53 4:82.6667 
0.02403592386508229 1:76 2:168 3:49.3333 4:82.5 
0.07662085846627123 1:30 2:168 3:64 4:82.6667 
0.1129478062703214 1:56.5 2:168 3:50.8333 4:83 
0.03792640491787649 2:168 3:46.3333 4:83.1667 
0.03676732743992039 2:168 3:63.6667 4:84 
0.2236364270843651 1:103.5 2:168 3:42.1667 4:83.5 
0.04275940964454297 1:35 2:168 3:46.5 4:83.6667 
0.02945738478580036 1:10 2:168 3:75.8333 4:83.3333 
0.007551363204228759 1:43.5 2:168 3:45.1667 4:84.1667 
0.01868298368317788 2:168 3:57.5 4:84.3333 
0.08425017510734878 1:17 2:168 3:50.3333 4:84.1667 
0.2143034761545573 2:168 3:28.3333 4:83.8333 
0.189901026354944 1:113.5 2:168 3:56.6667 4:84.1667 
0.08679967055779096 2:172 3:71.8333 4:83.3333 
0.009705568724539412 1:30 2:172 3:42.3333 4:84.3333 
0.08255713398144927 1:17 2:172 3:39.5 4:84.6667 
0.07208572424476019 1:40.5 2:172 3:44.8333 4:84.5 
0.09527684178998551 2:172 3:42 4:84.5 
0.01016393859989316 2:172 3:40.6667 4:84.8333 
0.04164525735014832 1:81.8333 2:172 3:39.1667 4:84.8333 
0.09171124810797249 1:57 2:173 3:39.8333 4:84.6667 
0.005254207215390159 1:26.5 2:172 3:42.3333 4:85 
0.0591108412987008 2:168 3:51.1667 4:84.8333 
0.01344117701212638 1:60 2:168 3:38.1667 4:85.1667 
0.1709647244696176 1:88.5 2:169 3:37.3333 4:85 
0.06390765115203424 1:26.5 2:168 3:51.8333 4:85.5 
0.02217171302822303 1:20 2:169 3:36.6667 4:85.5 
0.1020294927495597 1:68.5 2:168 3:50.5 4:85.3333 
0.1342496325725449 1:36.5 2:168 3:32.8333 4:85.6667 
0.07707851515835978 1:10 2:168 3:36.1667 4:86.1667 
0.1417143213319867 1:50 2:168 3:32.6667 4:85.8333 
0.04227838363784636 1:57 2:168 3:35.1667 4:85.3333 
0.1884764759704208 1:73.5 2:168 3:33.8333 4:85.8333 
0.1139133760348054 1:26.5 2:169 3:34.3333 4:86 
0.09491921105125092 2:317 3:47.6667 4:80.6667 
0.1071414960472489 1:47 2:317 3:38 4:81.8333 
0.05573000565241096 1:15 2:317 3:32 4:80.8333 
0.02187917414383136 2:317 3:38.5 4:80.6667 
0.0551958246201366 1:26.5 2:317 3:27 4:81.1667 
0.2414302599165968 2:321 3:63.5 4:81.6667 
0.1435056184622792 1:20 2:321 3:42.8333 4:81.3333 
0.108671468919582 1:46.5 2:321 3:37.5 4:80.8333 
0.05769834595156456 2:321 3:32.8333 4:82 
0.08732835163670186 2:321 3:47.3333 4:81.1667 
0.03894801760043794 1:15 2:321 3:32.6667 4:81.6667 
0.1879529366119138 1:62 2:321 3:41.3333 4:81.6667 
0.06625075298015974 1:26.5 2:321 3:28 4:81.5 
0.2654697015060556 1:258 2:317 3:32.3333 4:81.6667 
0.09596180640592425 1:26.5 2:317 3:40.3333 4:81.5 
0.03927620461710492 1:10 2:317 3:30.8333 4:81.6667 
0.03993847287298223 2:317 3:42.1667 4:82.6667 
0.1815318219420374 1:94.5 2:317 3:31.5 4:81.5 
0.139845263055404 1:183 2:317 3:31.5 4:82.6667 
0.1819860763639284 1:104.5 2:317 3:30.6667 4:81.6667 
0.1936233888062666 1:68 2:317 3:25.3333 4:81.3333 
0.2649697661978925 1:128.667 2:317 3:20 4:81.8333 
0.1398452617076772 1:179.5 2:317 3:32 4:81.5 
0.1689444931293413 1:36.5 2:317 3:25.1667 4:81.5 
0.02273225024826409 1:36.5 2:317 3:35 4:82.1667 
0.09604743954919986 1:70.5 2:317 3:33.6667 4:82.1667 
0.003042926167775239 1:10 2:317 3:35.3333 4:82.8333 
0.1947571302677168 2:317 3:25.1667 4:81.8333 
-0.5 1:12261.7 2:158 3:652.75 4:2.625 
-0.243347819735928 1:12262.1 2:158 3:632.625 4:3 
-0.4495507253608031 1:12261.9 2:158 3:644.375 4:2.75 
-0.2854025486212203 1:12261.4 2:158 3:634.5 4:3 
-0.5 1:12261 2:161 3:652.5 4:3.375 
-0.5 1:12261.6 2:162 3:641.125 4:2.5 
-0.05175190509753725 1:12262 2:162 3:629.875 4:2.625 
-0.3375629749649933 1:12261.9 2:162 3:625.875 4:3.125 
-0.4547785952051833 1:12261.1 2:158 3:622.875 4:2.5 
-0.0336856881494316 1:12261.9 2:158 3:619.25 4:3.125 
-0.3461525302464081 1:12262 2:158 3:613.75 4:2.25 
-0.2700208885137981 1:12261.9 2:162 3:630.75 4:2.875 
-0.03372152461385263 1:12262 2:162 3:614 4:2.5 
-0.08610094170336134 1:12261.9 2:162 3:607.875 4:2.375 
-0.3432580814013579 1:12262 2:158 3:603.625 4:2.5 
-0.1510620841263742 1:12261.3 2:158 3:608.5 4:2.25 
-0.4848093995147179 1:12261.4 2:162 3:615 4:3.125 
-0.1857361232446059 1:12261.4 2:162 3:595.75 4:2.75 
-0.1012624848919046 1:12261.9 2:162 3:587 4:2.75 
-0.411812871007033 1:12261 2:162 3:587.625 4:2.5 
-0.08392007688499534 1:12261.3 2:162 3:586.375 4:2.75 
-0.5 1:12261.9 2:157 3:593.25 4:2.625 
-0.3975367863291983 1:12261.4 2:157 3:584.875 4:2.25 
-0.02957879173704875 1:12261.7 2:158 3:573.25 4:2.75 
-0.5 1:12261.9 2:158 3:572.75 4:2.5 
-0.5 1:12261.9 2:158 3:571.875 4:2.625 
-0.5 1:12261.4 2:162 3:602.375 4:3.25 
-0.5 1:12262 2:162 3:573.875 4:2.625 
