svm_type c_svc
kernel_type rbf
gamma 0.0078125
nr_class 2
total_sv 76
rho -0.108158
label 10 12
nr_sv 38 38
SV
32 1:0.02 2:0.11 4:0.82 
32 2:0.11 4:0.83 
32 1:0.01 2:0.11 4:0.83 
26.59615864305313 2:0.11 4:0.82 
32 2:0.11 4:0.82 
32 2:0.11 4:0.83 
32 2:0.11 4:0.82 
32 2:0.11 4:0.82 
32 2:0.11 4:0.82 
32 2:0.11 4:0.82 
32 2:0.11 4:0.83 
32 2:0.11 4:0.82 
32 2:0.11 4:0.82 
32 2:0.11 4:0.82 
32 2:0.11 4:0.82 
32 2:0.11 4:0.82 
32 2:0.11 4:0.82 
32 2:0.11 4:0.82 
32 2:0.11 4:0.82 
32 2:0.11 4:0.83 
32 2:0.11 4:0.82 
32 2:0.11 4:0.82 
32 2:0.11 4:0.82 
32 2:0.11 4:0.83 
32 2:0.11 4:0.82 
32 2:0.11 4:0.82 
32 2:0.11 4:0.83 
32 2:0.11 4:0.82 
32 2:0.11 4:0.82 
32 2:0.11 4:0.82 
32 2:0.11 4:0.82 
32 2:0.11 4:0.82 
32 2:0.11 4:0.82 
32 2:0.11 4:0.82 
32 2:0.11 4:0.82 
32 2:0.11 4:0.82 
32 2:0.11 4:0.83 
32 2:0.11 4:0.82 
-32 2:0.27 4:0.99 
-32 2:0.29 4:0.99 
-32 2:0.29 4:1 
-32 2:0.29 4:1 
-32 2:0.29 4:1 
-32 2:0.3 4:0.99 
-32 2:0.3 4:1 
-32 2:0.31 4:1 
-32 2:0.32 4:1 
-32 2:0.32 4:1 
-32 2:0.33 4:0.99 
-32 2:0.33 4:0.99 
-32 2:0.36 4:0.99 
-32 2:0.36 4:1 
-32 2:0.36 4:0.99 
-32 2:0.36 4:1 
-32 2:0.37 4:1 
-32 2:0.37 4:0.99 
-32 2:0.37 4:1 
-32 1:0.01 2:0.37 4:1 
-32 2:0.37 4:0.99 
-32 1:0.01 2:0.37 4:0.99 
-32 1:0.01 2:0.38 4:1 
-32 2:0.38 4:1 
-32 2:0.38 4:1 
-32 2:0.38 4:1 
-32 2:0.38 4:1 
-32 2:0.39 4:0.99 
-32 2:0.39 4:1 
-32 2:0.39 4:1 
-32 2:0.39 4:1 
-32 2:0.39 4:1 
-32 2:0.41 4:0.98 
-26.59615864305313 2:0.41 4:1 
-32 2:0.41 4:1 
-32 2:0.41 4:1 
-32 2:0.41 4:1 
-32 2:0.41 4:1 
