svm_type c_svc
kernel_type rbf
gamma 0.00012207
nr_class 2
total_sv 33
rho 0.163185
label 10 12
nr_sv 17 16
SV
0.2459685293931713 1:103.5 2:168 3:86.8333 4:77.5 
0.2846776946596489 1:10 2:168 3:86.6667 4:78.3333 
0.1992024855396874 2:168 3:78.3333 4:79.8333 
0.5 1:117.5 2:168 3:68.5 4:79.6667 
0.5 2:172 3:572.333 4:80.1667 
0.1239628535290402 1:103.5 2:168 3:42.1667 4:83.5 
0.5 2:168 3:28.3333 4:83.8333 
0.05534976519686893 1:113.5 2:168 3:56.6667 4:84.1667 
0.07864468514308419 2:168 3:32.1667 4:85.8333 
0.5 2:321 3:63.5 4:81.6667 
0.5 1:258 2:317 3:32.3333 4:81.6667 
0.2119460371267056 1:94.5 2:317 3:31.5 4:81.5 
0.5 1:183 2:317 3:31.5 4:82.6667 
0.39336838037182 1:128.667 2:317 3:20 4:81.8333 
0.008614999021079159 1:179.5 2:317 3:32 4:81.5 
0.04425827824779791 2:317 3:25.3333 4:82 
0.5 2:317 3:25.1667 4:81.8333 
-0.3930994729700975 2:1195 3:632.2 4:22 
-0.4437544267540167 2:1195 3:633.4 4:22 
-0.3627295851905345 2:1194 3:88.4 4:22.2 
-0.1224328415111588 1:100.545 2:1198 3:83.1 4:22.2 
-0.5 1:100.545 2:1198 3:83.5 4:22.1 
-0.3899781197511013 1:7.57143 2:1197 3:40.95 4:23.6 
-0.4194070570296158 1:15.1429 2:1468 3:433.2 4:23.45 
-0.03302036082166084 1:7.57143 2:1464 3:74.7 4:23.6 
-0.490104670718477 1:83.381 2:1464 3:38.5 4:23.6 
-0.4193180416468167 1:18 2:1468 3:438.6 4:23.45 
-0.4982319220685019 1:7.57143 2:1464 3:74.7 4:23.6 
-0.03998785306140797 1:7.57143 2:1464 3:39.95 4:23.6 
-0.003691201552443832 1:87.9524 2:1588 3:11.95 4:24.9 
-0.03252563619240243 1:7.57143 2:1592 3:8.95 4:24.9 
-0.4977125189606683 1:87.9524 2:1588 3:11.95 4:24.9 
-0.5 1:7.57143 2:1592 3:8.75 4:24.95 
