svm_type c_svc
kernel_type rbf
gamma 0.00012207
nr_class 2
total_sv 141
rho -0.517109
label 10 14
nr_sv 71 70
SV
0.03125 1:103.5 2:168 3:86.8333 4:77.5 
0.03125 1:71.8333 2:168 3:76 4:77.5 
0.01100583385562604 2:168 3:68 4:78.3333 
0.03125 1:77 2:168 3:70.8333 4:79 
0.03125 1:117.5 2:168 3:68.5 4:79.6667 
0.03125 2:172 3:572.333 4:80.1667 
0.03125 1:103.5 2:172 3:72.6667 4:81.5 
0.03125 1:76 2:168 3:49.3333 4:82.5 
0.03125 1:103.5 2:168 3:42.1667 4:83.5 
0.03125 2:168 3:28.3333 4:83.8333 
0.03125 1:113.5 2:168 3:56.6667 4:84.1667 
0.03125 1:57 2:168 3:38.6667 4:84.6667 
0.03125 2:168 3:40.3333 4:84.1667 
0.03125 1:56.5 2:172 3:36.6667 4:84.6667 
0.03125 1:81.8333 2:172 3:39.1667 4:84.8333 
0.02201606491750445 2:168 3:38.1667 4:85.3333 
0.03125 2:168 3:38 4:85.3333 
0.03125 2:168 3:38 4:85 
0.03125 2:168 3:37.6667 4:85.1667 
0.03125 1:60 2:168 3:38.1667 4:85.1667 
0.03125 1:88.5 2:169 3:37.3333 4:85 
0.03125 2:168 3:34 4:85.1667 
0.03125 2:168 3:37 4:85.3333 
0.03125 2:168 3:38.3333 4:85 
0.03125 2:168 3:36.1667 4:85.5 
0.03125 2:168 3:37.3333 4:85.3333 
0.03125 2:168 3:37.1667 4:85.3333 
0.03125 2:168 3:33 4:85.8333 
0.03125 2:168 3:36.8333 4:85.6667 
0.03125 2:168 3:33.3333 4:85.5 
0.01480637959750866 1:47 2:168 3:34.5 4:85.6667 
0.03125 2:168 3:35.6667 4:85.5 
0.03125 2:169 3:36.1667 4:85.5 
0.03125 2:168 3:35.3333 4:85.6667 
0.03125 2:168 3:36 4:86 
0.03125 2:168 3:35.8333 4:85.8333 
0.03125 2:168 3:36.3333 4:86 
0.03125 2:169 3:35.6667 4:85.5 
0.03125 1:36.5 2:168 3:32.8333 4:85.6667 
0.03125 2:169 3:35.5 4:85.8333 
0.03125 1:50 2:168 3:32.6667 4:85.8333 
0.03125 1:57 2:168 3:35.1667 4:85.3333 
0.03125 1:73.5 2:168 3:33.8333 4:85.8333 
0.03125 2:168 3:35.6667 4:86.1667 
0.03125 2:169 3:34.3333 4:85.8333 
0.03125 2:168 3:34.1667 4:85.8333 
0.03125 2:168 3:32.1667 4:85.8333 
0.03125 2:169 3:33.8333 4:86.3333 
0.03125 2:169 3:35.1667 4:86.1667 
0.03125 2:317 3:47.6667 4:80.6667 
0.03125 2:317 3:27.3333 4:81 
0.03125 2:321 3:63.5 4:81.6667 
0.03125 2:321 3:32.1667 4:81.1667 
0.03125 2:321 3:47.3333 4:81.1667 
0.03125 1:62 2:321 3:41.3333 4:81.6667 
0.01794640399455841 2:321 3:32.6667 4:81.8333 
0.03125 2:321 3:31.8333 4:81.6667 
0.03125 2:321 3:30.5 4:81.5 
0.03125 2:321 3:32.5 4:81.6667 
0.03125 2:321 3:31.8333 4:81.6667 
0.03125 1:258 2:317 3:32.3333 4:81.6667 
0.03125 1:94.5 2:317 3:31.5 4:81.5 
0.03125 1:68 2:317 3:30.8333 4:81.6667 
0.03125 1:183 2:317 3:31.5 4:82.6667 
0.03125 1:104.5 2:317 3:30.6667 4:81.6667 
0.03125 1:68 2:317 3:25.3333 4:81.3333 
0.03125 1:128.667 2:317 3:20 4:81.8333 
0.03125 1:179.5 2:317 3:32 4:81.5 
0.03125 1:70.5 2:317 3:33.6667 4:82.1667 
0.03125 2:317 3:25.3333 4:82 
0.03125 2:317 3:25.1667 4:81.8333 
-0.03125 1:36 2:161 3:2 4:0.5 
-0.03125 1:52.2 2:160 3:1 4:0.75 
-0.03125 2:163 3:1 4:0.75 
-0.03125 2:164 3:1 4:0.75 
-0.03125 1:72.6 2:164 3:2 4:0.5 
-0.03125 1:43.8 2:164 3:2 4:0.75 
-0.03125 2:167 3:1 4:0.5 
-0.03125 2:164 3:2 4:0.75 
-0.03125 2:164 3:2 4:0.75 
-0.03125 1:50.2 2:164 3:2 4:0.75 
-0.03125 2:164 3:2 4:0.5 
-0.03125 2:163 3:2 4:0.75 
-0.006429210675020503 1:31.8 2:164 3:1 4:1 
-0.03125 1:43.8 2:159 3:2 4:0.75 
-0.03125 1:55.8 2:160 3:2 4:0.75 
-0.03125 1:36 2:161 3:1 4:0.5 
-0.03125 1:43.8 2:161 3:1 4:0.75 
-0.03125 1:43.8 2:161 3:2 4:0.75 
-0.03125 2:161 3:2 4:0.75 
-0.03125 2:161 3:2 4:0.75 
-0.03125 1:56.4 2:161 3:3 4:0.5 
-0.03125 1:43.8 2:160 3:1 4:0.75 
-0.03125 1:31.8 2:160 3:4 4:0.75 
-0.03125 1:67.8 2:160 3:1 4:0.75 
-0.03125 1:12 2:163 3:52 4:1.5 
-0.03125 2:163 3:20 4:0.5 
-0.03125 2:164 3:1 4:0.75 
-0.03125 2:165 3:19 4:0.75 
-0.03125 2:164 3:1 4:0.75 
-0.03125 1:12 2:164 3:13 4:0.75 
-0.03125 1:31.8 2:164 3:10 4:0.75 
-0.03125 2:164 3:2 4:0.5 
-0.03125 2:164 3:9 4:0.5 
-0.03125 2:164 3:2 4:0.75 
-0.03125 1:55.8 2:164 3:12 4:0.5 
-0.03125 2:164 3:9 4:0.75 
-0.03125 2:165 3:1 4:0.5 
-0.03125 1:31.8 2:164 3:9 4:0.5 
-0.03125 2:164 3:10 4:0.5 
-0.03125 1:12 2:164 3:12 4:0.75 
-0.03125 1:31.8 2:164 3:9 4:0.75 
-0.03125 2:163 3:9 4:0.75 
-0.03125 2:160 3:10 4:0.5 
-0.03125 1:31.8 2:161 3:10 4:0.75 
-0.03125 2:160 3:3 4:0.75 
-0.03125 2:160 3:11 4:0.5 
-0.03125 2:161 3:14 4:0.75 
-0.03125 2:160 3:9 4:0.75 
-0.03125 1:92.4 2:160 4:0.5 
-0.03125 2:160 3:14 4:0.75 
-0.03125 1:62.4 2:161 3:3 4:0.75 
-0.03125 1:43.8 2:160 3:3 4:0.75 
-0.03125 2:160 3:10 4:1 
-0.03125 2:160 3:3 4:0.75 
-0.03125 2:160 3:3 4:0.75 
-0.03125 2:160 3:3 4:0.75 
-0.03125 1:31.8 2:161 3:6 4:0.5 
-0.03125 2:160 3:3 4:0.75 
-0.03125 2:160 3:3 4:0.75 
-0.03125 2:161 3:6 4:0.5 
-0.03125 2:161 3:3 4:0.5 
-0.03125 1:36 2:160 3:3 4:0.5 
-0.03125 1:55.8 2:160 3:3 4:0.75 
-0.03125 2:160 3:3 4:0.75 
-0.03125 2:161 3:3 4:0.75 
-0.03125 2:160 3:3 4:0.75 
-0.03125 2:160 3:6 4:0.5 
-0.02809547169017706 2:161 3:3 4:0.5 
-0.03125 2:161 3:3 4:0.75 
-0.03125 1:43.8 2:160 3:7 4:0.75 
