svm_type c_svc
kernel_type rbf
gamma 3.05176e-05
nr_class 2
total_sv 63
rho 0.827895
label 10 11
nr_sv 10 53
SV
0.008103838162987875 1:103.5 2:168 3:86.8333 4:77.5 
0.5 2:168 3:78.3333 4:79.8333 
0.5 1:117.5 2:168 3:68.5 4:79.6667 
0.5 2:172 3:572.333 4:80.1667 
0.4436771947176004 2:168 3:28.3333 4:83.8333 
0.4258313127742944 2:321 3:63.5 4:81.6667 
0.5 2:321 3:30.5 4:81.5 
0.5 1:258 2:317 3:32.3333 4:81.6667 
0.5 1:183 2:317 3:31.5 4:82.6667 
0.1791868702421224 1:179.5 2:317 3:32 4:81.5 
-0.1715927078335807 1:20.25 2:163 3:91418.2 4:10 
-0.1718856090829662 1:92 2:173 3:82532 4:11.375 
-0.09041269171648576 1:97.625 2:173 3:71281.9 4:11 
-0.08286292005970201 1:119.75 2:173 3:71285.6 4:10.875 
-0.16304572347868 1:77.75 2:173 3:76931.9 4:11.375 
-0.1514395708842822 1:110.375 2:173 3:86836.1 4:11.125 
-0.14978458161397 1:105.125 2:173 3:65696.2 4:10.75 
-0.002193913946391568 1:117.875 2:173 3:87011 4:11.25 
-0.003880782790975933 1:77.75 2:173 3:65833.5 4:10 
-0.04999074227168569 1:119.75 2:170 3:87115 4:10.875 
-0.06647496923010138 1:96.75 2:170 3:87059.5 4:11.375 
-0.06971567114103391 1:117.125 2:170 3:65919 4:10.375 
-0.04636891965373937 1:90.5 2:170 3:65967.2 4:9.375 
-0.006151394043292737 1:112.625 2:170 3:87203.1 4:10.75 
-0.1269927603516711 1:92 2:170 3:92776.9 4:11.875 
-0.01460119014799726 1:97.625 2:169 3:87191.4 4:11.875 
-0.05618497172325917 1:136.125 2:170 3:66123.6 4:9.75 
-0.01271298625324443 1:77.75 2:170 3:66129 4:9.875 
-0.0777370048092148 1:85.25 2:170 3:87299.8 4:10.875 
-0.05023637432838094 1:77.75 2:170 3:66186.5 4:9.75 
-0.1244203954607074 1:90.5 2:170 3:92959.2 4:11.5 
-0.1042266327942034 1:219.75 2:170 3:87458 4:10.625 
-0.01816332184355223 1:111.875 2:170 3:66280.1 4:9.375 
-0.04964212107333309 1:119.375 2:170 3:66340.4 4:9.75 
-0.04154089739573852 1:85.25 2:170 3:87449.8 4:11.5 
-0.1724886933925075 1:84.5 2:169 3:98687.5 4:11.875 
-0.02064377606864534 1:128.375 2:170 3:66422.1 4:10 
-0.09825072135961854 1:105.125 2:169 3:87660.4 4:11.875 
-0.0831782502082985 1:39.75 2:170 3:66471.2 4:10.25 
-0.1418552186011366 1:111.875 2:170 3:93337.4 4:11 
-0.07160229774404282 1:126.875 2:170 3:66609.8 4:9.125 
-0.02273826108340126 1:105.125 2:170 3:87765.6 4:10.125 
-0.04159248330464311 1:84.5 2:173 3:87857 4:11.875 
-0.03028752756015876 1:85.25 2:173 3:66721.6 4:9.5 
-0.03582197178771873 1:92 2:173 3:93494 4:11.25 
-0.03207299136915182 1:111.875 2:174 3:87854.1 4:10.875 
-0.04172881468064271 1:85.25 2:173 3:93554.2 4:11.375 
-0.0314927112374001 1:85.25 2:173 3:66777.5 4:9.375 
-0.04768309300069423 1:111.875 2:173 3:66795.5 4:9.25 
-0.1026534185325996 1:92 2:173 3:88010.8 4:10.875 
-0.1481789797539429 1:84.5 2:170 3:66998.6 4:9.125 
-0.1433965329359654 1:105.125 2:170 3:93713.6 4:11 
-0.1233553634944634 1:112.25 2:169 3:88246.8 4:11 
-0.03048130995760749 1:85.25 2:170 3:88240.1 4:10.25 
-0.1629161295938756 1:126.143 2:169 3:76628 4:10.2857 
-0.1508493563721662 1:9.23077 2:158 3:17198.5 4:6.15385 
-0.08041453328436959 1:4.61538 2:157 3:16970.9 4:6.38462 
-0.0971771195532046 1:127.615 2:157 3:16822.1 4:5.69231 
-0.01709370439082347 1:64 2:157 3:16981.7 4:5.92308 
-0.05704234416075418 2:157 3:16749 4:5.61538 
-0.0206250997157141 2:157 3:16665.8 4:5.53846 
-0.0005610145876387774 1:4.61538 2:160 3:16709.8 4:5.46154 
-0.14835864423763 1:16.8462 2:157 3:16511.8 4:5.30769 
