svm_type c_svc
kernel_type rbf
gamma 0.333333
nr_class 2
total_sv 592
rho 0.0123449
label 10 12
nr_sv 299 293
SV
1 0:15.36 1:1360244 2:233 3:100 
1 0:12.19 1:1360528 2:232 3:93 
1 0:16.53 1:1360540 2:231 3:106 
1 0:15.16 1:1360572 2:230 3:93 
1 0:25.01 1:1360672 2:229 3:100 
1 0:10.59 1:1360836 2:228 3:93 
1 0:15.49 1:1360908 2:227 3:106 
1 0:12.24 1:1352604 2:226 3:100 
1 0:15.84 1:1352792 2:225 3:100 
1 0:17.64 1:1352868 2:224 3:100 
1 0:10.33 1:1352956 2:223 3:93 
1 0:33.47 1:1351924 2:222 3:106 
1 0:11.85 1:1351952 2:221 3:93 
1 0:17.31 1:1351948 2:220 3:100 
1 0:11.67 1:1351976 2:219 3:93 
1 0:15.06 1:1351996 2:218 3:106 
1 0:9.54 1:1352076 2:218 3:100 
1 0:8.98 1:1352184 2:217 3:100 
1 0:10.06 1:1351996 2:216 3:93 
1 0:10.3 1:1352004 2:215 3:100 
1 0:11.82 1:1351984 2:214 3:106 
1 0:16.83 1:1352016 2:213 3:100 
1 0:23.57 1:1352028 2:212 3:100 
1 0:14.15 1:1318556 2:211 3:100 
1 0:24.64 1:1318668 2:211 3:100 
1 0:12.81 1:1318740 2:210 3:106 
1 0:11.44 1:1318836 2:209 3:106 
1 0:17.22 1:1318980 2:208 3:100 
1 0:18.84 1:1319076 2:207 3:100 
1 0:14.14 1:1319192 2:206 3:100 
1 0:14.37 1:1319284 2:206 3:100 
1 0:11.14 1:1319348 2:205 3:100 
1 0:13.87 1:1319404 2:204 3:93 
1 0:22.95 1:1319496 2:203 3:106 
1 0:19.19 1:1319568 2:202 3:100 
1 0:11.69 1:1319520 2:202 3:100 
1 0:15.57 1:1318320 2:201 3:106 
1 0:24.01 1:1318240 2:200 3:93 
1 0:14.48 1:1318236 2:199 3:100 
1 0:16.72 1:1318172 2:198 3:100 
1 0:13.22 1:1318216 2:198 3:93 
1 0:10.99 1:1318336 2:197 3:106 
1 0:10 1:1318420 2:196 3:93 
1 0:18.06 1:1318488 2:195 3:100 
1 0:23.79 1:1318576 2:195 3:100 
1 0:32.34 1:1318676 2:194 3:106 
1 0:27.9 1:1318756 2:193 3:100 
1 0:17.48 1:1318876 2:193 3:106 
1 0:20.58 1:1318960 2:192 3:93 
1 0:19.77 1:1319008 2:191 3:106 
1 0:19.86 1:1319076 2:190 3:106 
1 0:16.02 1:1319160 2:190 3:100 
1 0:12.54 1:1319248 2:189 3:100 
1 0:13.51 1:1319372 2:188 3:93 
1 0:15.43 1:1318160 2:188 3:106 
1 0:11.65 1:1318152 2:187 3:93 
1 0:9.23 1:1318144 2:186 3:100 
1 0:6.51 1:1318152 2:186 3:93 
1 0:6.09 1:1318204 2:185 3:106 
1 0:21.72 1:1318292 2:184 3:93 
1 0:7.88 1:1318372 2:184 3:100 
1 0:16.22 1:1318448 2:183 3:93 
1 0:8.6 1:1318536 2:182 3:106 
1 0:10.64 1:1318616 2:182 3:100 
1 0:17.34 1:1318700 2:181 3:100 
1 0:10.38 1:1318816 2:181 3:100 
1 0:19.31 1:1318272 2:180 3:100 
1 0:18.42 1:1318172 2:179 3:106 
1 0:17.45 1:1318172 2:179 3:100 
1 0:25.2 1:1318172 2:178 3:100 
1 0:44.12 1:1318172 2:177 3:93 
0.9685676845026721 0:13.62 1:1318180 2:177 3:100 
1 0:12.45 1:1318328 2:176 3:100 
1 0:18.04 1:1318392 2:176 3:100 
0.597926416886549 0:23.76 1:1318180 2:175 3:100 
0.9685372821291927 0:14.17 1:1318180 2:174 3:100 
0.5970584998323627 0:23.45 1:1318180 2:174 3:100 
1 0:12.06 1:1318192 2:173 3:100 
1 0:18.42 1:1318272 2:173 3:100 
1 0:9.22 1:1318344 2:172 3:93 
1 0:16.99 1:1318400 2:172 3:100 
1 0:18.46 1:1318496 2:171 3:100 
1 0:10.08 1:1318576 2:170 3:106 
1 0:15.5 1:1318660 2:170 3:100 
1 0:13.2 1:1318756 2:169 3:93 
1 0:59.35 1:1318848 2:169 3:100 
1 0:19.03 1:1318928 2:168 3:93 
1 0:23.25 1:1319004 2:168 3:100 
1 0:15.07 1:1319084 2:167 3:100 
1 0:18.68 1:1319168 2:167 3:93 
1 0:0.8 1:1319292 2:166 3:106 
1 0:9.36 1:1318120 2:166 3:100 
1 0:11.57 1:1318116 2:165 3:93 
1 0:19.47 1:1318108 2:165 3:106 
1 0:17.41 1:1318116 2:164 3:93 
1 0:14.12 1:1318116 2:164 3:106 
1 0:13.41 1:1318224 2:163 3:100 
1 0:13.72 1:1318304 2:162 3:93 
1 0:22.96 1:1318380 2:162 3:106 
1 0:10.18 1:1318468 2:161 3:100 
1 0:8.94 1:1318556 2:161 3:100 
1 0:13.73 1:1318636 2:160 3:106 
1 0:22.12 1:1318756 2:160 3:93 
1 0:2.29 1:1318836 2:160 3:106 
1 0:9.7 1:1318924 2:159 3:106 
1 0:9.23 1:1319000 2:159 3:93 
1 0:11.17 1:1319060 2:158 3:100 
1 0:22.43 1:1319100 2:158 3:106 
1 0:26.25 1:1319608 2:157 3:93 
1 0:13.69 1:1318956 2:157 3:106 
1 0:5.13 1:1317428 2:156 3:100 
1 0:19.89 1:1317364 2:156 3:93 
1 0:12 1:1317372 2:155 3:100 
1 1:1317376 2:155 3:100 
1 0:8.82 1:1317376 2:154 3:93 
1 0:15.91 1:1317376 2:154 3:100 
0.6042411605547235 0:9.67 1:1317376 2:153 3:100 
1 0:5.31 1:1317376 2:153 3:106 
0.6053778698975617 0:9.24 1:1317376 2:152 3:100 
1 0:14.3 1:1317380 2:152 3:100 
1 0:21.66 1:1317380 2:152 3:100 
1 0:6.34 1:1317380 2:151 3:100 
1 0:16.43 1:1316308 2:151 3:93 
1 0:10.38 1:1316232 2:150 3:100 
1 0:8.41 1:1316196 2:150 3:100 
1 0:7.86 1:1316212 2:149 3:100 
0.9154833314927601 0:9.92 1:1316216 2:149 3:100 
0.5237889183459118 0:7.12 1:1316216 2:149 3:100 
0.724253838180908 0:5.7 1:1316216 2:148 3:100 
1 0:12.46 1:1316216 2:148 3:93 
0.7424856420318885 0:7.98 1:1316216 2:147 3:100 
1 0:7.93 1:1316256 2:147 3:100 
1 0:12.17 1:1316208 2:146 3:100 
1 0:6.66 1:1316188 2:146 3:100 
1 0:7.79 1:1316188 2:146 3:106 
0.9452464893126117 0:13.07 1:1316188 2:145 3:100 
1 0:6.4 1:1316188 2:145 3:93 
0.8408281313358988 0:14.16 1:1316188 2:144 3:93 
1 0:11.01 1:1316180 2:144 3:100 
0.945171950409062 0:15.7 1:1316188 2:144 3:100 
0.1538974941519758 0:14.54 1:1316188 2:143 3:93 
0.627013467230941 0:11.94 1:1316188 2:143 3:106 
0.6263770423528666 0:11.26 1:1316188 2:142 3:106 
1 0:15.21 1:1316180 2:142 3:100 
0.9016108193814905 0:16.11 1:1316188 2:142 3:93 
1 0:33.67 1:1316184 2:141 3:106 
0.9785788303965077 0:10.68 1:1316184 2:141 3:100 
1 0:6.75 1:1316184 2:141 3:93 
1 0:6.69 1:1316176 2:140 3:93 
1 0:12.41 1:1316184 2:140 3:106 
1 0:16.29 1:1316184 2:139 3:106 
0.962134460155689 0:13.45 1:1316184 2:139 3:93 
0.8308958624665332 0:13.17 1:1316184 2:139 3:100 
1 0:20.28 1:1316176 2:138 3:100 
0.142017212771261 0:12.11 1:1316184 2:138 3:100 
0.9116818748625374 0:10.67 1:1316184 2:138 3:93 
0.5790714414180183 0:11.73 1:1316184 2:137 3:100 
0.9855191462368013 0:8.58 1:1316184 2:137 3:106 
0.9813053902171557 0:11.72 1:1316184 2:136 3:106 
1 0:6.4 1:1316184 2:136 3:93 
1 0:10.19 1:1316204 2:136 3:100 
1 0:16.1 1:1316176 2:135 3:100 
0.9640090881413566 0:10.88 1:1316184 2:135 3:93 
0.848368566826772 0:11.82 1:1316184 2:135 3:100 
1 0:10.43 1:1316188 2:134 3:106 
1 0:11.05 1:1316188 2:134 3:100 
1 0:9.69 1:1316188 2:134 3:93 
1 0:8.34 1:1316180 2:133 3:100 
0.9671673890991734 0:8.57 1:1316156 2:133 3:100 
1 0:10.74 1:1316160 2:133 3:93 
1 0:20.21 1:1316156 2:132 3:100 
0.7978516597304117 0:12.39 1:1316156 2:132 3:100 
1 0:17.32 1:1316156 2:132 3:106 
0.8168541488872054 0:9.97 1:1316156 2:131 3:93 
0.730631117269434 0:10.73 1:1316156 2:131 3:100 
0.8185673521234899 0:8.15 1:1316156 2:130 3:93 
1 0:19.96 1:1315896 2:130 3:100 
0.6043813495862524 0:23.92 1:1316172 2:130 3:100 
1 0:8.03 1:1316164 2:129 3:106 
1 0:8.09 1:1316172 2:129 3:100 
0.6051081504885372 0:23.49 1:1316172 2:129 3:100 
1 0:13.8 1:1316172 2:128 3:100 
1 0:3.68 1:1316172 2:128 3:93 
1 0:16.55 1:1316148 2:128 3:100 
1 0:23.17 1:1316164 2:127 3:100 
1 0:13.57 1:1316164 2:127 3:100 
1 0:6.63 1:1316164 2:127 3:93 
1 0:11.89 1:1316168 2:127 3:106 
1 0:13.9 1:1316160 2:126 3:106 
0.9731418476922468 0:11.49 1:1316168 2:126 3:93 
1 0:11.52 1:1316152 2:126 3:93 
0.5010237126598542 0:17.87 1:1316168 2:125 3:100 
0.3787763417671612 0:17.17 1:1316168 2:125 3:100 
1 0:8.13 1:1316172 2:125 3:93 
1 0:12.12 1:1316172 2:124 3:100 
1 0:12.86 1:1316164 2:124 3:106 
1 0:13.74 1:1316172 2:124 3:106 
1 0:24.21 1:1316172 2:124 3:93 
0.7940726364811558 0:17.32 1:1316168 2:123 3:100 
1 0:1.55 1:1316168 2:123 3:100 
0.9731217047270537 0:10.68 1:1316168 2:123 3:93 
1 0:20.46 1:1316448 2:122 3:100 
1 0:15.92 1:1316448 2:122 3:106 
1 0:17.84 1:1316440 2:122 3:106 
1 0:15.59 1:1316448 2:122 3:93 
1 0:13.13 1:1316444 2:121 3:100 
0.9624162704582039 0:21.02 1:1316444 2:121 3:100 
1 0:18.25 1:1316444 2:121 3:93 
1 0:17.28 1:1316436 2:120 3:100 
0.5475094693008214 0:18.46 1:1316444 2:120 3:100 
0.7038573784976668 0:17.12 1:1316444 2:120 3:100 
1 0:11.28 1:1356224 2:120 3:100 
1 0:19.23 1:1359104 2:119 3:100 
1 0:5.29 1:1349108 2:119 3:106 
1 0:23.13 1:1360188 2:119 3:100 
1 0:25.54 1:1381908 2:119 3:100 
1 0:11.74 1:1381472 2:118 3:100 
1 0:21.42 1:1381380 2:118 3:100 
1 0:14.94 1:1381312 2:118 3:100 
1 0:17.26 1:1390844 2:118 3:100 
1 0:10.42 1:1392412 2:117 3:100 
1 0:20.18 1:1392424 2:117 3:100 
1 0:13 1:1392412 2:117 3:106 
1 0:7.99 1:1392408 2:117 3:100 
1 0:14.61 1:1392888 2:116 3:93 
1 0:3.66 1:1392916 2:116 3:100 
1 0:23.53 1:1392692 2:116 3:93 
1 0:10.04 1:1392676 2:116 3:106 
0.7669129805345808 0:15.01 1:1392676 2:115 3:100 
0.7669995700506947 0:13.16 1:1392676 2:115 3:100 
1 0:1.76 1:1389192 2:115 3:100 
1 0:12.44 1:1389184 2:115 3:100 
1 0:18.86 1:1389196 2:114 3:106 
1 0:11.83 1:1389292 2:114 3:100 
1 0:14.47 1:1389216 2:114 3:93 
1 0:12.58 1:1389224 2:114 3:100 
1 0:15.85 1:1389232 2:113 3:100 
1 0:10.37 1:1389232 2:113 3:93 
1 0:15.16 1:1389236 2:113 3:106 
1 0:20.98 1:1389244 2:113 3:100 
1 0:14.91 1:1380920 2:112 3:93 
1 0:9.96 1:1380864 2:112 3:100 
1 0:14.17 1:1380996 2:112 3:100 
1 0:12.44 1:1380976 2:112 3:93 
1 0:24.66 1:1380956 2:111 3:100 
1 0:20.02 1:1376068 2:111 3:106 
1 0:15.16 1:1376076 2:111 3:100 
1 0:12.46 1:1376060 2:111 3:93 
1 0:19.17 1:1376124 2:110 3:100 
1 0:29.45 1:1376124 2:110 3:100 
1 0:12.45 1:1359536 2:110 3:93 
1 0:11.86 1:1359540 2:110 3:100 
0.9652064465800668 0:8.47 1:1359540 2:109 3:106 
1 0:15.82 1:1359556 2:109 3:100 
1 0:22.61 1:1359548 2:109 3:93 
1 0:12.78 1:1359548 2:109 3:100 
0.9651818516360338 0:11.48 1:1359540 2:109 3:106 
1 0:10.3 1:1359532 2:108 3:93 
1 0:20.97 1:1359544 2:108 3:100 
1 0:12.68 1:1359520 2:108 3:100 
1 0:22.92 1:1359516 2:108 3:106 
1 0:12.84 1:1359516 2:107 3:93 
1 0:19.2 1:1359512 2:107 3:100 
1 0:15.52 1:1387784 2:107 3:100 
1 0:9.23 1:1387780 2:107 3:93 
1 0:10.15 1:1387752 2:107 3:100 
1 0:12.5 1:1387764 2:106 3:106 
1 0:10.12 1:1387756 2:106 3:100 
0.8752638164464815 0:10.14 1:1387744 2:106 3:100 
0.8755552872262479 0:12.5 1:1387744 2:106 3:100 
1 0:11.08 1:1387816 2:106 3:100 
0.9775225550966191 0:11.65 1:1387812 2:105 3:100 
0.9809319672960758 0:8.44 1:1387812 2:105 3:100 
1 0:17.4 1:1387812 2:105 3:106 
1 0:13.16 1:1387772 2:105 3:100 
1 0:13.86 1:1387760 2:104 3:100 
1 0:13.48 1:1387752 2:104 3:100 
1 0:15.15 1:1387768 2:104 3:93 
1 0:9.18 1:1387760 2:104 3:100 
1 0:19.13 1:1359468 2:104 3:100 
0.9317475354722716 0:33.81 1:1359476 2:103 3:100 
1 0:17.06 1:1359484 2:103 3:106 
1 0:59.28 1:1359476 2:103 3:100 
0.931544353242876 0:31.1 1:1359476 2:103 3:100 
1 0:18.8 1:1359912 2:103 3:100 
1 0:10.63 1:1359944 2:102 3:100 
1 0:12.91 1:1360000 2:102 3:100 
1 0:19.12 1:1359720 2:102 3:100 
1 0:13.67 1:1360092 2:102 3:106 
1 0:19.17 1:1391212 2:102 3:100 
1 0:12.87 1:1391372 2:101 3:100 
1 0:30.46 1:1391408 2:101 3:100 
1 0:9.22 1:1396468 2:101 3:93 
1 0:16.25 1:1380884 2:101 3:106 
1 0:8.36 1:1380712 2:101 3:100 
1 0:20.06 1:1380716 2:100 3:93 
1 0:15.07 1:1380664 2:100 3:106 
1 0:15.53 1:1380648 2:100 3:100 
1 0:70.76 1:1380512 2:100 3:93 
-0.9875169053176989 0:10.51 1:796317 2:1717 
-0.9876504764754102 0:12.99 1:795669 2:1715 3:100 
-0.987598203895926 0:18.59 1:693937 2:1717 
-0.9875823254622894 0:11.54 1:694333 2:1715 
-0.987586053948163 0:10.12 1:694361 2:1713 
-0.9875818766194209 0:18.03 1:694381 2:1712 3:6 
-0.9875818644325026 0:34.24 1:694373 2:1710 
-0.9793911520469857 0:10.88 1:694353 2:1709 
-0.9877761986328903 0:15.12 1:694377 2:1707 
-0.9791979734129512 0:13.19 1:694353 2:1706 
-0.9875590358129274 0:10.95 1:694357 2:1704 3:6 
-0.9871306924821861 0:10.38 1:694377 2:1702 
-0.9878628044520565 0:9.07 1:694445 2:1700 
-0.9875744484191052 0:1.89 1:694445 2:1699 
-0.9875427582976741 0:9.03 1:694433 2:1697 3:6 
-0.9876567965448574 0:12.56 1:694445 2:1696 3:6 
-0.9878228804889068 0:8.58 1:694717 2:1694 3:6 
-0.9878648569651467 0:0.72 1:694997 2:1693 3:6 
-0.9879497619544947 0:53.14 1:695073 2:1691 
-0.9879494505894195 0:1.77 1:695049 2:1690 3:6 
-0.987928907191747 0:22.91 1:695045 2:1688 
-0.9875783003252914 0:16.48 1:695037 2:1687 
-0.9879429112194641 0:11.48 1:695049 2:1685 
-0.9877306025757456 0:20.65 1:695041 2:1684 
-0.9878530048889324 0:22.9 1:695041 2:1682 3:6 
-0.9872758195445086 0:18.89 1:695037 2:1681 
-0.987487231848041 0:12.75 1:694993 2:1679 
-0.9872925185017957 0:21.47 1:694985 2:1678 
-0.9877348011579616 0:14.5 1:694989 2:1676 
-0.9877619416459201 0:22.42 1:694985 2:1675 3:6 
-0.9879427878262258 0:9.64 1:695125 2:1674 
-0.9855441726459755 0:20.62 1:695781 2:1672 
-0.9879348619731012 1:695781 2:1671 
-0.9862863487375333 0:20.31 1:695785 2:1669 
-0.9848208602316281 0:22.31 1:695781 2:1668 
-0.9871941025661537 0:7.16 1:695785 2:1666 
-0.9875384674767202 0:16.56 1:695785 2:1665 
-0.9879339623720111 0:19.69 1:696681 2:1663 
-0.9879351404402134 0:16.43 1:696709 2:1662 
-0.9877596986398702 0:9.97 1:696749 2:1661 
-0.9879330855232862 0:14.53 1:696733 2:1659 
-0.9877183738691209 0:15.13 1:696749 2:1658 3:6 
-0.987918608109401 0:23.8 1:696809 2:1656 
-0.987904775930765 0:11.81 1:697117 2:1655 
-0.9877570494865557 0:14.42 1:697093 2:1653 
-0.9875881917485136 0:13.21 1:697089 2:1652 3:6 
-0.9877628797215816 0:17.63 1:697085 2:1651 
-0.987851277920222 0:10.43 1:697217 2:1649 3:6 
-0.9878201309246118 0:14.88 1:697197 2:1648 
-0.9879243516849064 0:14.06 1:697257 2:1646 
-0.7990171021720716 0:12.06 1:697269 2:1645 
-0.7994549623469609 0:12.64 1:697269 2:1643 
-0.9875001716746337 0:14.85 1:697261 2:1642 
-0.9875826675090317 0:19.8 1:697257 2:1641 3:6 
-0.9878234308708734 0:13.1 1:697265 2:1639 
-0.9878027745815152 0:15.83 1:697221 2:1638 3:6 
-0.987212287644999 0:12.25 1:697217 2:1636 
-0.9871221224648098 0:20.77 1:697221 2:1635 
-0.987206076041469 0:20.91 1:697185 2:1634 
-0.9870704272351377 0:12.22 1:697189 2:1632 
-0.9877580241594527 0:8.85 1:697193 2:1631 3:6 
-0.9876042552436203 0:16.6 1:697185 2:1629 
-0.9745473216795856 0:12.47 1:697193 2:1628 
-0.9646300106354631 0:11.4 1:697189 2:1627 
-0.9766746161564799 0:14.59 1:697193 2:1625 
-0.96708984088017 0:9.81 1:697189 2:1624 
-0.987634720199187 0:15.26 1:697193 2:1622 3:6 
-0.98776758517904 0:10.64 1:697189 2:1621 3:6 
-0.9875646813223651 0:11.04 1:697193 2:1620 
-0.9878228608614711 0:8.94 1:697221 2:1618 
-0.9877661505387865 0:20.77 1:697241 2:1617 
-0.9877489884125763 0:16.97 1:697257 2:1616 
-0.9877637862407511 0:16.13 1:697313 2:1614 
-0.5757792360232754 0:12.15 1:697501 2:1613 
-0.5757792360232754 0:12.21 1:697501 2:1612 
-0.9877571514272271 0:21.13 1:697525 2:1610 3:5 
-0.9874317490222366 0:15.21 1:697477 2:1609 
-0.9877570623767526 0:61.6 1:697461 2:1607 3:6 
-0.9877597295130245 0:51.74 1:697457 2:1606 
-0.9877609515025317 0:19.71 1:697461 2:1605 
-0.9871276876405034 0:19.1 1:697473 2:1603 
-0.9874489126422861 0:14.67 1:697481 2:1602 
-0.9872065619221903 0:33.5 1:697489 2:1601 
-0.98773495794277 0:31.67 1:697509 2:1598 
-0.9877461888659286 0:29.43 1:697497 2:1597 
-0.9878912911197714 0:16.08 1:697497 2:1596 3:6 
-0.9874489117534058 0:13.74 1:697493 2:1594 
-0.9874728424917031 0:13.83 1:697501 2:1593 3:6 
-0.9872321918660599 0:12.01 1:697477 2:1592 3:6 
-0.9877564869709686 0:38.56 1:697477 2:1590 
-0.9876981743133284 0:13.06 1:697473 2:1589 
-0.9878774768715667 0:17.58 1:697473 2:1588 3:6 
-0.987877482472642 0:32.18 1:697517 2:1586 
-0.9876814835587797 0:49.09 1:697489 2:1585 3:6 
-0.987715414151757 0:24.57 1:697489 2:1584 
-0.9877671809730806 0:39.67 1:697505 2:1583 3:6 
-0.9878228608614711 0:16.38 1:697517 2:1581 3:6 
-0.9877048918691802 0:14.39 1:697529 2:1580 
-0.9878885954922892 0:14.2 1:697541 2:1579 3:6 
-0.9874262262478117 0:11.01 1:697541 2:1577 
-0.9876446363654136 0:18.29 1:722117 2:1576 3:6 
-0.9876048150367355 0:14.65 1:720717 2:1575 3:6 
-0.9875896607237327 0:12.51 1:725189 2:1574 3:20 
-0.9875744730396959 0:25.23 1:711209 2:1572 
-0.9875744730396958 0:25.42 1:711801 2:1571 3:6 
-0.987904775930765 0:20.5 1:713413 2:1570 3:6 
-0.987884318177612 0:21 1:713425 2:1569 3:6 
-0.9877710295802161 0:19.29 1:713429 2:1567 
-0.9875672685134426 0:14.64 1:713765 2:1566 3:6 
-0.9874859812084085 0:22.2 1:712741 2:1565 
-0.9874614465459205 0:19.04 1:712681 2:1564 3:6 
-0.9874527110971263 0:24.01 1:712545 2:1562 3:6 
-0.9874427912772146 0:24.86 1:713137 2:1561 
-0.9874328521432506 0:11.69 1:713653 2:1560 3:6 
-0.9874328521432506 0:15.15 1:714913 2:1559 3:6 
-0.9879427875649334 0:12.41 1:715045 2:1557 3:6 
-0.9877210470409934 0:31.65 1:715041 2:1556 3:6 
-0.9879185330439539 0:15.15 1:715041 2:1555 
-0.9877518246644973 0:21.4 1:715041 2:1553 
-0.9880966698095816 0:17.4 1:715025 2:1552 
-0.9875896607237327 0:32.72 1:715029 2:1551 
-0.9874262805798527 0:21.64 1:706785 2:1550 3:6 
-0.9874262805798526 0:17.53 1:706957 2:1548 
-0.9874042516688974 0:16.97 1:714389 2:1547 3:6 
-0.9874042516688974 0:16.84 1:718365 2:1546 
-0.9873203549980244 0:15.21 1:718437 2:1545 3:6 
-0.9872766855566727 1:713297 2:1544 
-0.9864827053184448 0:18.8 1:713301 2:1543 3:6 
-0.98664631486284 0:19.43 1:713297 2:1541 3:6 
-0.9871308263616904 0:29.04 1:713257 2:1540 
-0.9871308263616904 0:18.41 1:713329 2:1539 
-0.9876112869486949 0:33.85 1:706053 2:1538 
-0.9876801959038876 0:19.42 1:706065 2:1536 
-0.9876376671984859 0:16.76 1:714769 2:1535 3:6 
-0.9875744730396958 0:15.85 1:714757 2:1534 3:13 
-0.9876752976921807 0:27.21 1:714713 2:1533 3:6 
-0.987715414151757 0:19.82 1:714805 2:1532 3:6 
-0.9877315383151403 0:12.68 1:714849 2:1530 
-0.98773495794277 0:24.13 1:714921 2:1529 3:6 
-0.9877734332636722 0:13.2 1:714961 2:1528 
-0.9877580284267578 0:23.01 1:714977 2:1527 
-0.7846351218254912 0:10.68 1:715001 2:1525 
-0.7846890390833351 0:12.43 1:715001 2:1524 
-0.9877580284266866 0:2.68 1:715025 2:1523 
-0.9877606573571462 0:19.38 1:715221 2:1522 3:12 
-0.9877565301533648 0:14.1 1:716049 2:1521 3:13 
-0.9877565301533648 0:21.78 1:715941 2:1519 3:6 
-0.987888649289944 0:13.85 1:715849 2:1518 3:20 
-0.987877482472642 0:13.79 1:703765 2:1517 
-0.9879330855232862 0:33.87 1:703777 2:1516 
-0.9879339623720113 0:17.69 1:703785 2:1515 
-0.9878228608614711 0:18.08 1:703749 2:1513 
-0.9877608714891583 0:17.28 1:703737 2:1512 3:12 
-0.9879348619731447 0:19.63 1:702865 2:1511 3:6 
-0.9879494505894195 0:11.51 1:698633 2:1510 3:6 
-0.9879429112194641 0:9.12 1:710985 2:1509 
-0.9879427882015331 0:8.52 1:141443 2:2653 
-0.9879497619544947 0:21.47 1:175578 2:2566 
-0.9878648569651467 0:16.09 1:179487 2:2554 
-0.9878228804856788 0:13.3 1:183368 2:2541 
-0.9875504558552037 0:13.27 1:190010 2:2530 
-0.9875427582976741 0:23.14 1:197628 2:2519 
-0.9875726535772121 0:15.3 1:203954 2:2508 3:6 
-0.9875590337357537 0:24.58 1:210648 2:2497 
-0.9875818950294579 0:12.81 1:220184 2:2486 3:6 
-0.9875818766198401 0:21.51 1:226502 2:2477 
-0.9875860539502821 0:25.29 1:227766 2:2490 
-0.9875876513875095 0:21.45 1:236909 2:2479 3:6 
-0.9875826675150079 0:23.42 1:240798 2:2468 
-0.9876504764754102 0:14.02 1:244411 2:2456 
-0.9875169053176989 0:13.96 1:251909 2:2447 3:6 
-0.9875214824036497 0:12.79 1:256643 2:2437 
-0.9874489129963818 0:20.94 1:261260 2:2425 
-0.9874317495611071 0:17.25 1:265738 2:2414 
-0.9873073819856658 0:19.87 1:272960 2:2404 3:6 
-0.98720781490462 0:15.17 1:278961 2:2395 
-0.9872078149046181 0:33.85 1:281386 2:2384 
-0.987127687830453 0:16.85 1:283810 2:2373 
-0.9871268027918849 0:24.87 1:288559 2:2363 
-0.9871221225534047 0:15.48 1:292427 2:2352 3:6 
-0.9876914255639085 0:13.89 1:298096 2:2343 
-0.9877038340163931 0:10.78 1:305141 2:2334 
-0.9877348415998106 0:18.33 1:316390 2:2326 
-0.9877637862407511 0:8.25 1:326721 2:2317 
-0.9877710324947759 0:24.02 1:328497 2:2307 3:6 
-0.9877489884125763 0:20.22 1:332942 2:2297 
-0.987776331295142 0:78.04 1:335850 2:2287 
-0.9878732044067846 0:19.71 1:355626 2:2278 3:18 
-0.9878605068345411 0:17.95 1:354730 2:2268 
-0.9878228608614711 0:19.53 1:354678 2:2257 
-0.987570919922556 0:11.26 1:354721 2:2247 3:12 
-0.9878876222593577 0:15.93 1:355181 2:2236 
-0.9876462851687009 0:18.91 1:354065 2:2224 
-0.9878027747777625 0:15.76 1:354193 2:2213 
-0.9876376671984859 0:35.17 1:354181 2:2204 
-0.9877038340163931 0:20.26 1:354168 2:2193 
-0.9874328521432506 0:19.71 1:354176 2:2183 
-0.9877062021405003 0:15.19 1:353652 2:2172 
-0.9880966698095816 0:20.81 1:354072 2:2163 
-0.9877565301533648 0:11.27 1:354080 2:2152 
-0.9877523995161548 0:17 1:354056 2:2142 
-0.9875757298705964 0:14.7 1:354060 2:2132 
-0.9878605068345411 0:9.33 1:354291 2:2122 
-0.9875841183830785 0:28.49 1:354231 2:2113 
-0.9881193800186991 0:11.16 1:354263 2:2103 
-0.9877205292958704 0:21.61 1:354263 2:2094 3:6 
-0.9879351404402134 0:5.46 1:354242 2:2084 
-0.987212136622667 0:27.73 1:354762 2:2075 
-0.9877596986820515 0:16.33 1:354890 2:2065 
-0.9876738941810317 0:18.86 1:354882 2:2056 
-0.9877671809730806 0:10.31 1:355230 2:2046 
-0.9877706162514873 0:16.91 1:355198 2:2038 3:6 
-0.987851277920222 0:16.91 1:355730 2:2029 
-0.9877571514272271 0:69.59 1:355725 2:2020 
-0.9871268027918849 0:35.06 1:355745 2:2011 
-0.9871844323445085 0:23.29 1:355721 2:2002 
-0.9877565301533648 0:18.05 1:355733 2:1994 
-0.987559037257551 0:13.59 1:355732 2:1984 
-0.9877524011464901 0:26.72 1:355728 2:1976 
-0.98720781490462 0:13.44 1:355744 2:1968 3:5 
-0.9875214824036497 0:20.67 1:355704 2:1959 
-0.9872078149045452 0:21.22 1:355724 2:1951 
-0.9877854267427125 0:20.38 1:355727 2:1942 
-0.9875166927286664 0:22.5 1:355711 2:1934 
-0.9875876513875095 0:16.46 1:355835 2:1926 
-0.9881075316697596 0:14.51 1:355815 2:1919 
-0.9877596986820822 0:10.18 1:355827 2:1910 
-0.9876052864421693 0:17.78 1:355839 2:1902 
-0.9876112869483736 0:17.27 1:355838 2:1895 3:6 
-0.9875798979757281 0:16.81 1:355838 2:1886 
-0.9880966698095816 0:11.65 1:355850 2:1879 
-0.9879186044464144 0:14.76 1:355838 2:1871 
-0.987762161550267 0:17.8 1:355838 2:1864 
-0.9877348415998106 0:11.83 1:355845 2:1855 
-0.9877596986820503 0:10.39 1:355837 2:1848 3:6 
-0.9877608711673836 0:11.89 1:355841 2:1841 
-0.9872086090047087 0:11.16 1:355837 2:1834 
-0.9879427878262258 0:7.92 1:355833 2:1826 3:6 
-0.9877609515025317 0:11.23 1:355821 2:1819 
-0.9874489129916399 0:10.62 1:355828 2:1811 
-0.9875818782243549 0:17.85 1:355824 2:1804 
-0.9874859812084085 0:6.4 1:355820 2:1798 
-0.9876044206010769 0:11.93 1:355832 2:1791 3:6 
-0.9877210470409934 0:8.1 1:355824 2:1783 
-0.9875709199225551 0:4.58 1:355832 2:1776 3:5 
-0.9874328325055948 0:6.85 1:355827 2:1769 
-0.9875757104448593 0:5.74 1:355831 2:1763 
-0.9878228799720081 0:6.69 1:355831 2:1756 3:6 
-0.9873073814707605 0:2.8 1:355831 2:1749 3:6 
-0.9878661881935796 0:6.54 1:355831 2:1743 
-0.9875982038959259 0:8.1 1:355823 2:1736 
-0.9877207083813089 0:6.56 1:355834 2:1730 
-0.9875818946703459 0:6.11 1:355830 2:1723 
-0.9874317495608079 0:5.73 1:355822 2:1716 
-0.9872086093262711 0:5.25 1:355830 2:1709 
-0.9871308263616904 0:15.28 1:355826 2:1703 
-0.9877653186174516 0:9.08 1:355802 2:1697 
-0.9879354801699205 0:10.26 1:355818 2:1690 
-0.9878871803138661 0:6.03 1:355825 2:1684 3:6 
-0.9877671809721351 0:9.35 1:355825 2:1678 
-0.9875214824036486 0:4.17 1:355817 2:1672 
-0.9876981801180494 0:8.1 1:355813 2:1666 3:6 
-0.9875818782243551 0:16.66 1:355581 2:1660 
-0.9877580284266866 0:15.1 1:355905 2:1654 3:6 
-0.9879339623720111 0:13.35 1:355897 2:1648 
-0.9874262805798526 0:16.25 1:355909 2:1642 3:6 
-0.9873203549980244 0:7.95 1:355900 2:1637 
-0.987877482472642 0:8.43 1:355920 2:1631 3:6 
-0.9877734332636722 0:21.75 1:355920 2:1625 
-0.9874041801766368 0:14.95 1:355928 2:1619 
-0.9878661160272226 0:17.84 1:355932 2:1614 
-0.9879351978741066 0:12.82 1:355932 2:1608 
-0.9874427912772146 0:13.22 1:355920 2:1602 
-0.9877671809730814 0:13.28 1:355907 2:1597 
-0.9877207087406794 0:17.06 1:355931 2:1591 3:6 
-0.9877523995161548 0:12.1 1:355907 2:1585 
-0.9874042516688974 0:10.79 1:355931 2:1580 3:6 
-0.9877621341840356 0:23.76 1:355935 2:1574 
-0.9876423704027919 0:12.28 1:355923 2:1569 
-0.9879427881963786 0:27.06 1:355931 2:1564 
-0.9875567653499195 0:13.3 1:356027 2:1559 
-0.9877533009944951 0:11.4 1:356242 2:1553 
-0.9869376423581562 0:10.51 1:356242 2:1548 
-0.9873491012927116 0:12.24 1:356242 2:1543 
-0.9876462851687009 0:16.17 1:356234 2:1537 3:6 
-0.9875504558552037 0:15.76 1:356274 2:1533 
-0.9877606573571462 0:22.61 1:356686 2:1528 
-0.9875214824036496 0:13.78 1:356686 2:1522 
-0.9879427882015331 0:28.54 1:357726 2:1518 
-0.9879430346096404 0:15.53 1:358742 2:1514 
-0.9879339623720113 0:7.99 1:361187 2:1510 
-0.9879331084514289 0:19.46 1:364939 2:1506 
-0.9879191093659331 0:16.67 1:375375 2:1502 3:6 
