svm_type c_svc
kernel_type rbf
gamma 0.333333
nr_class 2
total_sv 435
rho -0.607805
label 10 14
nr_sv 299 136
SV
0.3920768576262821 0:15.36 1:1360244 2:233 3:100 
0.3919008450578146 0:12.19 1:1360528 2:232 3:93 
0.3923095635645806 0:16.53 1:1360540 2:231 3:106 
0.3922791140402032 0:15.16 1:1360572 2:230 3:93 
0.3920715809386737 0:25.01 1:1360672 2:229 3:100 
0.3921370664599101 0:10.59 1:1360836 2:228 3:93 
0.3921255336080221 0:15.49 1:1360908 2:227 3:106 
0.391774328589971 0:12.24 1:1352604 2:226 3:100 
0.3924555092262309 0:15.84 1:1352792 2:225 3:100 
0.3923776171853172 0:17.64 1:1352868 2:224 3:100 
0.3922512026162898 0:10.33 1:1352956 2:223 3:93 
0.3923047486511007 0:33.47 1:1351924 2:222 3:106 
0.3922352101327612 0:11.85 1:1351952 2:221 3:93 
0.3922512026172943 0:17.31 1:1351948 2:220 3:100 
0.3924550856060948 0:11.67 1:1351976 2:219 3:93 
0.3924431512651297 0:15.06 1:1351996 2:218 3:106 
0.3921272463646045 0:9.54 1:1352076 2:218 3:100 
0.3919822094958152 0:8.98 1:1352184 2:217 3:100 
0.3916731790539656 0:10.06 1:1351996 2:216 3:93 
0.391701857861769 0:10.3 1:1352004 2:215 3:100 
0.3921046611833438 0:11.82 1:1351984 2:214 3:106 
0.39219417586562 0:16.83 1:1352016 2:213 3:100 
0.3923574410854101 0:23.57 1:1352028 2:212 3:100 
0.392182785186891 0:14.15 1:1318556 2:211 3:100 
0.3922462171839816 0:24.64 1:1318668 2:211 3:100 
0.3919972302674226 0:12.81 1:1318740 2:210 3:106 
0.3923664007360926 0:11.44 1:1318836 2:209 3:106 
0.3920172718646782 0:17.22 1:1318980 2:208 3:100 
0.3920836325731132 0:18.84 1:1319076 2:207 3:100 
0.3925501169749752 0:14.14 1:1319192 2:206 3:100 
0.3925942396615084 0:14.37 1:1319284 2:206 3:100 
0.39236897051558 0:11.14 1:1319348 2:205 3:100 
0.3924189441702434 0:13.87 1:1319404 2:204 3:93 
0.3924969723275091 0:22.95 1:1319496 2:203 3:106 
0.3924718031333151 0:19.19 1:1319568 2:202 3:100 
0.3924893532076554 0:11.69 1:1319520 2:202 3:100 
0.3924893532076554 0:15.57 1:1318320 2:201 3:106 
0.3922181086171879 0:24.01 1:1318240 2:200 3:93 
0.3923589202296305 0:14.48 1:1318236 2:199 3:100 
0.392325634082081 0:16.72 1:1318172 2:198 3:100 
0.3922486969619074 0:13.22 1:1318216 2:198 3:93 
0.3922495247090116 0:10.99 1:1318336 2:197 3:106 
0.3924613164369461 0:10 1:1318420 2:196 3:93 
0.3923207308418281 0:18.06 1:1318488 2:195 3:100 
0.3923168131011322 0:23.79 1:1318576 2:195 3:100 
0.392320333296091 0:32.34 1:1318676 2:194 3:106 
0.3923574828829918 0:27.9 1:1318756 2:193 3:100 
0.392352113782279 0:17.48 1:1318876 2:193 3:106 
0.3923199247196026 0:20.58 1:1318960 2:192 3:93 
0.3923257126151381 0:19.77 1:1319008 2:191 3:106 
0.3924212792452755 0:19.86 1:1319076 2:190 3:106 
0.392454308437873 0:16.02 1:1319160 2:190 3:100 
0.3919989914457425 0:12.54 1:1319248 2:189 3:100 
0.3922033418210872 0:13.51 1:1319372 2:188 3:93 
0.3922560243222263 0:15.43 1:1318160 2:188 3:106 
0.3923165060701623 0:11.65 1:1318152 2:187 3:93 
0.3922443125599124 0:9.23 1:1318144 2:186 3:100 
0.3922370155010464 0:6.51 1:1318152 2:186 3:93 
0.392257808357552 0:6.09 1:1318204 2:185 3:106 
0.3922808431903018 0:21.72 1:1318292 2:184 3:93 
0.3921915929649182 0:7.88 1:1318372 2:184 3:100 
0.3924431512651297 0:16.22 1:1318448 2:183 3:93 
0.3924533364387077 0:8.6 1:1318536 2:182 3:106 
0.3924284866171854 0:10.64 1:1318616 2:182 3:100 
0.392455509226231 0:17.34 1:1318700 2:181 3:100 
0.3923198757731418 0:10.38 1:1318816 2:181 3:100 
0.3922607403579513 0:19.31 1:1318272 2:180 3:100 
0.3923557127994792 0:18.42 1:1318172 2:179 3:106 
0.3923934056540785 0:17.45 1:1318172 2:179 3:100 
0.3924555081380883 0:25.2 1:1318172 2:178 3:100 
0.3922876972423944 0:44.12 1:1318172 2:177 3:93 
0.3753545514795787 0:13.62 1:1318180 2:177 3:100 
0.3920719735231715 0:12.45 1:1318328 2:176 3:100 
0.3923250659763308 0:18.04 1:1318392 2:176 3:100 
0.2313924092663934 0:23.76 1:1318180 2:175 3:100 
0.3752412007964256 0:14.17 1:1318180 2:174 3:100 
0.2313924092821811 0:23.45 1:1318180 2:174 3:100 
0.3918556680567807 0:12.06 1:1318192 2:173 3:100 
0.3924554843498623 0:18.42 1:1318272 2:173 3:100 
0.3921141388556488 0:9.22 1:1318344 2:172 3:93 
0.3922352101319584 0:16.99 1:1318400 2:172 3:100 
0.3922443125599124 0:18.46 1:1318496 2:171 3:100 
0.3920343499634225 0:10.08 1:1318576 2:170 3:106 
0.3922762303146762 0:15.5 1:1318660 2:170 3:100 
0.3924656155932333 0:13.2 1:1318756 2:169 3:93 
0.3921270546635519 0:59.35 1:1318848 2:169 3:100 
0.3924043911127116 0:19.03 1:1318928 2:168 3:93 
0.3922578083446271 0:23.25 1:1319004 2:168 3:100 
0.3921431314385508 0:15.07 1:1319084 2:167 3:100 
0.3922791215374082 0:18.68 1:1319168 2:167 3:93 
0.39236897051558 0:0.8 1:1319292 2:166 3:106 
0.392251202593198 0:9.36 1:1318120 2:166 3:100 
0.3923224467216682 0:11.57 1:1318116 2:165 3:93 
0.3924488185123385 0:19.47 1:1318108 2:165 3:106 
0.3916259841579147 0:17.41 1:1318116 2:164 3:93 
0.3921889866357043 0:14.12 1:1318116 2:164 3:106 
0.3924189441702433 0:13.41 1:1318224 2:163 3:100 
0.3921062626515197 0:13.72 1:1318304 2:162 3:93 
0.3922842842617057 0:22.96 1:1318380 2:162 3:106 
0.3923541629045474 0:10.18 1:1318468 2:161 3:100 
0.3923753409741761 0:8.94 1:1318556 2:161 3:100 
0.3924347727665839 0:13.73 1:1318636 2:160 3:106 
0.3917645326430604 0:22.12 1:1318756 2:160 3:93 
0.3916691257988913 0:2.29 1:1318836 2:160 3:106 
0.3921313988198038 0:9.7 1:1318924 2:159 3:106 
0.3922608879714911 0:9.23 1:1319000 2:159 3:93 
0.3923565117754327 0:11.17 1:1319060 2:158 3:100 
0.3923839647958386 0:22.43 1:1319100 2:158 3:106 
0.3923207308418282 0:26.25 1:1319608 2:157 3:93 
0.3923541629045473 0:13.69 1:1318956 2:157 3:106 
0.3922495247090117 0:5.13 1:1317428 2:156 3:100 
0.3922857997434013 0:19.89 1:1317364 2:156 3:93 
0.3916716349813561 0:12 1:1317372 2:155 3:100 
0.3922883965665205 1:1317376 2:155 3:100 
0.3923540616832575 0:8.82 1:1317376 2:154 3:93 
0.3920332550093683 0:15.91 1:1317376 2:154 3:100 
0.2338183320036622 0:9.67 1:1317376 2:153 3:100 
0.3921313880577252 0:5.31 1:1317376 2:153 3:106 
0.2343856739250403 0:9.24 1:1317376 2:152 3:100 
0.3922001922670555 0:14.3 1:1317380 2:152 3:100 
0.39225230067293 0:21.66 1:1317380 2:152 3:100 
0.3920322706229984 0:6.34 1:1317380 2:151 3:100 
0.3922508554518738 0:16.43 1:1316308 2:151 3:93 
0.392497999413825 0:10.38 1:1316232 2:150 3:100 
0.3923558343996807 0:8.41 1:1316196 2:150 3:100 
0.3903942977596442 0:7.86 1:1316212 2:149 3:100 
0.3546754477943399 0:9.92 1:1316216 2:149 3:100 
0.2032849156819361 0:7.12 1:1316216 2:149 3:100 
0.2801863058262337 0:5.7 1:1316216 2:148 3:100 
0.3924293666965586 0:12.46 1:1316216 2:148 3:93 
0.2875381424876458 0:7.98 1:1316216 2:147 3:100 
0.3919981895582581 0:7.93 1:1316256 2:147 3:100 
0.3924366124414594 0:12.17 1:1316208 2:146 3:100 
0.3923521853730326 0:6.66 1:1316188 2:146 3:100 
0.3922427967028873 0:7.79 1:1316188 2:146 3:106 
0.3662569832608013 0:13.07 1:1316188 2:145 3:100 
0.3922718286380118 0:6.4 1:1316188 2:145 3:93 
0.3245911459442159 0:14.16 1:1316188 2:144 3:93 
0.3912962544759035 0:11.01 1:1316180 2:144 3:100 
0.3655465612292899 0:15.7 1:1316188 2:144 3:100 
0.06088213690522187 0:14.54 1:1316188 2:143 3:93 
0.2431279674894073 0:11.94 1:1316188 2:143 3:106 
0.2421730993559169 0:11.26 1:1316188 2:142 3:106 
0.392103451623493 0:15.21 1:1316180 2:142 3:100 
0.3489202338491605 0:16.11 1:1316188 2:142 3:93 
0.3923809735062178 0:33.67 1:1316184 2:141 3:106 
0.3796230293601887 0:10.68 1:1316184 2:141 3:100 
0.3920403870585137 0:6.75 1:1316184 2:141 3:93 
0.3923942463094614 0:6.69 1:1316176 2:140 3:93 
0.3884717122696469 0:12.41 1:1316184 2:140 3:106 
0.3903840855848181 0:16.29 1:1316184 2:139 3:106 
0.3725721481879724 0:13.45 1:1316184 2:139 3:93 
0.321204431213698 0:13.17 1:1316184 2:139 3:100 
0.3923723037248992 0:20.28 1:1316176 2:138 3:100 
0.0556208872564212 0:12.11 1:1316184 2:138 3:100 
0.3530083386126215 0:10.67 1:1316184 2:138 3:93 
0.2235819554984557 0:11.73 1:1316184 2:137 3:100 
0.3819260634535162 0:8.58 1:1316184 2:137 3:106 
0.3800155629723062 0:11.72 1:1316184 2:136 3:106 
0.3911096077646727 0:6.4 1:1316184 2:136 3:93 
0.391997034911445 0:10.19 1:1316204 2:136 3:100 
0.3919807856118449 0:16.1 1:1316176 2:135 3:100 
0.3735880212665381 0:10.88 1:1316184 2:135 3:93 
0.3283769840416956 0:11.82 1:1316184 2:135 3:100 
0.3920541796361191 0:10.43 1:1316188 2:134 3:106 
0.3907808844018663 0:11.05 1:1316188 2:134 3:100 
0.3914199756958627 0:9.69 1:1316188 2:134 3:93 
0.3920586357302124 0:8.34 1:1316180 2:133 3:100 
0.3747628618539975 0:8.57 1:1316156 2:133 3:100 
0.3919214288630004 0:10.74 1:1316160 2:133 3:93 
0.3925940912859814 0:20.21 1:1316156 2:132 3:100 
0.3091623205778708 0:12.39 1:1316156 2:132 3:100 
0.3920718236923937 0:17.32 1:1316156 2:132 3:106 
0.3164135270459154 0:9.97 1:1316156 2:131 3:93 
0.2827334830776849 0:10.73 1:1316156 2:131 3:100 
0.316563446581627 0:8.15 1:1316156 2:130 3:93 
0.3917313865140052 0:19.96 1:1315896 2:130 3:100 
0.2349023839903416 0:23.92 1:1316172 2:130 3:100 
0.391874420466823 0:8.03 1:1316164 2:129 3:106 
0.3924319231454193 0:8.09 1:1316172 2:129 3:100 
0.2333592746195481 0:23.49 1:1316172 2:129 3:100 
0.3916362451428521 0:13.8 1:1316172 2:128 3:100 
0.3922929526201145 0:3.68 1:1316172 2:128 3:93 
0.3922486969618836 0:16.55 1:1316148 2:128 3:100 
0.3919169876930993 0:23.17 1:1316164 2:127 3:100 
0.392437813186229 0:13.57 1:1316164 2:127 3:100 
0.3923770845099936 0:6.63 1:1316164 2:127 3:93 
0.3922179031702425 0:11.89 1:1316168 2:127 3:106 
0.3919617927254039 0:13.9 1:1316160 2:126 3:106 
0.3770655119654048 0:11.49 1:1316168 2:126 3:93 
0.3921269136231161 0:11.52 1:1316152 2:126 3:93 
0.195325301497579 0:17.87 1:1316168 2:125 3:100 
0.1456808636605862 0:17.17 1:1316168 2:125 3:100 
0.3922926483977227 0:8.13 1:1316172 2:125 3:93 
0.3917114732895426 0:12.12 1:1316172 2:124 3:100 
0.3919386912926959 0:12.86 1:1316164 2:124 3:106 
0.3918607462630586 0:13.74 1:1316172 2:124 3:106 
0.391877283557452 0:24.21 1:1316172 2:124 3:93 
0.3074054039196601 0:17.32 1:1316168 2:123 3:100 
0.3920836325730977 0:1.55 1:1316168 2:123 3:100 
0.3768555273488833 0:10.68 1:1316168 2:123 3:93 
0.3911897099799864 0:20.46 1:1316448 2:122 3:100 
0.3922578036576309 0:15.92 1:1316448 2:122 3:106 
0.3923199182619843 0:17.84 1:1316440 2:122 3:106 
0.3921529159494533 0:15.59 1:1316448 2:122 3:93 
0.3914961304244458 0:13.13 1:1316444 2:121 3:100 
0.3728056455243698 0:21.02 1:1316444 2:121 3:100 
0.3922675709807744 0:18.25 1:1316444 2:121 3:93 
0.3923047456673766 0:17.28 1:1316436 2:120 3:100 
0.2132399946709533 0:18.46 1:1316444 2:120 3:100 
0.2713766838299963 0:17.12 1:1316444 2:120 3:100 
0.3920854234776994 0:11.28 1:1356224 2:120 3:100 
0.3924528191005775 0:19.23 1:1359104 2:119 3:100 
0.392257808357552 0:5.29 1:1349108 2:119 3:106 
0.3919913917052699 0:23.13 1:1360188 2:119 3:100 
0.3922718480190198 0:25.54 1:1381908 2:119 3:100 
0.3917987237371454 0:11.74 1:1381472 2:118 3:100 
0.392350400755539 0:21.42 1:1381380 2:118 3:100 
0.3924082502949089 0:14.94 1:1381312 2:118 3:100 
0.3925466888894194 0:17.26 1:1390844 2:118 3:100 
0.3918250075805609 0:10.42 1:1392412 2:117 3:100 
0.392096253882689 0:20.18 1:1392424 2:117 3:100 
0.3923253784299911 0:13 1:1392412 2:117 3:106 
0.3921923904382362 0:7.99 1:1392408 2:117 3:100 
0.3919822094958151 0:14.61 1:1392888 2:116 3:93 
0.39236897051738 0:3.66 1:1392916 2:116 3:100 
0.3920665705338075 0:23.53 1:1392692 2:116 3:93 
0.3922526632088573 0:10.04 1:1392676 2:116 3:106 
0.2968849910472379 0:15.01 1:1392676 2:115 3:100 
0.2975546040895877 0:13.16 1:1392676 2:115 3:100 
0.3923958924985439 0:1.76 1:1389192 2:115 3:100 
0.3922352101327665 0:12.44 1:1389184 2:115 3:100 
0.3924376919255476 0:18.86 1:1389196 2:114 3:106 
0.3924284844514925 0:11.83 1:1389292 2:114 3:100 
0.3922287083953781 0:14.47 1:1389216 2:114 3:93 
0.3922467668001851 0:12.58 1:1389224 2:114 3:100 
0.3924189344241363 0:15.85 1:1389232 2:113 3:100 
0.3923196063107473 0:10.37 1:1389232 2:113 3:93 
0.3924656056606975 0:15.16 1:1389236 2:113 3:106 
0.3923942464635856 0:20.98 1:1389244 2:113 3:100 
0.3923250659770165 0:14.91 1:1380920 2:112 3:93 
0.3920638810983257 0:9.96 1:1380864 2:112 3:100 
0.392496972327509 0:14.17 1:1380996 2:112 3:100 
0.3916884567380318 0:12.44 1:1380976 2:112 3:93 
0.3923199247196026 0:24.66 1:1380956 2:111 3:100 
0.3922822065008418 0:20.02 1:1376068 2:111 3:106 
0.3919644329597294 0:15.16 1:1376076 2:111 3:100 
0.3924107196444942 0:12.46 1:1376060 2:111 3:93 
0.3923911269349801 0:19.17 1:1376124 2:110 3:100 
0.3924189444014929 0:29.45 1:1376124 2:110 3:100 
0.3919187983266879 0:12.45 1:1359536 2:110 3:93 
0.3922508874660929 0:11.86 1:1359540 2:110 3:100 
0.373849225162829 0:8.47 1:1359540 2:109 3:106 
0.3923199245757956 0:15.82 1:1359556 2:109 3:100 
0.3923574410406408 0:22.61 1:1359548 2:109 3:93 
0.3919926916032522 0:12.78 1:1359548 2:109 3:100 
0.3739179556487105 0:11.48 1:1359540 2:109 3:106 
0.3923467219220739 0:10.3 1:1359532 2:108 3:93 
0.3922602596707431 0:20.97 1:1359544 2:108 3:100 
0.3919914831718557 0:12.68 1:1359520 2:108 3:100 
0.3922467667215513 0:22.92 1:1359516 2:108 3:106 
0.3924550854978791 0:12.84 1:1359516 2:107 3:93 
0.3924566614836857 0:19.2 1:1359512 2:107 3:100 
0.3917645326430599 0:15.52 1:1387784 2:107 3:100 
0.3924212809086705 0:9.23 1:1387780 2:107 3:93 
0.3905042982645546 0:10.15 1:1387752 2:107 3:100 
0.3923689688224001 0:12.5 1:1387764 2:106 3:106 
0.3902906207467643 0:10.12 1:1387756 2:106 3:100 
0.3395746757965283 0:10.14 1:1387744 2:106 3:100 
0.3390528668784729 0:12.5 1:1387744 2:106 3:100 
0.3911296591103624 0:11.08 1:1387816 2:106 3:100 
0.3786395739066656 0:11.65 1:1387812 2:105 3:100 
0.3797659791268888 0:8.44 1:1387812 2:105 3:100 
0.3923579717792475 0:17.4 1:1387812 2:105 3:106 
0.3922512025880619 0:13.16 1:1387772 2:105 3:100 
0.39201166702762 0:13.86 1:1387760 2:104 3:100 
0.3918700847514617 0:13.48 1:1387752 2:104 3:100 
0.3923493328494262 0:15.15 1:1387768 2:104 3:93 
0.3918096012905437 0:9.18 1:1387760 2:104 3:100 
0.3922810420457968 0:19.13 1:1359468 2:104 3:100 
0.3610304158552715 0:33.81 1:1359476 2:103 3:100 
0.3923674324747649 0:17.06 1:1359484 2:103 3:106 
0.3924440094422567 0:59.28 1:1359476 2:103 3:100 
0.3608240213604534 0:31.1 1:1359476 2:103 3:100 
0.3918077215340495 0:18.8 1:1359912 2:103 3:100 
0.3924528191005775 0:10.63 1:1359944 2:102 3:100 
0.3922455752790486 0:12.91 1:1360000 2:102 3:100 
0.3922352101326709 0:19.12 1:1359720 2:102 3:100 
0.3917644553854057 0:13.67 1:1360092 2:102 3:106 
0.3918753330848667 0:19.17 1:1391212 2:102 3:100 
0.3922762303146761 0:12.87 1:1391372 2:101 3:100 
0.3921270546635519 0:30.46 1:1391408 2:101 3:100 
0.3918860501810671 0:9.22 1:1396468 2:101 3:93 
0.3924284866171853 0:16.25 1:1380884 2:101 3:106 
0.3919869413106541 0:8.36 1:1380712 2:101 3:100 
0.3918467198739726 0:20.06 1:1380716 2:100 3:93 
0.3924756552557809 0:15.07 1:1380664 2:100 3:106 
0.3921003983222609 0:15.53 1:1380648 2:100 3:100 
0.392497999413825 0:70.76 1:1380512 2:100 3:93 
-0.8758379357107555 0:0.9 1:2545992 2:38 
-0.7322877437959143 1:2545992 2:38 
-1 1:2545988 2:38 
-0.7844284397085892 1:2546000 2:38 
-0.758156680175175 0:0.22 1:2546000 2:38 
-1 1:2545900 2:38 3:20 
-1 1:2545896 2:38 
-0.05486540566423862 0:0.08 1:2545896 2:38 
-1 0:2.26 1:2545896 2:38 3:6 
-1 0:5.78 1:2545896 2:38 
-1 1:2545888 2:38 
-0.08503144667873971 0:1.48 1:2545896 2:38 
-1 0:6.12 1:2545892 2:38 
-0.5922163239614399 1:2545908 2:38 
-0.5953336209134156 1:2545892 2:38 
-1 0:1.78 1:2545900 2:38 
-0.3189482818979283 1:2545900 2:38 
-0.9258664402471918 1:2545900 2:38 
-1 1:2545892 2:38 
-1 1:2545904 2:38 3:13 
-1 0:1.53 1:2545896 2:38 
-0.8043608872714915 0:0.3 1:2545904 2:38 
-1 1:2545908 2:38 
-0.7929679047269056 1:2545912 2:38 
-0.8050552902512724 0:0.09 1:2545912 2:38 
-0.8119654472731976 1:2545904 2:38 
-0.941229151607021 1:2545932 2:38 
-1 0:22.26 1:2545916 2:38 
-1 0:82.88 1:2545920 2:37 
-1 0:1.92 1:2545924 2:37 
-0.6170736057345905 1:2545924 2:37 3:6 
-0.9911520663732524 1:2545924 2:37 3:6 
-0.9273867572951727 1:2545916 2:37 
-0.5978800182922697 1:2545924 2:37 
-0.1165175445566193 0:1.64 1:2545924 2:37 
-1 0:184.68 1:2545932 2:37 
-1 1:2545940 2:37 3:6 
-0.920113592975531 1:2545932 2:37 
-0.83169130543196 0:0.49 1:2545940 2:37 
-0.5928188773496785 1:2545936 2:37 
-1 1:2545944 2:37 3:12 
-1 1:2545936 2:37 
-0.8454848607460913 0:0.6 1:2545944 2:37 
-0.9367833566195738 1:2545964 2:37 
-1 0:82.99 1:2545948 2:37 
-0.8249303304628344 1:2545940 2:37 
-0.453810852616491 1:2545948 2:37 
-0.5933898937774768 1:2545952 2:37 
-0.9992376756811863 1:2545952 2:37 
-1 0:2.43 1:2545948 2:37 
-1 0:1.36 1:2545956 2:37 
-0.9371219679808851 1:2545976 2:37 
-0.9990500261923283 1:2545948 2:37 
-1 0:38.3 1:2545956 2:37 
-0.842669385003485 1:2545944 2:37 
-0.3895137692066155 1:2545956 2:37 
-0.5924415273772328 1:2545960 2:36 
-0.9123622262612788 0:0.9 1:2545964 2:36 
-0.6041727399461101 1:2545964 2:36 3:6 
-1 1:2545964 2:36 3:6 
-0.9288116721671795 1:2545956 2:36 
-1 1:2545960 2:36 
-0.5927232338177183 1:2545968 2:36 
-1 0:9.31 1:2545968 2:36 
-1 1:2545968 2:36 3:5 
-1 0:13.11 1:2545972 2:36 3:6 
-0.2241266350150247 1:2545964 2:36 
-0.8119761063604389 0:0.22 1:2545972 2:36 
-0.7939409380760125 1:2545972 2:36 
-0.9207675444268251 1:2545976 2:36 
-1 1:2545968 2:36 
-1 0:0.3 1:2545976 2:36 3:6 
-0.5935316318937025 1:2545980 2:36 
-0.9988301217373219 1:2545980 2:36 
-0.2840016562399493 1:2545984 2:36 
-1 0:1.62 1:2545984 2:36 
-1 1:2554144 2:36 
-1 0:0.3 1:2554440 2:36 
-1 1:2554348 2:36 
-1 1:2554372 2:36 
-1 1:2554376 2:36 3:6 
-1 1:2554676 2:36 
-1 0:25.42 1:2554684 2:36 
-1 0:36.72 1:2554684 2:36 
-1 1:2554680 2:36 
-1 0:0.3 1:2554688 2:36 3:6 
-0.8052510414189138 0:0.09 1:2554688 2:36 
-0.8047326220274507 1:2554688 2:36 
-0.4679227279150205 1:2546436 2:36 
-1 1:2546428 2:36 
-1 1:2546436 2:36 
-1 0:2.43 1:2546436 2:36 
-0.9366227159039975 1:2545916 2:36 
-0.9231304353318527 1:2545924 2:36 
-0.7781954327443221 0:0.09 1:2545928 2:36 
-0.8200289156333329 1:2545928 2:36 
-1 1:2545920 2:36 
-0.9368125709999422 1:2546012 2:36 
-0.8914995729305668 1:2545984 2:36 
-0.5875565656645403 1:2545992 2:36 
-0.06864209912385233 1:2545996 2:36 
-0.5575720487175748 1:2545988 2:36 
-0.7955044807491282 0:0.22 1:2545996 2:36 
-0.07581128087982758 1:2545996 2:36 
-0.7884124567750012 0:0.26 1:2545988 2:36 
-1 1:2545996 2:35 3:6 
-0.9293269632896906 1:2545996 2:35 
-0.7851312160018041 0:0.3 1:2546000 2:35 
-0.1256954178429243 1:2546012 2:35 
-1 1:2546000 2:35 3:6 
-1 0:0.6 1:2545992 2:35 
-1 0:13.62 1:2546000 2:35 
-0.001182024339936083 1:2546008 2:35 
-1 1:2546008 2:35 3:5 
-1 0:2.52 1:2546008 2:35 
-1 0:0.3 1:2546020 2:35 3:6 
-0.75732486277948 1:2546000 2:35 
-0.4338054786577322 1:2546008 2:35 
-0.9762230040789921 1:2546008 2:35 
-0.3860061297422712 0:2.33 1:2546008 2:35 
-1 0:0.07 1:2546004 2:35 
-0.01623468611148288 1:2546012 2:35 
-1 0:0.3 1:2546016 2:35 
-0.8039866160486276 0:0.22 1:2546020 2:35 
-0.8122367491450343 1:2546020 2:35 
-0.7994837272096017 0:0.26 1:2546012 2:35 
-1 0:0.9 1:2554336 2:35 
-1 1:2556020 2:35 3:6 
-1 0:1.42 1:2560036 2:35 
-1 0:382.09 1:2557784 2:35 3:6 
-1 0:83.15 1:2553348 2:35 3:6 
-1 0:394.95 1:2552676 2:35 
-1 0:73.17 1:2552088 2:35 
-1 0:209.21 1:2552560 2:35 
-1 0:362.63 1:2554320 2:35 3:26 
-1 0:187.61 1:2561792 2:35 3:6 
