svm_type c_svc
kernel_type rbf
gamma 0.0078125
nr_class 2
total_sv 200
rho 0.223854
label 11 14
nr_sv 100 100
SV
32 3:0.17 4:0.06 
32 3:0.17 4:0.06 
32 3:0.17 4:0.06 
32 3:0.17 4:0.06 
32 3:0.17 4:0.06 
32 3:0.17 4:0.06 
32 3:0.17 4:0.07 
32 3:0.17 4:0.06 
32 3:0.17 4:0.06 
32 3:0.17 4:0.06 
32 3:0.17 4:0.06 
32 3:0.17 4:0.06 
32 3:0.17 4:0.06 
32 3:0.17 4:0.06 
32 3:0.17 4:0.06 
32 3:0.17 4:0.06 
32 3:0.17 4:0.06 
32 3:0.17 4:0.05 
32 3:0.17 4:0.06 
32 3:0.17 4:0.06 
32 2:0.01 3:0.17 4:0.06 
32 2:0.01 3:0.17 4:0.06 
32 2:0.01 3:0.17 4:0.06 
32 2:0.01 3:0.17 4:0.06 
32 2:0.01 3:0.17 4:0.06 
32 2:0.01 3:0.17 4:0.05 
32 2:0.01 3:0.17 4:0.06 
32 2:0.01 3:0.17 4:0.06 
32 2:0.01 3:0.17 4:0.06 
32 3:0.17 4:0.05 
32 3:0.17 4:0.06 
32 3:0.17 4:0.06 
32 3:0.17 4:0.06 
32 3:0.17 4:0.06 
32 3:0.17 4:0.06 
32 3:0.17 4:0.06 
32 1:0.01 3:0.17 4:0.05 
32 1:0.01 3:0.17 4:0.06 
32 1:0.01 3:0.17 4:0.06 
32 3:0.17 4:0.06 
32 3:0.17 4:0.06 
32 3:0.17 4:0.06 
32 3:0.17 4:0.06 
32 1:0.01 3:0.17 4:0.05 
32 1:0.01 3:0.17 4:0.06 
32 1:0.01 3:0.17 4:0.05 
32 1:0.01 3:0.17 4:0.06 
32 1:0.01 3:0.17 4:0.06 
32 1:0.01 3:0.17 4:0.05 
32 3:0.17 4:0.05 
32 3:0.17 4:0.06 
32 3:0.17 4:0.05 
32 3:0.17 4:0.06 
32 3:0.17 4:0.06 
32 3:0.17 4:0.06 
32 3:0.17 4:0.05 
32 3:0.17 4:0.06 
32 3:0.17 4:0.06 
32 3:0.17 4:0.06 
32 3:0.17 4:0.06 
32 3:0.17 4:0.05 
32 3:0.17 4:0.05 
32 3:0.17 4:0.05 
32 3:0.17 4:0.06 
32 3:0.17 4:0.05 
32 2:0.01 3:0.17 4:0.06 
32 2:0.01 3:0.17 4:0.06 
32 2:0.01 3:0.17 4:0.06 
32 2:0.01 3:0.17 4:0.06 
32 2:0.01 3:0.17 4:0.05 
32 2:0.01 3:0.17 4:0.05 
32 2:0.01 3:0.17 4:0.06 
32 2:0.01 3:0.17 4:0.05 
32 2:0.01 3:0.17 4:0.05 
32 3:0.17 4:0.05 
32 3:0.17 4:0.05 
32 3:0.17 4:0.05 
32 3:0.17 4:0.05 
32 3:0.17 4:0.05 
32 3:0.17 4:0.06 
32 3:0.17 4:0.05 
32 3:0.17 4:0.05 
32 3:0.17 4:0.06 
32 3:0.17 4:0.05 
32 3:0.17 4:0.05 
32 3:0.17 4:0.06 
32 3:0.17 4:0.05 
32 3:0.17 4:0.05 
32 3:0.17 4:0.05 
32 3:0.17 4:0.05 
32 3:0.17 4:0.05 
32 3:0.17 4:0.05 
32 3:0.17 4:0.05 
32 3:0.17 4:0.05 
32 3:0.17 4:0.06 
32 3:0.17 4:0.05 
32 3:0.17 4:0.05 
32 3:0.17 4:0.05 
32 3:0.17 4:0.05 
32 3:0.17 4:0.05 
-32 1:0.01 4:0.01 
-32 1:0.01 4:0.01 
-32 1:0.01 4:0.01 
-32 4:0.02 
-32 1:0.01 4:0.01 
-32 4:0.01 
-32 4:0.01 
-32 4:0.01 
-32 4:0.01 
-32 4:0.01 
-32 4:0.01 
-32 4:0.01 
-32 4:0.01 
-32 1:0.01 4:0.01 
-32 4:0.01 
-32 4:0.01 
-32 4:0.01 
-32 4:0.01 
-32 4:0.01 
-32 4:0.01 
-32 4:0.01 
-32 4:0.01 
-32 4:0.01 
-32 4:0.01 
-32 4:0.01 
-32 4:0.01 
-32 4:0.01 
-32 4:0.01 
-32 4:0.01 
-32 1:0.01 4:0.01 
-32 4:0.01 
-32 4:0.01 
-32 4:0.01 
-32 4:0.01 
-32 4:0.01 
-32 4:0.01 
-32 4:0.01 
-32 4:0.01 
-32 4:0.01 
-32 4:0.01 
-32 4:0.01 
-32 4:0.01 
-32 4:0.01 
-32 4:0.01 
-32 4:0.01 
-32 4:0.01 
-32 4:0.01 
-32 4:0.01 
-32 4:0.01 
-32 4:0.01 
-32 1:0.01 4:0.01 
-32 4:0.01 
-32 4:0.01 
-32 4:0.01 
-32 4:0.01 
-32 4:0.01 
-32 4:0.01 
-32 4:0.01 
-32 4:0.01 
-32 4:0.01 
-32 4:0.01 
-32 4:0.01 
-32 4:0.01 
-32 4:0.01 
-32 4:0.01 
-32 4:0.01 
-32 4:0.01 
-32 4:0.01 
-32 4:0.01 
-32 4:0.01 
-32 4:0.01 
-32 4:0.01 
-32 4:0.01 
-32 4:0.01 
-32 4:0.01 
-32 4:0.01 
-32 4:0.01 
-32 4:0.01 
-32 4:0.01 
-32 4:0.01 
-32 4:0.01 
-32 1:0.01 2:0.01 4:0.01 
-32 2:0.01 4:0.01 
-32 2:0.01 4:0.01 
-32 2:0.01 4:0.01 
-32 2:0.01 4:0.01 
-32 2:0.01 4:0.01 
-32 2:0.01 4:0.01 
-32 2:0.01 4:0.01 
-32 2:0.01 4:0.01 
-32 2:0.01 4:0.01 
-32 2:0.01 4:0.01 
-32 2:0.01 4:0.01 
-32 2:0.01 4:0.01 
-32 2:0.01 4:0.01 
-32 2:0.01 4:0.01 
-32 2:0.01 4:0.01 
-32 2:0.01 4:0.01 
-32 2:0.01 4:0.01 
-32 2:0.01 4:0.01 
