svm_type c_svc
kernel_type rbf
gamma 0.00012207
nr_class 2
total_sv 165
rho -0.930264
label 11 14
nr_sv 95 70
SV
0.03125 1:20.25 2:163 3:91418.2 4:10 
0.03125 1:92 2:173 3:82532 4:11.375 
0.03125 1:97.625 2:173 3:71281.9 4:11 
0.03125 1:119.75 2:173 3:71285.6 4:10.875 
0.03125 1:77.75 2:173 3:76931.9 4:11.375 
0.03125 1:110.375 2:173 3:86836.1 4:11.125 
0.03125 1:105.125 2:173 3:65696.2 4:10.75 
0.02735115190255936 1:114.5 2:173 3:65713.8 4:10.5 
0.009864495137251215 1:77.75 2:173 3:65787.6 4:10.125 
0.02129406832160102 1:117.875 2:173 3:87011 4:11.25 
0.012751218312473 1:111.875 2:173 3:65815.9 4:9.75 
0.03069281175364975 1:77.75 2:173 3:65833.5 4:10 
0.03125 1:111.875 2:170 3:86992.5 4:11.125 
0.000930224320380425 1:105.125 2:170 3:65877.5 4:10.75 
0.03125 1:119.75 2:170 3:87115 4:10.875 
0.0128426471101405 1:96.75 2:170 3:87059.5 4:11.375 
0.03125 1:117.125 2:170 3:65919 4:10.375 
0.01775093042059233 1:90.5 2:170 3:65967.2 4:9.375 
0.02463427419162159 1:112.625 2:170 3:87203.1 4:10.75 
0.003018373438783264 1:104.375 2:170 3:66008.5 4:10.125 
0.03125 1:92 2:170 3:66024.6 4:10.125 
0.03125 1:92 2:170 3:92776.9 4:11.875 
0.01773890220787552 1:97.625 2:169 3:87191.4 4:11.875 
0.01366453282325884 1:98 2:169 3:87277.5 4:11.125 
0.02752676750163289 1:92.75 2:170 3:87343 4:11 
0.004058902720537171 1:112.625 2:170 3:66082 4:9.625 
0.03125 1:136.125 2:170 3:66123.6 4:9.75 
0.01345213012801335 1:77.75 2:170 3:66129 4:9.875 
0.01769202847296462 1:85.25 2:170 3:87299.8 4:10.875 
0.03125 1:77.75 2:170 3:66186.5 4:9.75 
0.03125 1:90.5 2:170 3:92959.2 4:11.5 
0.02478025389034605 1:191.625 2:170 3:87467 4:10.75 
0.03125 1:219.75 2:170 3:87458 4:10.625 
0.006285066624005997 1:92 2:170 3:66239.1 4:10.125 
0.02407622584684934 1:111.875 2:170 3:66280.1 4:9.375 
0.01132836557247836 1:98 2:170 3:87403.1 4:11.125 
0.02875545419934943 1:77.75 2:170 3:66324.5 4:9.875 
0.01106016009439129 1:119.375 2:170 3:66340.4 4:9.75 
0.03125 1:85.25 2:170 3:87449.8 4:11.5 
0.03125 1:84.5 2:169 3:98687.5 4:11.875 
0.0007648658941419643 1:84.5 2:170 3:66406.2 4:10.25 
0.03125 1:111.875 2:169 3:87560 4:11.375 
0.03125 1:128.375 2:170 3:66422.1 4:10 
0.004011429241941426 1:121.125 2:170 3:66461.2 4:10.125 
0.03125 1:105.125 2:169 3:87660.4 4:11.875 
0.03125 1:39.75 2:170 3:66471.2 4:10.25 
0.01781953815727472 1:115.25 2:170 3:66503.1 4:8.5 
0.02085254441986944 1:110.375 2:170 3:87638.5 4:10.5 
0.01368025011944634 1:85.25 2:170 3:66553.2 4:10 
0.03125 1:111.875 2:170 3:93337.4 4:11 
0.03125 1:105.125 2:170 3:93445 4:12.25 
0.03125 1:126.875 2:170 3:66609.8 4:9.125 
0.02051291415600869 1:85.25 2:170 3:66623.8 4:9.25 
0.03125 1:105.125 2:170 3:87765.6 4:10.125 
0.01038550268603732 1:84.5 2:173 3:87857 4:11.875 
0.02804699280284964 1:85.25 2:173 3:66721.6 4:9.5 
0.01385448344601479 1:105.125 2:173 3:66731 4:9.25 
0.02448039715710015 1:92 2:173 3:93494 4:11.25 
0.03125 1:90.5 2:173 3:87894.9 4:11.125 
0.02236286988555559 1:111.875 2:174 3:87854.1 4:10.875 
0.03125 1:85.25 2:173 3:93554.2 4:11.375 
0.01207727816487332 1:85.25 2:173 3:66777.5 4:9.375 
0.003097838825665514 1:111.875 2:173 3:66795.5 4:9.25 
0.0168112027197438 1:114.5 2:173 3:66829.8 4:9.25 
0.01611141047216055 1:90.5 2:173 3:66850.1 4:9.75 
0.03125 1:92 2:173 3:93659.8 4:11.125 
0.03125 1:92 2:173 3:88010.8 4:10.875 
0.01981258091031527 1:120.125 2:173 3:66887.6 4:9.25 
0.01422518330410431 1:117.875 2:170 3:66948.1 4:9.375 
0.01950899880235129 1:77.75 2:170 3:66970.6 4:9.125 
0.03125 1:84.5 2:170 3:66998.6 4:9.125 
0.03125 1:105.125 2:170 3:93713.6 4:11 
0.03125 1:112.25 2:169 3:88246.8 4:11 
0.03125 1:85.25 2:170 3:88240.1 4:10.25 
0.03125 1:126.143 2:169 3:76628 4:10.2857 
0.03125 1:9.23077 2:158 3:17198.5 4:6.15385 
0.02117021721169509 2:157 3:16795.8 4:6.23077 
0.03125 1:4.61538 2:157 3:17050.6 4:6.92308 
0.03125 2:157 3:16882.6 4:6.15385 
0.03125 2:157 3:17138.5 4:5.69231 
0.0006981195708630437 1:4.61538 2:161 3:16869 4:6.46154 
0.01489979160434188 1:4.61538 2:157 3:16970.9 4:6.38462 
0.01986540949559564 1:103.923 2:157 3:16775 4:5.84615 
0.01162932880494228 1:60.3077 2:157 3:16920.5 4:5.92308 
0.0206589753969888 1:59.7692 2:158 3:16706.6 4:6.07692 
0.005659984221316073 1:104.769 2:157 3:16833.6 4:6.38462 
0.03125 1:127.615 2:157 3:16822.1 4:5.69231 
0.03125 1:64 2:157 3:16981.7 4:5.92308 
0.01245932814286098 2:157 3:16749 4:5.61538 
0.02752918205904823 2:157 3:16665.8 4:5.53846 
0.005167432979828135 2:160 3:16792.7 4:5.69231 
0.006709249228879183 2:157 3:16626.9 4:6.15385 
0.02106983863150356 1:38.5385 2:157 3:16601.6 4:5 
0.02282142944701939 1:12.2308 2:157 3:16536.5 4:5.61538 
0.03125 1:16.8462 2:157 3:16511.8 4:5.30769 
-0.03125 2:159 3:2 4:0.75 
-0.03125 1:36 2:161 3:2 4:0.5 
-0.03125 1:52.2 2:160 3:1 4:0.75 
-0.03125 2:163 3:1 4:0.75 
-0.03125 2:164 3:1 4:0.75 
-0.03125 1:72.6 2:164 3:2 4:0.5 
-0.03125 1:43.8 2:164 3:2 4:0.75 
-0.03125 2:167 3:1 4:0.5 
-0.01480447718403383 2:164 3:2 4:0.75 
-0.03125 2:164 3:2 4:0.75 
-0.03125 2:164 3:1 4:0.5 
-0.03125 1:50.2 2:164 3:2 4:0.75 
-0.03125 2:164 3:2 4:0.5 
-0.03125 1:31.8 2:164 3:1 4:1 
-0.03125 2:161 3:1 4:0.5 
-0.03125 2:161 3:1 4:0.5 
-0.03125 1:43.8 2:159 3:2 4:0.75 
-0.03125 2:160 3:1 4:0.75 
-0.03125 1:55.8 2:160 3:2 4:0.75 
-0.03125 1:36 2:161 3:1 4:0.5 
-0.03125 1:43.8 2:161 3:1 4:0.75 
-0.03125 2:159 3:2 4:0.75 
-0.03125 2:161 3:1 4:0.75 
-0.007692947945655685 1:31.8 2:160 3:1 4:0.75 
-0.03125 2:160 3:1 4:0.5 
-0.03125 1:43.8 2:161 3:2 4:0.75 
-0.03125 2:161 3:1 4:0.75 
-0.03125 2:160 3:1 4:0.5 
-0.03125 2:161 3:1 4:0.75 
-0.03125 2:161 3:1 4:0.75 
-0.03125 1:56.4 2:161 3:3 4:0.5 
-0.03125 2:161 3:1 4:0.75 
-0.03125 2:161 3:1 4:0.75 
-0.03125 1:43.8 2:160 3:1 4:0.75 
-0.03125 2:160 3:1 4:0.75 
-0.03125 2:161 3:1 4:0.5 
-0.03125 1:67.8 2:160 3:1 4:0.75 
-0.03125 1:12 2:163 3:52 4:1.5 
-0.03125 2:163 3:20 4:0.5 
-0.03125 2:164 3:1 4:0.75 
-0.03125 2:165 3:19 4:0.75 
-0.03125 2:164 3:1 4:0.75 
-0.03125 1:31.8 2:164 3:10 4:0.75 
-0.03125 2:164 3:2 4:0.5 
-0.03125 2:164 3:9 4:0.5 
-0.0265561278214022 2:164 3:2 4:0.75 
-0.03125 1:55.8 2:164 3:12 4:0.5 
-0.03125 2:164 3:9 4:0.75 
-0.03125 2:165 3:1 4:0.5 
-0.03125 1:31.8 2:164 3:9 4:0.5 
-0.03125 2:164 3:1 4:0.5 
-0.03125 2:164 3:10 4:0.5 
-0.03125 1:31.8 2:164 3:9 4:0.75 
-0.03125 2:163 3:9 4:0.75 
-0.03125 2:162 3:1 4:0.5 
-0.03125 2:160 3:10 4:0.5 
-0.03125 1:31.8 2:161 3:10 4:0.75 
-0.03125 2:160 3:11 4:0.5 
-0.03125 2:161 3:14 4:0.75 
-0.03125 2:160 3:9 4:0.75 
-0.03125 2:161 4:0.75 
-0.03125 1:92.4 2:160 4:0.5 
-0.03125 2:160 4:0.75 
-0.03125 2:160 3:14 4:0.75 
-0.03125 1:62.4 2:161 3:3 4:0.75 
-0.03125 1:43.8 2:160 3:3 4:0.75 
-0.03125 2:160 3:10 4:1 
-0.03125 1:36 2:160 3:3 4:0.5 
-0.03125 1:55.8 2:160 3:3 4:0.75 
-0.03125 1:43.8 2:160 3:7 4:0.75 
