svm_type c_svc
kernel_type rbf
gamma 0.333333
nr_class 2
total_sv 437
rho -0.622721
label 11 14
nr_sv 300 137
SV
0.3774255307422993 0:15.17 1:4577568 2:733 3:100 
0.3774318380640714 0:21.93 1:5136276 2:722 3:100 
0.3774322119007045 0:11.26 1:5159352 2:718 3:93 
0.3768624908903241 0:10.93 1:5593972 2:710 3:100 
0.376858541011433 0:13.66 1:5761000 2:705 3:93 
0.3770347065412958 0:17.54 1:6175976 2:701 3:100 
0.3769117205168543 0:19.43 1:6466588 2:697 3:93 
0.3773029929332363 0:14.13 1:6839260 2:690 3:100 
0.3773055316096174 0:18.92 1:6852008 2:686 3:100 
0.3773173281486786 0:12.49 1:6891692 2:658 3:5 
0.3773275207281213 0:18.13 1:6899848 2:640 3:100 
0.3773422741856253 0:13.17 1:6882832 2:635 3:93 
0.3773750304648087 0:17.96 1:6890108 2:632 3:100 
0.3773769330437577 0:22.12 1:6903572 2:628 3:100 
0.37743442400106 0:2.7 1:6895000 2:625 3:100 
0.3774265715916909 0:10.24 1:6894712 2:622 3:100 
0.3773131376560638 0:15.18 1:6886416 2:616 3:100 
0.3768610474158786 0:18.05 1:6900688 2:613 3:100 
0.3769203281475529 0:15.9 1:6888188 2:608 3:100 
0.377436652941111 0:14.57 1:6896076 2:605 3:93 
0.377435032670306 0:15.83 1:6894000 2:601 3:93 
0.377432406725598 0:14.88 1:6887388 2:597 3:100 
0.3770672732873963 0:21.33 1:6914412 2:593 3:100 
0.3774326232747287 0:18.76 1:6906760 2:591 3:93 
0.3774319253784359 0:10.21 1:6897112 2:588 3:13 
0.3775000387898942 0:24.6 1:6905476 2:584 3:93 
0.3776015033163321 0:3.78 1:6906672 2:581 3:100 
0.3770223204997817 0:14.73 1:6907372 2:578 3:93 
0.3770630297649134 0:19.33 1:6919224 2:576 3:100 
0.3773131376560639 0:10.65 1:6895980 2:573 3:100 
0.3774406422567885 0:18.28 1:6914724 2:570 3:100 
0.3772498844588087 0:14.32 1:6900840 2:568 3:100 
0.3770741304121371 0:24.24 1:6898504 2:565 3:100 
0.3773750304648087 0:12.09 1:6916352 2:561 3:93 
0.3772499308896993 0:10.07 1:6915344 2:559 3:100 
0.3773634399094397 0:17.1 1:6908976 2:554 3:6 
0.3774350326704838 0:20.87 1:6905144 2:550 3:13 
0.376858541011433 0:21.68 1:6903084 2:547 3:6 
0.3774224336751372 0:38.52 1:6904404 2:544 3:6 
0.3776803990840828 0:15.76 1:6906804 2:542 3:12 
0.3774205504603855 0:7.61 1:6906216 2:539 3:25 
0.3773686965880674 0:23.2 1:6903360 2:537 3:13 
0.377440520678926 0:11.1 1:6906308 2:534 3:12 
0.3770288227190145 0:7.97 1:6907204 2:532 3:6 
0.3768504023860063 0:10.35 1:6907124 2:529 3:6 
0.376849086204282 0:15.86 1:6907524 2:527 3:6 
0.3772499308896994 0:37.36 1:6886216 2:536 3:73 
0.3773953340927487 0:20.5 1:6911364 2:578 3:26 
0.3774343915545244 0:13.44 1:6932184 2:590 3:13 
0.3771591569724529 0:22.63 1:6924552 2:650 3:6 
0.3770288227190146 0:26.73 1:6902400 2:678 3:12 
0.3774344240020148 0:17.65 1:6905160 2:699 3:6 
0.377425480691961 0:1.53 1:6900144 2:718 3:13 
0.3774891027054015 0:20.38 1:6922880 2:727 3:6 
0.3772344204435027 0:19.11 1:6923576 2:724 3:6 
0.3774172273065876 0:8.64 1:6897460 2:748 3:13 
0.3774331343725548 0:13.23 1:6925604 2:810 3:12 
0.3774029232893687 0:24.58 1:6923560 2:860 3:6 
0.3774366529411111 0:19.17 1:6914244 2:875 3:6 
0.377431925378436 0:13.27 1:6902708 2:888 3:6 
0.3774296354730345 0:20.96 1:6917300 2:885 3:12 
0.3774247095712426 0:28.74 1:6918932 2:882 3:6 
0.3774359305295926 0:21.21 1:6907036 2:914 3:6 
0.3774405206789259 0:44.96 1:6907876 2:918 3:6 
0.3776803990840828 0:31.41 1:6903480 2:965 3:18 
0.3774509987767382 0:15.82 1:6877808 2:1012 3:26 
0.3774218207792041 0:26.43 1:6890024 2:1030 
0.3774355509815014 0:14.21 1:6898116 2:1044 3:13 
0.3774309078241807 0:97.73 1:6884380 2:1064 3:6 
0.3768483158790147 0:22.64 1:6887020 2:1060 
0.3774405206789261 0:58.2 1:6906228 2:1057 
0.3774094711125674 0:15.04 1:6885616 2:1115 3:6 
0.3772498844588086 0:24.16 1:6881424 2:1163 3:6 
0.3768952883413678 0:22.78 1:6890356 2:1189 3:13 
0.3771404493909545 0:21.39 1:6866628 2:1205 3:6 
0.3774350326704839 0:27.22 1:6868612 2:1197 
0.3773131376560639 0:15.94 1:6872864 2:1206 3:6 
0.3773095585553947 0:24.98 1:6854924 2:1219 
0.3770630296271777 0:16.15 1:6860980 2:1232 3:6 
0.377025868258404 0:8.04 1:6867116 2:1290 3:6 
0.3776465817624043 0:10.64 1:6880200 2:1321 
0.3774225271116495 0:26.32 1:6877964 2:1324 
0.3775000387898942 0:12.04 1:6880172 2:1319 
0.3776019635831761 0:52.47 1:6889688 2:1316 3:6 
0.3773090225539496 0:36.9 1:6871884 2:1367 3:6 
0.3768490862042819 0:20.06 1:6884348 2:1417 3:6 
0.3773902407663631 0:22.26 1:6896380 2:1442 3:6 
0.3768585410114331 0:13.79 1:6913696 2:1464 
0.3774235167787041 0:16.34 1:6911140 2:1461 
0.3768482739297593 0:28.43 1:6913828 2:1454 
0.3774891027054015 0:16.37 1:6905104 2:1506 
0.3769853650806629 0:35.61 1:6921636 2:1510 3:6 
0.3775820617620864 0:25.88 1:6903820 2:1560 3:6 
0.3774344240010601 0:28.06 1:6926448 2:1586 
0.3770741304121372 0:26.62 1:6927856 2:1580 
0.377436652941111 0:14.57 1:6927644 2:1574 
0.377126750481784 0:15.36 1:6913992 2:1609 3:6 
0.3774246314999565 0:11.37 1:6916252 2:1655 3:1 
0.3774301344848896 0:10.17 1:6968704 2:1729 3:7 
0.3774355120319967 0:87.59 1:6971324 2:1743 3:6 
0.377436652941111 0:21.73 1:6972496 2:1743 3:12 
0.3769117205168544 0:17.7 1:6981964 2:1743 3:6 
0.3774094711125676 0:20.54 1:6961436 2:1744 3:6 
0.3768504023860064 0:23.23 1:6952976 2:1748 3:33 
0.3768483158790146 0:29.92 1:6964548 2:1749 3:6 
0.3768624908903242 0:15.11 1:6952252 2:1760 3:6 
0.3774235968519759 0:10.1 1:6931384 2:1764 3:100 
0.377222992268151 0:21.2 1:6904716 2:1767 3:6 
0.3774309078241807 0:23.14 1:6895072 2:1769 3:12 
0.3770476377616771 0:16.38 1:6892532 2:1788 
0.377027511940261 0:19.73 1:6895368 2:1792 3:6 
0.37701799701601 0:14.79 1:6902452 2:1788 3:6 
0.3773131376560639 0:16.95 1:6904924 2:1782 3:6 
0.3770616872486474 0:17.49 1:6881892 2:1777 3:6 
0.3772344204435028 0:23.5 1:6853976 2:1779 3:100 
0.3770630296271777 0:24.88 1:6833380 2:1779 3:6 
0.3770223204997818 0:26.25 1:6810752 2:1806 3:6 
0.3771525390726588 0:23.55 1:6810584 2:1836 
0.3772498844588087 0:9.02 1:6805812 2:1840 3:60 
0.3774891027054015 0:11.31 1:6812412 2:1852 3:18 
0.3775000387898942 0:16.56 1:6948200 2:1871 3:6 
0.3775000387898942 0:19.49 1:6928512 2:1886 3:6 
0.3774224336751373 0:24.45 1:6908192 2:1883 3:6 
0.3774344240020147 0:15.83 1:6912080 2:1874 3:6 
0.3768599889681991 0:16.57 1:6907344 2:1871 3:6 
0.3773095585553947 0:26.17 1:6897760 2:1908 3:6 
0.3770297940503064 0:68.73 1:6891932 2:1915 3:12 
0.3774350326704839 0:26.54 1:6994396 2:1934 3:6 
0.3769853650806628 0:105.71 1:6976804 2:1950 3:50 
0.377025868258404 0:63.88 1:6974244 2:1957 3:13 
0.3773173281486785 0:33.81 1:6949936 2:1974 3:6 
0.3774272552617805 0:60.6 1:6953024 2:1978 3:33 
0.3770223204997818 0:23.95 1:6956856 2:1972 3:6 
0.3774293806415416 0:23.22 1:6965832 2:1963 3:6 
0.3773035304200611 0:25.79 1:6963180 2:2007 3:6 
0.3775820617620863 0:12.37 1:6982048 2:2040 3:6 
0.3775820617620863 0:13.24 1:6994248 2:2062 3:13 
0.3776015033163321 0:25.14 1:6972412 2:2074 3:12 
0.3776019635831761 0:9.53 1:6987464 2:2065 3:6 
0.3776019635831762 0:27.91 1:6983660 2:2061 3:6 
0.3768483158790146 0:13.04 1:6973364 2:2100 3:6 
0.3770507140743518 0:21.7 1:6971312 2:2121 3:6 
0.377425394616182 0:15.6 1:6978312 2:2139 
0.3768483158793814 0:13.22 1:6993240 2:2149 
0.3773095585553948 0:23.24 1:6969524 2:2152 
0.3773769330437577 0:8.37 1:6972548 2:2146 3:6 
0.3770630296271776 0:1.24 1:6974784 2:2137 
0.3770492257729909 0:18.08 1:6971632 2:2168 3:6 
0.3770322954908358 0:13.93 1:6968172 2:2205 3:26 
0.37743442400106 0:10.95 1:6969204 2:2240 
0.3773438372105369 0:13.88 1:6967104 2:2240 
0.3774356103266561 0:24.28 1:6969556 2:2233 
0.3773131376560638 0:13.79 1:6970460 2:2227 
0.3774322119007045 0:15.06 1:6962148 2:2265 3:13 
0.3768504023860063 0:19.48 1:6960004 2:2311 3:6 
0.3769203281475529 0:36.3 1:6976512 2:2323 3:6 
0.3776277645379355 0:15.76 1:6977964 2:2336 
0.3776465817624043 0:0.27 1:6982172 2:2330 3:6 
0.3776465817624043 0:24.84 1:6981548 2:2320 
0.3776636936756828 0:30.43 1:6990280 2:2336 
0.3776654393184868 0:2.47 1:6977356 2:2342 
0.3777408749415606 0:24.34 1:6977312 2:2378 3:6 
0.3778432337817231 0:27.4 1:6990384 2:2393 3:10 
0.377343837210537 0:18.85 1:6991668 2:2479 
0.3774094711125675 0:22.24 1:7005112 2:2495 
0.3774094711125675 0:12.88 1:7004612 2:2487 3:6 
0.3774225271116496 0:1.68 1:7005760 2:2481 3:6 
0.3774253946161819 0:15.45 1:6990224 2:2506 3:6 
0.3774293806415416 0:15.99 1:6995408 2:2536 3:6 
0.3774301344848897 0:14.05 1:6988896 2:2536 3:6 
0.3774301601255349 0:12.09 1:6994676 2:2536 3:6 
0.3774297502543946 0:14.83 1:6999628 2:2535 
0.3774246314999565 0:18.77 1:6986396 2:2546 3:6 
0.3774265715916909 0:13.61 1:6989112 2:2548 
0.3774278954063773 0:14.29 1:6991336 2:2538 
0.3774255307422992 0:12.57 1:7025124 2:2548 3:13 
0.3774309078241807 0:19.84 1:7017516 2:2577 3:6 
0.377343837210537 0:24.59 1:7023976 2:2603 3:6 
0.3774350326703059 0:11.98 1:7041324 2:2624 3:6 
0.3772229922681509 0:27.82 1:7035728 2:2634 
0.377433144794769 0:20.44 1:7037608 2:2626 3:6 
0.3771591569724529 0:12.66 1:7022828 2:2621 
0.377436652941111 0:12.1 1:7045120 2:2627 3:13 
0.3772628768164703 0:39.51 1:7036476 2:2658 3:12 
0.3774224336751372 0:31.61 1:7048712 2:2688 
0.3775820617620864 0:15.98 1:7068548 2:2687 3:13 
0.3774094711125676 0:18.19 1:7073772 2:2697 
0.3768504023860064 0:13.65 1:7041292 2:2691 3:12 
0.3768483158790146 0:12.36 1:7043376 2:2682 
0.3768952883413678 0:20 1:7072752 2:2704 3:6 
0.377426555923236 0:16.07 1:7050772 2:2731 3:6 
0.3774309078241807 0:11.83 1:7053128 2:2756 3:6 
0.3770322954908359 0:17.68 1:7056008 2:2770 3:6 
0.3772499308896994 0:11.84 1:7067412 2:2776 3:6 
0.3774246314999565 0:12.94 1:7069220 2:2768 3:6 
0.3773131376560638 0:10.93 1:7071132 2:2762 
0.3774341972408398 0:11.26 1:7072604 2:2777 3:6 
0.3774355120319967 0:15.83 1:7086712 2:2777 3:13 
0.3771377946781941 0:20.15 1:7060148 2:2796 
0.377601963583176 0:9.71 1:7059040 2:2802 
0.3776465817624043 0:16.64 1:7062284 2:2801 3:6 
0.377303530420061 0:19 1:7046164 2:2828 3:6 
0.3777408749415604 0:18.25 1:7052160 2:2832 
0.3774297502543946 0:14.28 1:7054604 2:2855 3:6 
0.3774405206789259 0:12.18 1:7042020 2:2896 3:6 
0.3774406422567886 0:10.62 1:7051080 2:2923 3:6 
0.3772609202181417 0:13.41 1:7035556 2:2940 3:6 
0.3770848828730446 0:20.63 1:7036652 2:2950 3:12 
0.3774355120319968 0:13.9 1:7048228 2:2967 3:6 
0.3770322954908358 0:15.73 1:7030768 2:2995 
0.3776334794683089 0:20.83 1:7036728 2:3055 
0.3774094711125676 0:14.47 1:7112996 2:3101 
0.3772498844588086 0:16.59 1:7095804 2:3122 3:5 
0.3774405206789259 0:12.3 1:7095772 2:3149 3:6 
0.3774293806415416 0:12.6 1:7108740 2:3176 3:6 
0.3768504023860063 0:9.59 1:7086340 2:3197 3:6 
0.3774355509815016 0:25.96 1:7084540 2:3227 3:6 
0.377433144794769 0:18.18 1:7106592 2:3251 3:6 
0.3774891027054015 0:20.38 1:7091440 2:3293 3:6 
0.377436652941111 0:19.41 1:7115776 2:3301 
0.3770123345852192 0:16.87 1:7096152 2:3303 3:6 
0.3774319391498374 0:23.62 1:7095188 2:3331 3:6 
0.377435032670484 0:22.64 1:7106016 2:3359 
0.3774345553511865 0:22.32 1:7096196 2:3422 
0.3773438372105371 0:20.35 1:7101624 2:3446 3:6 
0.3768504023860064 0:16.61 1:7092412 2:3447 
0.3768483158793814 0:11.67 1:7086672 2:3469 
0.376858541011433 0:10.63 1:7085720 2:3493 3:6 
0.3774293806415416 0:19.34 1:7069992 2:3520 
0.3774272552617807 0:14.24 1:7073572 2:3538 
0.3770322954908359 0:15.21 1:7085348 2:3563 3:6 
0.3773131376560639 1:7100400 2:3590 3:6 
0.3772499308896994 0:21.28 1:7083480 2:3611 
0.3770630296271777 0:14.37 1:7114916 2:3634 3:6 
0.3770223204997818 0:18.8 1:7100756 2:3660 
0.3771591569724529 0:12.24 1:7104380 2:3687 
0.3772629175386932 0:15.57 1:7100768 2:3711 3:6 
0.3774350226363421 0:5.26 1:7104464 2:3740 
0.3774344240010601 0:22.14 1:7104484 2:3762 3:6 
0.3768484474647064 0:13.9 1:7097080 2:3786 
0.3770288227190145 0:16.22 1:7104356 2:3807 3:6 
0.3774319391498374 0:16.72 1:7101660 2:3833 3:6 
0.3774322119007045 0:6.01 1:7096116 2:3861 
0.3774341972408398 0:19.1 1:7101900 2:3881 3:6 
0.3770297940503065 0:6.87 1:7098660 2:3909 3:6 
0.3774358313394068 0:11.48 1:7100312 2:3929 3:6 
0.3774350326703059 0:15.63 1:7097124 2:3954 3:6 
0.3774322119007044 0:36.53 1:7097820 2:3972 
0.3774343915545243 0:36.11 1:7099144 2:3999 3:6 
0.3774247095712427 0:15.75 1:7101488 2:4020 3:6 
0.3774301601255349 0:12.73 1:7102040 2:4037 
0.3768599889681992 0:23.64 1:7095572 2:4064 3:6 
0.3773422741856253 0:18.4 1:7106828 2:4087 3:6 
0.3774224336751372 0:21.36 1:7093256 2:4092 
0.3774094711125675 0:9.99 1:7093260 2:4083 
0.3773131376560638 0:14.88 1:7096852 2:4075 
0.3770616872486472 0:20.29 1:7099900 2:4067 
0.3770288227190147 0:14.78 1:7103020 2:4057 3:6 
0.3774331343725547 0:11.18 1:7106312 2:4049 3:6 
0.3774324067255979 0:13.42 1:7109364 2:4041 
0.3768482739297593 0:19.17 1:7112576 2:4033 
0.3768610474158786 0:13.04 1:7115656 2:4024 
0.3770630297649134 0:10.16 1:7093504 2:4016 
0.377031104446742 0:8.76 1:7099200 2:4002 
0.3771591569724529 0:9.26 1:7102484 2:3993 
0.3772835326636674 0:18.05 1:7105672 2:3985 
0.3774345553511866 0:16.02 1:7108564 2:3977 3:6 
0.3774318380640714 0:13.08 1:7109396 2:3969 
0.3769262300567955 0:10.32 1:2430432 2:3961 3:100 
0.3773095585553947 0:11.86 1:549576 2:3954 3:6 
0.3770492257729909 0:16.7 1:554860 2:3946 
0.3769669037669051 0:9.1 1:554856 2:3937 
0.3774356103266561 0:10.99 1:558272 2:3929 3:93 
0.3774355120319968 0:13.06 1:1740168 2:3921 3:12 
0.3774355120319967 0:22.58 1:2154536 2:3913 3:13 
0.3774355120319967 0:25.43 1:2539720 2:3899 3:12 
0.3774350326703059 0:28.6 1:2862896 2:3891 
0.3774094711125676 0:20.38 1:3316744 2:3875 3:12 
0.3770527591788532 0:22.12 1:3490408 2:3867 
0.3774278954063773 0:26.71 1:3981288 2:3851 3:6 
0.3773029929332363 0:33.83 1:4506540 2:3838 3:6 
0.3776636936756828 0:27.37 1:4841748 2:3825 3:13 
0.3772835326636674 0:20.9 1:5126564 2:3817 
0.3770179970160101 0:15.8 1:5475872 2:3804 3:6 
0.3774246314999565 0:15.17 1:5752888 2:3797 3:6 
0.377435022636342 0:15.11 1:6032620 2:3786 3:20 
0.377432406725598 0:16.28 1:6340740 2:3779 3:6 
0.377432406725598 0:13.88 1:6478328 2:3771 3:26 
0.3774205504603855 0:14.23 1:6825844 2:3764 3:13 
0.377440520678926 0:9.53 1:7085220 2:3753 3:12 
0.3774359305295926 0:22.37 1:7093240 2:3745 
0.3774278362372794 0:15.73 1:7091756 2:3738 3:6 
0.3774274858685487 0:18.61 1:7072320 2:3728 3:6 
0.3773859362021167 0:11.96 1:7097888 2:3721 
0.3773686965880674 0:10.54 1:7102432 2:3712 3:6 
0.3772152692896409 0:14.04 1:7087284 2:3705 3:6 
0.377126750481784 0:22.09 1:7090300 2:3697 3:6 
0.3771377946781941 0:23.09 1:7091804 2:3689 
0.3771226295094757 0:27.2 1:7093176 2:3674 
0.3770848828730446 0:15.3 1:7104768 2:3667 
-0.8824697492213971 0:0.9 1:2545992 2:38 
-0.7389690968331505 1:2545992 2:38 
-1 1:2545988 2:38 
-0.792377125081089 1:2546000 2:38 
-0.764414083848349 0:0.22 1:2546000 2:38 
-1 1:2545900 2:38 3:20 
-1 1:2545896 2:38 
-0.06335691459405557 0:0.08 1:2545896 2:38 
-1 0:2.26 1:2545896 2:38 3:6 
-1 0:5.78 1:2545896 2:38 
-1 1:2545888 2:38 
-0.0955729157463559 0:1.48 1:2545896 2:38 
-1 0:6.12 1:2545892 2:38 
-0.6070389355864296 1:2545908 2:38 
-0.6106184041361786 1:2545892 2:38 
-1 0:1.78 1:2545900 2:38 
-0.3189559874105518 1:2545900 2:38 
-0.9408129173376739 1:2545900 2:38 
-1 1:2545892 2:38 
-1 1:2545904 2:38 3:13 
-1 0:1.53 1:2545896 2:38 
-0.8121425105200097 0:0.3 1:2545904 2:38 
-1 1:2545908 2:38 
-0.8004017828165844 1:2545912 2:38 
-0.8126007202319216 0:0.09 1:2545912 2:38 
-0.819178898517243 1:2545904 2:38 
-0.9503545023983204 1:2545932 2:38 
-1 0:22.26 1:2545916 2:38 
-1 0:82.88 1:2545920 2:37 
-1 0:1.92 1:2545924 2:37 
-0.6249086182701857 1:2545924 2:37 3:6 
-0.9980958087235012 1:2545924 2:37 3:6 
-0.9365636094947029 1:2545916 2:37 
-0.6014269887719232 1:2545924 2:37 
-0.1262869994537722 0:1.64 1:2545924 2:37 
-1 0:184.68 1:2545932 2:37 
-1 1:2545940 2:37 3:6 
-0.9283190821215089 1:2545932 2:37 
-0.8393136405433539 0:0.49 1:2545940 2:37 
-0.6071652507995366 1:2545936 2:37 
-1 1:2545944 2:37 3:12 
-1 1:2545936 2:37 
-0.8521196317504521 0:0.6 1:2545944 2:37 
-0.9449832042930777 1:2545964 2:37 
-1 0:82.99 1:2545948 2:37 
-0.832251398204058 1:2545940 2:37 
-0.4724138058748816 1:2545948 2:37 
-0.607043730375332 1:2545952 2:37 
-1 1:2545952 2:37 
-1 0:2.43 1:2545948 2:37 
-1 0:1.36 1:2545956 2:37 
-0.9455255794805475 1:2545976 2:37 
-0.9955196973562885 1:2545948 2:37 
-1 0:38.3 1:2545956 2:37 
-0.8511110346032424 1:2545944 2:37 
-0.3983064766966922 1:2545956 2:37 
-0.6070366139507219 1:2545960 2:36 
-0.9204661206212105 0:0.9 1:2545964 2:36 
-0.6209917293106779 1:2545964 2:36 3:6 
-0.9986214876883104 1:2545964 2:36 3:6 
-0.9372336771804402 1:2545956 2:36 
-1 1:2545960 2:36 
-0.6068184848817995 1:2545968 2:36 
-1 0:9.31 1:2545968 2:36 
-1 1:2545968 2:36 3:5 
-1 0:13.11 1:2545972 2:36 3:6 
-0.2273052466157469 1:2545964 2:36 
-0.8158432186976813 0:0.22 1:2545972 2:36 
-0.8043830138459428 1:2545972 2:36 
-0.9300414510657274 1:2545976 2:36 
-1 1:2545968 2:36 
-1 0:0.3 1:2545976 2:36 3:6 
-0.6073424751088567 1:2545980 2:36 
-1 1:2545980 2:36 
-0.2840671054800836 1:2545984 2:36 
-1 0:1.62 1:2545984 2:36 
-1 1:2554144 2:36 
-1 0:0.3 1:2554440 2:36 
-1 1:2554348 2:36 
-1 1:2554372 2:36 
-1 1:2554376 2:36 3:6 
-1 1:2554676 2:36 
-1 0:25.42 1:2554684 2:36 
-1 0:36.72 1:2554684 2:36 
-1 1:2554680 2:36 
-1 0:0.3 1:2554688 2:36 3:6 
-0.8128059052392242 0:0.09 1:2554688 2:36 
-0.8118636922603784 1:2554688 2:36 
-0.4854320925618113 1:2546436 2:36 
-1 1:2546428 2:36 
-0.9978693473440123 1:2546436 2:36 
-1 0:2.43 1:2546436 2:36 
-0.9446173162922327 1:2545916 2:36 
-0.9328934379009606 1:2545924 2:36 
-0.7853159926106368 0:0.09 1:2545928 2:36 
-0.8275886031943944 1:2545928 2:36 
-1 1:2545920 2:36 
-0.9454635189654729 1:2546012 2:36 
-0.001437094931839429 1:2545992 2:36 
-0.9061233817473591 1:2545984 2:36 
-0.5980376874779032 1:2545992 2:36 
-0.5717845048256296 1:2545988 2:36 
-0.02655646275858242 0:0.22 1:2545996 2:36 
-0.7739994239846993 0:0.22 1:2545996 2:36 
-0.1484861424067033 1:2545996 2:36 
-0.7893673058073079 0:0.26 1:2545988 2:36 
-1 1:2545996 2:35 3:6 
-0.9376205534222732 1:2545996 2:35 
-0.7915715404806453 0:0.3 1:2546000 2:35 
-0.120963135293587 1:2546012 2:35 
-1 1:2546000 2:35 3:6 
-1 0:0.6 1:2545992 2:35 
-1 0:13.62 1:2546000 2:35 
-0.001840112706126495 1:2546008 2:35 
-1 1:2546008 2:35 3:5 
-1 0:2.52 1:2546008 2:35 
-1 0:0.3 1:2546020 2:35 3:6 
-0.7648874708355856 1:2546000 2:35 
-0.4338054860373698 1:2546008 2:35 
-0.989062494292658 1:2546008 2:35 
-0.3981519193396402 0:2.33 1:2546008 2:35 
-1 0:0.07 1:2546004 2:35 
-0.02546066647881251 1:2546012 2:35 
-1 0:0.3 1:2546016 2:35 
-0.8119417286477548 0:0.22 1:2546020 2:35 
-0.8192597426545254 1:2546020 2:35 
-0.803706335690647 0:0.26 1:2546012 2:35 
-1 0:0.9 1:2554336 2:35 
-1 1:2556020 2:35 3:6 
-1 0:1.42 1:2560036 2:35 
-1 0:382.09 1:2557784 2:35 3:6 
-1 0:83.15 1:2553348 2:35 3:6 
-1 0:394.95 1:2552676 2:35 
-1 0:73.17 1:2552088 2:35 
-1 0:209.21 1:2552560 2:35 
-1 0:362.63 1:2554320 2:35 3:26 
-1 0:187.61 1:2561792 2:35 3:6 
