svm_type c_svc
kernel_type rbf
gamma 0.0078125
nr_class 2
total_sv 226
rho -0.765162
label 11 12
nr_sv 182 44
SV
0.2351383468202434 1:20.25 2:163 3:91418.2 4:10 
0.2345455310467349 1:92 2:173 3:82532 4:11.375 
0.230475229506134 1:97.625 2:173 3:71281.9 4:11 
0.2300950416544388 1:119.75 2:173 3:71285.6 4:10.875 
0.2346256994653619 1:77.75 2:173 3:76931.9 4:11.375 
0.2346749540831345 1:110.375 2:173 3:86836.1 4:11.125 
0.2264900041989612 1:105.125 2:173 3:65696.2 4:10.75 
0.1790436139585607 1:114.5 2:173 3:65713.8 4:10.5 
0.1542801703848697 1:107.75 2:173 3:65724.4 4:11 
0.2115538195074116 1:111.875 2:173 3:65739.9 4:11.25 
0.233325352737104 1:97.625 2:173 3:65760.4 4:9.75 
0.2346392214633948 1:77.75 2:173 3:65787.6 4:10.125 
0.2235874759331085 1:117.875 2:173 3:87011 4:11.25 
0.2346430620820271 1:111.875 2:173 3:65815.9 4:9.75 
0.2344665272075195 1:77.75 2:173 3:65833.5 4:10 
0.2290005331701333 1:92 2:171 3:65860.2 4:9.75 
0.2239484266177035 1:111.875 2:170 3:86992.5 4:11.125 
0.2294236868007946 1:105.125 2:170 3:65877.5 4:10.75 
0.2349179569121674 1:119.75 2:170 3:87115 4:10.875 
0.2351007718591829 1:96.75 2:170 3:87059.5 4:11.375 
0.2346747894097463 1:117.125 2:170 3:65919 4:10.375 
0.2175516857281469 1:107.75 2:170 3:65962 4:9.5 
0.2172971564907717 1:90.5 2:170 3:65967.2 4:9.375 
0.221591471090106 1:112.625 2:170 3:87203.1 4:10.75 
0.2256064759852841 1:104.375 2:170 3:66008.5 4:10.125 
0.2258843728925496 1:92 2:170 3:66024.6 4:10.125 
0.2349662274333497 1:92 2:170 3:92776.9 4:11.875 
0.222083729264162 1:97.625 2:169 3:87191.4 4:11.875 
0.2337978468573017 1:98 2:169 3:87277.5 4:11.125 
0.1590800723832596 1:92.75 2:170 3:87343 4:11 
0.2349196915883476 1:112.625 2:170 3:66082 4:9.625 
0.2348184117751266 1:136.125 2:170 3:66123.6 4:9.75 
0.2349222194413966 1:77.75 2:170 3:66129 4:9.875 
0.2335893121850296 1:85.25 2:170 3:87299.8 4:10.875 
0.23495957457757 1:112.625 2:170 3:66168.6 4:10.375 
0.2346476241017985 1:77.75 2:170 3:66186.5 4:9.75 
0.23491143453264 1:90.5 2:170 3:92959.2 4:11.5 
0.1589314582515495 1:97.625 2:170 3:87334.6 4:11.5 
0.2345565002355491 1:191.625 2:170 3:87467 4:10.75 
0.2350445628024053 1:219.75 2:170 3:87458 4:10.625 
0.2345538049318822 1:92 2:170 3:66239.1 4:10.125 
0.1515914774339533 1:111.875 2:170 3:66280.1 4:9.375 
0.1515915012095956 1:104.375 2:170 3:66284.6 4:10.125 
0.2349664832610612 1:98 2:170 3:87403.1 4:11.125 
0.2345835913232124 1:77.75 2:170 3:66324.5 4:9.875 
0.2305264846247626 1:119.375 2:170 3:66340.4 4:9.75 
0.2341055325190087 1:85.25 2:170 3:66353.1 4:9.5 
0.2348347793304779 1:85.25 2:170 3:87449.8 4:11.5 
0.2302810150573845 1:111.875 2:170 3:66362 4:10.25 
0.2174709225640677 1:105.125 2:170 3:66420.8 4:9.125 
0.2349253354574101 1:84.5 2:169 3:98687.5 4:11.875 
0.1609288695551629 1:84.5 2:170 3:66406.2 4:10.25 
0.1509154845972049 1:84.5 2:169 3:66415.8 4:10.375 
0.2344518966251383 1:111.875 2:169 3:87560 4:11.375 
0.2236591982157233 1:128.375 2:170 3:66422.1 4:10 
0.2144539496836916 1:115.625 2:170 3:66438.1 4:9.25 
0.2321285407705377 1:121.125 2:170 3:66461.2 4:10.125 
0.2303186707376555 1:105.125 2:169 3:87660.4 4:11.875 
0.2346275213449912 1:39.75 2:170 3:66471.2 4:10.25 
0.2349451757415715 1:115.25 2:170 3:66503.1 4:8.5 
0.23071388534882 1:110.375 2:170 3:87638.5 4:10.5 
0.1837760967166022 1:90.5 2:169 3:66541.6 4:10 
0.1821103314713033 1:85.25 2:170 3:66553.2 4:10 
0.2344166916556994 1:111.875 2:170 3:93337.4 4:11 
0.2348610662305066 1:105.125 2:170 3:93445 4:12.25 
0.2210808795203665 1:85.25 2:170 3:66578.8 4:9.75 
0.2224268713651987 1:100.25 2:170 3:66590.9 4:9.375 
0.2346315698183233 1:126.875 2:170 3:66609.8 4:9.125 
0.2315128780122803 1:85.25 2:170 3:66623.8 4:9.25 
0.2294335230804077 1:105.5 2:169 3:66636 4:9.25 
0.2326953774002367 1:92 2:170 3:66656.4 4:9.375 
0.235319329341387 1:105.125 2:170 3:87765.6 4:10.125 
0.2343038961538524 1:84.5 2:173 3:87857 4:11.875 
0.1920883857760344 1:85.25 2:173 3:66721.6 4:9.5 
0.1729371301049583 1:97.625 2:173 3:66715.2 4:9.25 
0.2147302319659775 1:105.125 2:173 3:66731 4:9.25 
0.2349253350525962 1:92 2:173 3:93494 4:11.25 
0.2348827078767765 1:90.5 2:173 3:87894.9 4:11.125 
0.2339315296467802 1:111.875 2:174 3:87854.1 4:10.875 
0.2349610048476508 1:85.25 2:173 3:93554.2 4:11.375 
0.2345669655112957 1:85.25 2:173 3:66777.5 4:9.375 
0.2343501237601976 1:111.875 2:173 3:66795.5 4:9.25 
0.1830366813427305 1:104.375 2:173 3:66822 4:9.625 
0.1834815337276402 1:114.5 2:173 3:66829.8 4:9.25 
0.2335240308943202 1:90.5 2:173 3:66850.1 4:9.75 
0.2299095398922446 1:110.375 2:173 3:66866.5 4:9.125 
0.2344627414141003 1:92 2:173 3:93659.8 4:11.125 
0.2349926252966207 1:92 2:173 3:88010.8 4:10.875 
0.2208867713763795 1:120.125 2:173 3:66887.6 4:9.25 
0.1769988504577308 1:112.625 2:173 3:66905.2 4:10.25 
0.1928394149803665 1:99.5 2:173 3:66908.8 4:10 
0.2266663784565542 1:99.5 2:171 3:66937.1 4:9.25 
0.2282996750042174 1:117.875 2:170 3:66948.1 4:9.375 
0.2113873397663494 1:92 2:170 3:66961 4:9.375 
0.2132867332275052 1:77.75 2:170 3:66970.6 4:9.125 
0.2346374834939344 1:84.5 2:170 3:66998.6 4:9.125 
0.2347577337606147 1:105.125 2:170 3:93713.6 4:11 
0.234419205562344 1:112.25 2:169 3:88246.8 4:11 
0.2341193796331904 1:85.25 2:170 3:88240.1 4:10.25 
0.2349273475153279 1:126.143 2:169 3:76628 4:10.2857 
0.2349711611700531 1:9.23077 2:158 3:17198.5 4:6.15385 
0.1543142111386108 1:21.4615 2:158 3:16944.2 4:6.15385 
0.07814676415086877 2:157 3:16795.8 4:6.23077 
0.2349841356553069 1:4.61538 2:157 3:17050.6 4:6.92308 
0.1222320370767009 1:26.0769 2:157 3:16869.5 4:6.30769 
0.1518375568688533 1:12.4615 2:157 3:16945.5 4:6.23077 
0.1214461806974851 1:21.4615 2:157 3:16828.6 4:6 
0.01987743784511017 1:12.2308 2:157 3:16735 4:6.07692 
0.09785410059763322 1:16.8462 2:157 3:16865.1 4:6.30769 
0.168048702230306 2:157 3:16882.6 4:6.15385 
0.08366131638230792 1:12.2308 2:157 3:16670.4 4:5.92308 
0.1784571915179032 1:12.2308 2:158 3:16921 4:6.15385 
0.2349251789697842 2:157 3:17138.5 4:5.69231 
0.2247134925716421 1:38.5385 2:158 3:16677.9 4:6.38462 
0.08769233463730097 1:4.61538 2:161 3:16717.2 4:6.23077 
0.2052225169414045 1:30.9231 2:161 3:16899.5 4:6 
0.08286769411040799 1:12.2308 2:161 3:16714 4:5.76923 
0.1571310756304187 1:4.61538 2:161 3:16869 4:6.46154 
0.0399760068416201 1:12.2308 2:161 3:16690.2 4:6.15385 
0.01827869681836211 1:16.8462 2:161 3:16811.3 4:5.53846 
0.1288836651459136 1:19.3077 2:161 3:16814.2 4:6.15385 
0.1594239941082705 1:16.8462 2:161 3:16847.7 4:5.76923 
0.1084355751363624 1:4.61538 2:157 3:16784.8 4:5.30769 
0.06984764632763553 1:16.8462 2:157 3:16877.3 4:6.30769 
0.1758883918798749 1:12.2308 2:157 3:16898.5 4:6 
0.2342999936894603 1:4.61538 2:157 3:16970.9 4:6.38462 
0.1194402188813544 1:21.4615 2:157 3:16911.3 4:6.15385 
0.1413132091249811 2:157 3:16762.3 4:5.76923 
0.2130903568119763 1:79.6154 2:157 3:16762.2 4:5.53846 
0.2340882225116417 1:103.923 2:157 3:16775 4:5.84615 
0.2270500215415072 1:74 2:157 3:16741.3 4:6.07692 
0.1960265134583957 1:52.8462 2:157 3:16719.9 4:6 
0.2346453148264256 1:60.3077 2:157 3:16920.5 4:5.92308 
0.2013195362336375 1:59.7692 2:158 3:16706.6 4:6.07692 
0.147189569168105 1:68.8462 2:157 3:16864.8 4:5.61538 
0.2331514947057386 1:104.769 2:157 3:16833.6 4:6.38462 
0.2331213009008232 1:127.615 2:157 3:16822.1 4:5.69231 
0.1491382549619092 1:76.5385 2:157 3:16861.8 4:6.15385 
0.2345252843525826 1:64 2:157 3:16981.7 4:5.92308 
0.2180373193591459 1:64.8462 2:157 3:16773.2 4:5.53846 
0.21394766170608 1:52.6923 2:157 3:16814.9 4:5.46154 
0.2110911911788232 1:40.4615 2:157 3:16865.8 4:6.23077 
0.2200316308527105 1:55.3077 2:157 3:16796.1 4:5.69231 
0.09827750209016019 1:4.61538 2:157 3:16807.7 4:5.76923 
0.18487760425307 1:33.9231 2:157 3:16822.6 4:5.76923 
0.1393906481402704 1:16.8462 2:157 3:16791.6 4:5.92308 
0.1562294869840685 2:157 3:16749 4:5.61538 
0.1604607983653812 1:16.8462 2:157 3:16545.7 4:5.15385 
0.07912713481826758 1:12.2308 2:157 3:16883.6 4:6.23077 
0.1966556311582874 2:157 3:16665.8 4:5.53846 
0.2347421028964068 1:16.8462 2:161 3:17016.9 4:6.15385 
0.1226322504392878 1:16.8462 2:161 3:16644.5 4:5.76923 
0.03136114924164751 1:13.8462 2:161 3:16914.6 4:6.07692 
0.14421394217316 1:12.2308 2:161 3:16632.5 4:5.92308 
0.06852273912838107 1:12.2308 2:161 3:16651.4 4:5.53846 
0.07755574184431339 1:4.61538 2:160 3:16709.8 4:5.46154 
0.07951107914528383 2:160 3:16792.7 4:5.69231 
0.1660622685339243 1:16.8462 2:157 3:16737.6 4:5.46154 
0.2324063440817611 1:37.1538 2:157 3:16630.3 4:5.46154 
0.1344200992469005 1:16.8462 2:157 3:16658.3 4:5.46154 
0.1052402942737956 1:12.2308 2:157 3:16575.5 4:5.46154 
0.1308968260890148 1:4.61538 2:157 3:16696.2 4:5.76923 
0.1181748497350884 1:12.2308 2:157 3:16753.3 4:5.46154 
0.1005256834553873 1:16.8462 2:157 3:16840.5 4:5.69231 
0.1928159843499653 2:157 3:16626.9 4:6.15385 
0.1192242805502315 1:12.2308 2:157 3:16766.9 4:5.38462 
0.02703232681348009 1:16.8462 2:157 3:16688.2 4:5.38462 
0.09347344702407893 1:13.8462 2:157 3:16697.7 4:6 
0.2288746004783153 1:38.5385 2:157 3:16601.6 4:5 
0.0608825961143021 1:12.2308 2:157 3:16804.8 4:5.46154 
0.01545205336949812 1:4.61538 2:158 3:16633.2 4:5.46154 
0.1633394978966496 1:12.2308 2:157 3:16536.5 4:5.61538 
0.04568837572456415 1:12.2308 2:158 3:16683.6 4:5.46154 
0.1814749342574876 1:4.61538 2:157 3:16821.6 4:5.23077 
0.1922482422617029 1:21.4615 2:157 3:16568.5 4:5.53846 
0.2333729925606078 1:16.8462 2:157 3:16511.8 4:5.30769 
0.1557995093022912 1:19.3077 2:157 3:16778.1 4:5.76923 
0.2292611876458515 1:49.1538 2:157 3:16742.1 4:5.61538 
0.132686427091934 1:20.0769 2:157 3:16679.6 4:5.30769 
0.1990060695006662 2:157 3:16576.5 4:5.38462 
0.2283115042743619 1:16.8462 2:157 3:16601.9 4:5.15385 
0.1182461850148776 1:12.2308 2:157 3:16725.2 4:5.23077 
-0.889920710432948 2:1195 3:632.2 4:22 
-0.7454764899026034 2:1194 3:82.1 4:22.2 
-0.885321414521278 2:1195 3:633.4 4:22 
-0.3506681143026671 2:1198 3:85.7 4:22.2 
-1.494966615554164 1:14.4545 2:1194 3:97 4:22.1 
-0.002066642752016235 1:14.4545 2:1198 3:92.7 4:22.1 
-0.6102751559206405 2:1194 3:88.4 4:22.2 
-0.8294905772465642 1:40.0909 2:1194 3:81.7 4:22.2 
-0.07150506525015822 1:49.0909 2:1194 3:81.8 4:22.2 
-0.889868973548095 1:100.545 2:1198 3:82.3 4:22.1 
-0.7308601469327259 1:58.0909 2:1194 3:82 4:22.3 
-1.159513577791748 1:14.4545 2:1198 3:80.3 4:22.2 
-0.7706913084095304 1:40.0909 2:1194 3:82.9 4:22.1 
-0.8853872040870938 1:100.545 2:1198 3:83.5 4:22.1 
-0.8860900613094319 1:58.0909 2:1193 3:83.2 4:22.3 
-0.2343535328577078 1:14.4545 2:1194 3:81.5 4:22.2 
-1.379297792815655 1:26.7143 2:1194 3:40.7 4:23.6 
-0.1950930851053164 1:15.1429 2:1193 3:39.8 4:23.7 
-0.6809539185263411 1:10.4286 2:1194 3:47.1 4:23.6 
-0.9383159151691612 1:7.57143 2:1197 3:40.95 4:23.6 
-0.1944390688902513 1:26.7143 2:1194 3:41.3 4:23.65 
-0.2460448391455294 1:7.57143 2:1193 3:45 4:23.7 
-0.00204614518853028 1:7.57143 2:1464 3:39.95 4:23.6 
-0.1141416161325324 1:83.381 2:1464 3:39.1 4:23.55 
-1.009545894704261 1:15.1429 2:1468 3:433.2 4:23.45 
-0.884505997486303 1:83.381 2:1464 3:38.5 4:23.6 
-0.6059361789005016 1:16.1429 2:1468 3:39.45 4:23.6 
-1.010814997098578 1:18 2:1468 3:438.6 4:23.45 
-1.760508917019215 1:7.57143 2:1464 3:74.7 4:23.6 
-0.7477382102509895 1:7.57143 2:1464 3:39.95 4:23.6 
-0.7690119947488396 1:83.381 2:1464 3:39.1 4:23.55 
-1.083207532920323 1:7.57143 2:1464 3:48.2 4:23.6 
-1.473266401944083 1:26.7143 2:1464 3:43.05 4:23.65 
-0.7470052285474991 1:27 2:1582 3:43.6 4:23.85 
-1.061883542384763 1:51.5714 2:1588 3:9 4:24.9 
-0.1456437821346764 1:51.5714 2:1588 3:9.2 4:24.9 
-1.016925510610395 1:27 2:1582 3:44.2 4:23.85 
-0.8866987077507154 1:87.9524 2:1588 3:11.95 4:24.9 
-1.499537317136889 1:32.4286 2:1588 3:9.6 4:25 
-1.181340507486763 1:19 2:1588 3:18.45 4:24.5 
-0.8884064002165515 1:87.9524 2:1588 3:13.15 4:24.85 
-0.7865814689111712 1:7.57143 2:1591 3:15.5 4:24.9 
-0.4726536915575175 1:51.5714 2:1588 3:9.2 4:24.9 
-1.252057849316425 1:7.57143 2:1589 3:6 4:24.95 
