svm_type c_svc
kernel_type rbf
gamma 0.333333
nr_class 2
total_sv 593
rho -0.0283411
label 11 12
nr_sv 300 293
SV
0.9717778970926384 0:15.17 1:4577568 2:733 3:100 
0.9716869784477975 0:21.93 1:5136276 2:722 3:100 
0.9717096936822471 0:11.26 1:5159352 2:718 3:93 
0.9718050607043511 0:10.93 1:5593972 2:710 3:100 
0.9716817111135274 0:13.66 1:5761000 2:705 3:93 
0.9717778970926394 0:17.54 1:6175976 2:701 3:100 
0.9716865203351469 0:19.43 1:6466588 2:697 3:93 
0.9717498682997121 0:14.13 1:6839260 2:690 3:100 
0.9717498683037364 0:18.92 1:6852008 2:686 3:100 
0.9715963327639467 0:12.49 1:6891692 2:658 3:5 
0.971154228626145 0:18.13 1:6899848 2:640 3:100 
0.9719602888793792 0:13.17 1:6882832 2:635 3:93 
0.9721308102844971 0:17.96 1:6890108 2:632 3:100 
0.9717269995317646 0:22.12 1:6903572 2:628 3:100 
0.9717788830913204 0:2.7 1:6895000 2:625 3:100 
0.9718050607043511 0:10.24 1:6894712 2:622 3:100 
0.9717778970926384 0:15.18 1:6886416 2:616 3:100 
0.9717054410496111 0:18.05 1:6900688 2:613 3:100 
0.9716817111135274 0:15.9 1:6888188 2:608 3:100 
0.9716762868820129 0:14.57 1:6896076 2:605 3:93 
0.971704607696583 0:15.83 1:6894000 2:601 3:93 
0.9717493194060873 0:14.88 1:6887388 2:597 3:100 
0.9717494682792611 0:21.33 1:6914412 2:593 3:100 
0.9717498683037364 0:18.76 1:6906760 2:591 3:93 
0.9717499291168665 0:10.21 1:6897112 2:588 3:13 
0.9715781030463471 0:24.6 1:6905476 2:584 3:93 
0.9716695640268076 0:3.78 1:6906672 2:581 3:100 
0.9721187828049018 0:14.73 1:6907372 2:578 3:93 
0.9719445543480714 0:19.33 1:6919224 2:576 3:100 
0.9714941256210342 0:10.65 1:6895980 2:573 3:100 
0.9712606696275619 0:18.28 1:6914724 2:570 3:100 
0.9712157776355373 0:14.32 1:6900840 2:568 3:100 
0.9715780652336774 0:24.24 1:6898504 2:565 3:100 
0.9717269995101017 0:12.09 1:6916352 2:561 3:93 
0.97177888298199 0:10.07 1:6915344 2:559 3:100 
0.9717499290670365 0:17.1 1:6908976 2:554 3:6 
0.9717498682997121 0:20.87 1:6905144 2:550 3:13 
0.9717494682652192 0:21.68 1:6903084 2:547 3:6 
0.9717493194041991 0:38.52 1:6904404 2:544 3:6 
0.9716394985734245 0:15.76 1:6906804 2:542 3:12 
0.9717777711038627 0:7.61 1:6906216 2:539 3:25 
0.9713826787238253 0:23.2 1:6903360 2:537 3:13 
0.9713826787072384 0:11.1 1:6906308 2:534 3:12 
0.9713826786812991 0:7.97 1:6907204 2:532 3:6 
0.9718951937844127 0:10.35 1:6907124 2:529 3:6 
0.9718951936849871 0:15.86 1:6907524 2:527 3:6 
0.971895193709662 0:37.36 1:6886216 2:536 3:73 
0.9712760708727238 0:20.5 1:6911364 2:578 3:26 
0.9712760708702451 0:13.44 1:6932184 2:590 3:13 
0.9712760708713302 0:22.63 1:6924552 2:650 3:6 
0.9712760708720845 0:26.73 1:6902400 2:678 3:12 
0.9712760708722449 0:17.65 1:6905160 2:699 3:6 
0.971276070872344 0:1.53 1:6900144 2:718 3:13 
0.971276070872403 0:20.38 1:6922880 2:727 3:6 
0.9715963327639467 0:19.11 1:6923576 2:724 3:6 
0.9715963327639334 0:8.64 1:6897460 2:748 3:13 
0.97177888298199 0:13.23 1:6925604 2:810 3:12 
0.9717778970926394 0:24.58 1:6923560 2:860 3:6 
0.9716888863545607 0:19.17 1:6914244 2:875 3:6 
0.9715963327639467 0:13.27 1:6902708 2:888 3:6 
0.9716870539039582 0:20.96 1:6917300 2:885 3:12 
0.971704607696583 0:28.74 1:6918932 2:882 3:6 
0.9716888863545607 0:21.21 1:6907036 2:914 3:6 
0.9718050607043507 0:44.96 1:6907876 2:918 3:6 
0.9718050607043507 0:31.41 1:6903480 2:965 3:18 
0.9717499290670365 0:15.82 1:6877808 2:1012 3:26 
0.9717788830913204 0:26.43 1:6890024 2:1030 
0.9717788830913204 0:14.21 1:6898116 2:1044 3:13 
0.9717788830913204 0:97.73 1:6884380 2:1064 3:6 
0.9717499291168665 0:22.64 1:6887020 2:1060 
0.9717499291168665 0:58.2 1:6906228 2:1057 
0.9717499291168665 0:15.04 1:6885616 2:1115 3:6 
0.9717499291168665 0:24.16 1:6881424 2:1163 3:6 
0.9717494682652192 0:22.78 1:6890356 2:1189 3:13 
0.9717498683037364 0:21.39 1:6866628 2:1205 3:6 
0.9717498683037364 0:27.22 1:6868612 2:1197 
0.9717498683037364 0:15.94 1:6872864 2:1206 3:6 
0.9717493194041991 0:24.98 1:6854924 2:1219 
0.9717494682792611 0:16.15 1:6860980 2:1232 3:6 
0.9717494682792611 0:8.04 1:6867116 2:1290 3:6 
0.9717494682792611 0:10.64 1:6880200 2:1321 
0.9717269995101017 0:26.32 1:6877964 2:1324 
0.9717493194060873 0:12.04 1:6880172 2:1319 
0.9717493194060873 0:52.47 1:6889688 2:1316 3:6 
0.9717493194060873 0:36.9 1:6871884 2:1367 3:6 
0.9716394985734245 0:20.06 1:6884348 2:1417 3:6 
0.9717269995317646 0:22.26 1:6896380 2:1442 3:6 
0.9717269995317646 0:13.79 1:6913696 2:1464 
0.9717269995317646 0:16.34 1:6911140 2:1461 
0.9715781030463471 0:28.43 1:6913828 2:1454 
0.9715781030463471 0:16.37 1:6905104 2:1506 
0.9715781030463471 0:35.61 1:6921636 2:1510 3:6 
0.9715781030463471 0:25.88 1:6903820 2:1560 3:6 
0.9716122760203179 0:28.06 1:6926448 2:1586 
0.9711541985524522 0:26.62 1:6927856 2:1580 
0.9711541985524522 0:14.57 1:6927644 2:1574 
0.971154228626145 0:15.36 1:6913992 2:1609 3:6 
0.971154228626145 0:11.37 1:6916252 2:1655 3:1 
0.971154228626145 0:10.17 1:6968704 2:1729 3:7 
0.971154228626145 0:87.59 1:6971324 2:1743 3:6 
0.9712157776355373 0:21.73 1:6972496 2:1743 3:12 
0.9712157776355373 0:17.7 1:6981964 2:1743 3:6 
0.9712157776355373 0:20.54 1:6961436 2:1744 3:6 
0.9712157776355373 0:23.23 1:6952976 2:1748 3:33 
0.9712606696275619 0:29.92 1:6964548 2:1749 3:6 
0.9712606696275619 0:15.11 1:6952252 2:1760 3:6 
0.9712652160972376 0:10.1 1:6931384 2:1764 3:100 
0.9713826786812991 0:21.2 1:6904716 2:1767 3:6 
0.9713826786812991 0:23.14 1:6895072 2:1769 3:12 
0.9713826787072384 0:16.38 1:6892532 2:1788 
0.9713826787072384 0:19.73 1:6895368 2:1792 3:6 
0.9713826787238253 0:14.79 1:6902452 2:1788 3:6 
0.9713826787238253 0:16.95 1:6904924 2:1782 3:6 
0.9714941256210342 0:17.49 1:6881892 2:1777 3:6 
0.9714941256210342 0:23.5 1:6853976 2:1779 3:100 
0.9714941256210342 0:24.88 1:6833380 2:1779 3:6 
0.9714941256210342 0:26.25 1:6810752 2:1806 3:6 
0.9715109964303028 0:23.55 1:6810584 2:1836 
0.9715109964303028 0:9.02 1:6805812 2:1840 3:60 
0.9715338444824833 0:11.31 1:6812412 2:1852 3:18 
0.9716995966938295 0:16.56 1:6948200 2:1871 3:6 
0.9716995966938295 0:19.49 1:6928512 2:1886 3:6 
0.9719445543480714 0:24.45 1:6908192 2:1883 3:6 
0.9719445543480714 0:15.83 1:6912080 2:1874 3:6 
0.9719602888793792 0:16.57 1:6907344 2:1871 3:6 
0.9719602888793792 0:26.17 1:6897760 2:1908 3:6 
0.9719602888793792 0:68.73 1:6891932 2:1915 3:12 
0.9719602888793792 0:26.54 1:6994396 2:1934 3:6 
0.9721088005274294 0:105.71 1:6976804 2:1950 3:50 
0.9721187828049018 0:63.88 1:6974244 2:1957 3:13 
0.9721187828049018 0:33.81 1:6949936 2:1974 3:6 
0.9721308102844971 0:60.6 1:6953024 2:1978 3:33 
0.9721308102844971 0:23.95 1:6956856 2:1972 3:6 
0.9721308102844971 0:23.22 1:6965832 2:1963 3:6 
0.9721308102844971 0:25.79 1:6963180 2:2007 3:6 
0.9716695640268076 0:12.37 1:6982048 2:2040 3:6 
0.9716671531410971 0:13.24 1:6994248 2:2062 3:13 
0.9716459157402847 0:25.14 1:6972412 2:2074 3:12 
0.9716122760203179 0:9.53 1:6987464 2:2065 3:6 
0.9715781030463471 0:27.91 1:6983660 2:2061 3:6 
0.9715781030463471 0:13.04 1:6973364 2:2100 3:6 
0.9715781030463471 0:21.7 1:6971312 2:2121 3:6 
0.9715781030463471 0:15.6 1:6978312 2:2139 
0.9716394985734245 0:13.22 1:6993240 2:2149 
0.9717269995317646 0:23.24 1:6969524 2:2152 
0.9717269995317646 0:8.37 1:6972548 2:2146 3:6 
0.9717269995317646 0:1.24 1:6974784 2:2137 
0.9717269995317646 0:18.08 1:6971632 2:2168 3:6 
0.9717493194060873 0:13.93 1:6968172 2:2205 3:26 
0.9717493194060873 0:10.95 1:6969204 2:2240 
0.9717493194060873 0:13.88 1:6967104 2:2240 
0.9717493194060873 0:24.28 1:6969556 2:2233 
0.9717494682792611 0:13.79 1:6970460 2:2227 
0.9717494682792611 0:15.06 1:6962148 2:2265 3:13 
0.9717494682792611 0:19.48 1:6960004 2:2311 3:6 
0.9717494682792611 0:36.3 1:6976512 2:2323 3:6 
0.9717498683037364 0:15.76 1:6977964 2:2336 
0.9717498683037364 0:0.27 1:6982172 2:2330 3:6 
0.9717498683037364 0:24.84 1:6981548 2:2320 
0.9717498683037364 0:30.43 1:6990280 2:2336 
0.9717499291168665 0:2.47 1:6977356 2:2342 
0.9717499291168665 0:24.34 1:6977312 2:2378 3:6 
0.9717499291168665 0:27.4 1:6990384 2:2393 3:10 
0.9717499291168665 0:18.85 1:6991668 2:2479 
0.9717788830913204 0:22.24 1:7005112 2:2495 
0.9717788830913204 0:12.88 1:7004612 2:2487 3:6 
0.9717788830913204 0:1.68 1:7005760 2:2481 3:6 
0.9717788830913204 0:15.45 1:6990224 2:2506 3:6 
0.9717494682792611 0:15.99 1:6995408 2:2536 3:6 
0.9717499291168665 0:14.05 1:6988896 2:2536 3:6 
0.9715820421964143 0:12.09 1:6994676 2:2536 3:6 
0.9714941256210342 0:14.83 1:6999628 2:2535 
0.9712157776355373 0:18.77 1:6986396 2:2546 3:6 
0.9717498683037364 0:13.61 1:6989112 2:2548 
0.9717494682792611 0:14.29 1:6991336 2:2538 
0.9718050607043511 0:12.57 1:7025124 2:2548 3:13 
0.9717269995317646 0:19.84 1:7017516 2:2577 3:6 
0.9713826787238253 0:24.59 1:7023976 2:2603 3:6 
0.9713826787072384 0:11.98 1:7041324 2:2624 3:6 
0.9718951937844127 0:27.82 1:7035728 2:2634 
0.9718951936849871 0:20.44 1:7037608 2:2626 3:6 
0.9712760708713302 0:12.66 1:7022828 2:2621 
0.9712760708720845 0:12.1 1:7045120 2:2627 3:13 
0.9712760708722449 0:39.51 1:7036476 2:2658 3:12 
0.9712760708727238 0:31.61 1:7048712 2:2688 
0.9715963327639334 0:15.98 1:7068548 2:2687 3:13 
0.9718050607043507 0:18.19 1:7073772 2:2697 
0.9718050607043507 0:13.65 1:7041292 2:2691 3:12 
0.9718050607043507 0:12.36 1:7043376 2:2682 
0.9718050607043507 0:20 1:7072752 2:2704 3:6 
0.9717778970926384 0:16.07 1:7050772 2:2731 3:6 
0.9717454661097249 0:11.83 1:7053128 2:2756 3:6 
0.9717454661097249 0:17.68 1:7056008 2:2770 3:6 
0.971704607696583 0:11.84 1:7067412 2:2776 3:6 
0.971697625561076 0:12.94 1:7069220 2:2768 3:6 
0.9716888863545607 0:10.93 1:7071132 2:2762 
0.9716888863545607 0:11.26 1:7072604 2:2777 3:6 
0.9716870539039582 0:15.83 1:7086712 2:2777 3:13 
0.9716817111135274 0:20.15 1:7060148 2:2796 
0.9716790567885324 0:9.71 1:7059040 2:2802 
0.9716790567885324 0:16.64 1:7062284 2:2801 3:6 
0.9716782185424111 0:19 1:7046164 2:2828 3:6 
0.9715963327639467 0:18.25 1:7052160 2:2832 
0.9715963327639334 0:14.28 1:7054604 2:2855 3:6 
0.9715963327639334 0:12.18 1:7042020 2:2896 3:6 
0.9713942240996912 0:10.62 1:7051080 2:2923 3:6 
0.9716870539039582 0:13.41 1:7035556 2:2940 3:6 
0.9716869784477975 0:20.63 1:7036652 2:2950 3:12 
0.9716817111135274 0:13.9 1:7048228 2:2967 3:6 
0.9716790567885324 0:15.73 1:7030768 2:2995 
0.9717778970926384 0:20.83 1:7036728 2:3055 
0.9718050607043507 0:14.47 1:7112996 2:3101 
0.9718050607043507 0:16.59 1:7095804 2:3122 3:5 
0.9717788830913204 0:12.3 1:7095772 2:3149 3:6 
0.9717788830913204 0:12.6 1:7108740 2:3176 3:6 
0.9717499291168665 0:9.59 1:7086340 2:3197 3:6 
0.9717499291168665 0:25.96 1:7084540 2:3227 3:6 
0.9717498683037364 0:18.18 1:7106592 2:3251 3:6 
0.9717498683037364 0:20.38 1:7091440 2:3293 3:6 
0.9717494682792611 0:19.41 1:7115776 2:3301 
0.9717494682792611 0:16.87 1:7096152 2:3303 3:6 
0.9717493194060873 0:23.62 1:7095188 2:3331 3:6 
0.9717493194060873 0:22.64 1:7106016 2:3359 
0.9717269995317646 0:22.32 1:7096196 2:3422 
0.9717269995317646 0:20.35 1:7101624 2:3446 3:6 
0.9715781030463471 0:16.61 1:7092412 2:3447 
0.9715781030463471 0:11.67 1:7086672 2:3469 
0.9716671531410971 0:10.63 1:7085720 2:3493 3:6 
0.9716695640268076 0:19.34 1:7069992 2:3520 
0.971154228626145 0:14.24 1:7073572 2:3538 
0.971154228626145 0:15.21 1:7085348 2:3563 3:6 
0.9716782185424111 1:7100400 2:3590 3:6 
0.9712157776355373 0:21.28 1:7083480 2:3611 
0.9712157776355373 0:14.37 1:7114916 2:3634 3:6 
0.9712606696275619 0:18.8 1:7100756 2:3660 
0.9714941256210342 0:12.24 1:7104380 2:3687 
0.9714941256210342 0:15.57 1:7100768 2:3711 3:6 
0.9715109964303028 0:5.26 1:7104464 2:3740 
0.9716995966938295 0:22.14 1:7104484 2:3762 3:6 
0.9719445543480714 0:13.9 1:7097080 2:3786 
0.9719602888793792 0:16.22 1:7104356 2:3807 3:6 
0.9719602888793792 0:16.72 1:7101660 2:3833 3:6 
0.9717493194060873 0:6.01 1:7096116 2:3861 
0.9717493194060873 0:19.1 1:7101900 2:3881 3:6 
0.9715781030463471 0:6.87 1:7098660 2:3909 3:6 
0.9713826786812991 0:11.48 1:7100312 2:3929 3:6 
0.971895193709662 0:15.63 1:7097124 2:3954 3:6 
0.971276070872344 0:36.53 1:7097820 2:3972 
0.971276070872403 0:36.11 1:7099144 2:3999 3:6 
0.9721088005274294 0:15.75 1:7101488 2:4020 3:6 
0.9721187828049018 0:12.73 1:7102040 2:4037 
0.9721308102844971 0:23.64 1:7095572 2:4064 3:6 
0.9721308102844971 0:18.4 1:7106828 2:4087 3:6 
0.9715820421964143 0:21.36 1:7093256 2:4092 
0.9715780652336774 0:9.99 1:7093260 2:4083 
0.9715781030463471 0:14.88 1:7096852 2:4075 
0.9715781030463471 0:20.29 1:7099900 2:4067 
0.9716394985734245 0:14.78 1:7103020 2:4057 3:6 
0.9717269995317646 0:11.18 1:7106312 2:4049 3:6 
0.9717269995101017 0:13.42 1:7109364 2:4041 
0.9717493194041991 0:19.17 1:7112576 2:4033 
0.9717493194041991 0:13.04 1:7115656 2:4024 
0.9717494682652192 0:10.16 1:7093504 2:4016 
0.9717494682652192 0:8.76 1:7099200 2:4002 
0.9717498682997121 0:9.26 1:7102484 2:3993 
0.9717498682997121 0:18.05 1:7105672 2:3985 
0.9717499290670365 0:16.02 1:7108564 2:3977 3:6 
0.9717499290670365 0:13.08 1:7109396 2:3969 
0.9717788830913204 0:10.32 1:2430432 2:3961 3:100 
0.97177888298199 0:11.86 1:549576 2:3954 3:6 
0.9717794117378075 0:16.7 1:554860 2:3946 
0.9717777711038627 0:9.1 1:554856 2:3937 
0.971704607696583 0:10.99 1:558272 2:3929 3:93 
0.9717044532349064 0:13.06 1:1740168 2:3921 3:12 
0.9716870539039582 0:22.58 1:2154536 2:3913 3:13 
0.9716865203351469 0:25.43 1:2539720 2:3899 3:12 
0.9716782185424111 0:28.6 1:2862896 2:3891 
0.9717788830913204 0:20.38 1:3316744 2:3875 3:12 
0.9712760708702451 0:22.12 1:3490408 2:3867 
0.9716761534898102 0:26.71 1:3981288 2:3851 3:6 
0.9715820421964143 0:33.83 1:4506540 2:3838 3:6 
0.9717044532349064 0:27.37 1:4841748 2:3825 3:13 
0.9716782185424111 0:20.9 1:5126564 2:3817 
0.9716761534898102 0:15.8 1:5475872 2:3804 3:6 
0.9716762868820129 0:15.17 1:5752888 2:3797 3:6 
0.9716695640268076 0:15.11 1:6032620 2:3786 3:20 
0.971154228626145 0:16.28 1:6340740 2:3779 3:6 
0.9717054410496111 0:13.88 1:6478328 2:3771 3:26 
0.9715338444824833 0:14.23 1:6825844 2:3764 3:13 
0.9719602888793792 0:9.53 1:7085220 2:3753 3:12 
0.9721308102844971 0:22.37 1:7093240 2:3745 
0.9717454661097249 0:15.73 1:7091756 2:3738 3:6 
0.9717454661097249 0:18.61 1:7072320 2:3728 3:6 
0.9713942240996912 0:11.96 1:7097888 2:3721 
0.9717269995101017 0:10.54 1:7102432 2:3712 3:6 
0.9717096936822471 0:14.04 1:7087284 2:3705 3:6 
0.97177888298199 0:22.09 1:7090300 2:3697 3:6 
0.9715820421964143 0:23.09 1:7091804 2:3689 
0.9716790567885324 0:27.2 1:7093176 2:3674 
0.9718050607043511 0:15.3 1:7104768 2:3667 
-1 0:10.51 1:796317 2:1717 
-1 0:12.99 1:795669 2:1715 3:100 
-1 0:18.59 1:693937 2:1717 
-1 0:11.54 1:694333 2:1715 
-1 0:10.12 1:694361 2:1713 
-1 0:18.03 1:694381 2:1712 3:6 
-1 0:34.24 1:694373 2:1710 
-1 0:10.88 1:694353 2:1709 
-1 0:15.12 1:694377 2:1707 
-1 0:13.19 1:694353 2:1706 
-1 0:10.95 1:694357 2:1704 3:6 
-1 0:10.38 1:694377 2:1702 
-1 0:9.07 1:694445 2:1700 
-1 0:1.89 1:694445 2:1699 
-1 0:9.03 1:694433 2:1697 3:6 
-1 0:12.56 1:694445 2:1696 3:6 
-1 0:8.58 1:694717 2:1694 3:6 
-1 0:0.72 1:694997 2:1693 3:6 
-1 0:53.14 1:695073 2:1691 
-1 0:1.77 1:695049 2:1690 3:6 
-1 0:22.91 1:695045 2:1688 
-1 0:16.48 1:695037 2:1687 
-1 0:11.48 1:695049 2:1685 
-1 0:20.65 1:695041 2:1684 
-1 0:22.9 1:695041 2:1682 3:6 
-1 0:18.89 1:695037 2:1681 
-1 0:12.75 1:694993 2:1679 
-1 0:21.47 1:694985 2:1678 
-1 0:14.5 1:694989 2:1676 
-1 0:22.42 1:694985 2:1675 3:6 
-1 0:9.64 1:695125 2:1674 
-1 0:20.62 1:695781 2:1672 
-1 1:695781 2:1671 
-1 0:20.31 1:695785 2:1669 
-1 0:22.31 1:695781 2:1668 
-1 0:7.16 1:695785 2:1666 
-1 0:16.56 1:695785 2:1665 
-1 0:19.69 1:696681 2:1663 
-1 0:16.43 1:696709 2:1662 
-1 0:9.97 1:696749 2:1661 
-1 0:14.53 1:696733 2:1659 
-1 0:15.13 1:696749 2:1658 3:6 
-1 0:23.8 1:696809 2:1656 
-1 0:11.81 1:697117 2:1655 
-1 0:14.42 1:697093 2:1653 
-1 0:13.21 1:697089 2:1652 3:6 
-1 0:17.63 1:697085 2:1651 
-1 0:10.43 1:697217 2:1649 3:6 
-1 0:14.88 1:697197 2:1648 
-1 0:14.06 1:697257 2:1646 
-0.8325156224161533 0:12.06 1:697269 2:1645 
-0.8321553388538779 0:12.64 1:697269 2:1643 
-1 0:14.85 1:697261 2:1642 
-1 0:19.8 1:697257 2:1641 3:6 
-1 0:13.1 1:697265 2:1639 
-1 0:15.83 1:697221 2:1638 3:6 
-1 0:12.25 1:697217 2:1636 
-1 0:20.77 1:697221 2:1635 
-1 0:20.91 1:697185 2:1634 
-1 0:12.22 1:697189 2:1632 
-1 0:8.85 1:697193 2:1631 3:6 
-1 0:16.6 1:697185 2:1629 
-1 0:12.47 1:697193 2:1628 
-1 0:11.4 1:697189 2:1627 
-1 0:14.59 1:697193 2:1625 
-1 0:9.81 1:697189 2:1624 
-1 0:15.26 1:697193 2:1622 3:6 
-1 0:10.64 1:697189 2:1621 3:6 
-1 0:11.04 1:697193 2:1620 
-1 0:8.94 1:697221 2:1618 
-1 0:20.77 1:697241 2:1617 
-1 0:16.97 1:697257 2:1616 
-1 0:16.13 1:697313 2:1614 
-0.5989791692953886 0:12.15 1:697501 2:1613 
-0.5998762200576423 0:12.21 1:697501 2:1612 
-1 0:21.13 1:697525 2:1610 3:5 
-1 0:15.21 1:697477 2:1609 
-1 0:61.6 1:697461 2:1607 3:6 
-1 0:51.74 1:697457 2:1606 
-1 0:19.71 1:697461 2:1605 
-1 0:19.1 1:697473 2:1603 
-1 0:14.67 1:697481 2:1602 
-1 0:33.5 1:697489 2:1601 
-1 0:31.67 1:697509 2:1598 
-1 0:29.43 1:697497 2:1597 
-1 0:16.08 1:697497 2:1596 3:6 
-1 0:13.74 1:697493 2:1594 
-1 0:13.83 1:697501 2:1593 3:6 
-1 0:12.01 1:697477 2:1592 3:6 
-1 0:38.56 1:697477 2:1590 
-1 0:13.06 1:697473 2:1589 
-1 0:17.58 1:697473 2:1588 3:6 
-1 0:32.18 1:697517 2:1586 
-1 0:49.09 1:697489 2:1585 3:6 
-1 0:24.57 1:697489 2:1584 
-1 0:39.67 1:697505 2:1583 3:6 
-1 0:16.38 1:697517 2:1581 3:6 
-1 0:14.39 1:697529 2:1580 
-1 0:14.2 1:697541 2:1579 3:6 
-1 0:11.01 1:697541 2:1577 
-1 0:18.29 1:722117 2:1576 3:6 
-1 0:14.65 1:720717 2:1575 3:6 
-1 0:12.51 1:725189 2:1574 3:20 
-1 0:25.23 1:711209 2:1572 
-1 0:25.42 1:711801 2:1571 3:6 
-1 0:20.5 1:713413 2:1570 3:6 
-1 0:21 1:713425 2:1569 3:6 
-1 0:19.29 1:713429 2:1567 
-1 0:14.64 1:713765 2:1566 3:6 
-1 0:22.2 1:712741 2:1565 
-1 0:19.04 1:712681 2:1564 3:6 
-1 0:24.01 1:712545 2:1562 3:6 
-1 0:24.86 1:713137 2:1561 
-1 0:11.69 1:713653 2:1560 3:6 
-1 0:15.15 1:714913 2:1559 3:6 
-1 0:12.41 1:715045 2:1557 3:6 
-1 0:31.65 1:715041 2:1556 3:6 
-1 0:15.15 1:715041 2:1555 
-1 0:21.4 1:715041 2:1553 
-1 0:17.4 1:715025 2:1552 
-1 0:32.72 1:715029 2:1551 
-1 0:21.64 1:706785 2:1550 3:6 
-1 0:17.53 1:706957 2:1548 
-1 0:16.97 1:714389 2:1547 3:6 
-1 0:16.84 1:718365 2:1546 
-1 0:15.21 1:718437 2:1545 3:6 
-1 1:713297 2:1544 
-1 0:18.8 1:713301 2:1543 3:6 
-1 0:19.43 1:713297 2:1541 3:6 
-1 0:29.04 1:713257 2:1540 
-1 0:18.41 1:713329 2:1539 
-1 0:33.85 1:706053 2:1538 
-1 0:19.42 1:706065 2:1536 
-1 0:16.76 1:714769 2:1535 3:6 
-1 0:15.85 1:714757 2:1534 3:13 
-1 0:27.21 1:714713 2:1533 3:6 
-1 0:19.82 1:714805 2:1532 3:6 
-1 0:12.68 1:714849 2:1530 
-1 0:24.13 1:714921 2:1529 3:6 
-1 0:13.2 1:714961 2:1528 
-1 0:23.01 1:714977 2:1527 
-0.8170967433945611 0:10.68 1:715001 2:1525 
-0.8177948694191416 0:12.43 1:715001 2:1524 
-1 0:2.68 1:715025 2:1523 
-1 0:19.38 1:715221 2:1522 3:12 
-1 0:14.1 1:716049 2:1521 3:13 
-1 0:21.78 1:715941 2:1519 3:6 
-1 0:13.85 1:715849 2:1518 3:20 
-1 0:13.79 1:703765 2:1517 
-1 0:33.87 1:703777 2:1516 
-1 0:17.69 1:703785 2:1515 
-1 0:18.08 1:703749 2:1513 
-1 0:17.28 1:703737 2:1512 3:12 
-1 0:19.63 1:702865 2:1511 3:6 
-1 0:11.51 1:698633 2:1510 3:6 
-1 0:9.12 1:710985 2:1509 
-1 0:8.52 1:141443 2:2653 
-1 0:21.47 1:175578 2:2566 
-1 0:16.09 1:179487 2:2554 
-1 0:13.3 1:183368 2:2541 
-1 0:13.27 1:190010 2:2530 
-1 0:23.14 1:197628 2:2519 
-1 0:15.3 1:203954 2:2508 3:6 
-1 0:24.58 1:210648 2:2497 
-1 0:12.81 1:220184 2:2486 3:6 
-1 0:21.51 1:226502 2:2477 
-1 0:25.29 1:227766 2:2490 
-1 0:21.45 1:236909 2:2479 3:6 
-1 0:23.42 1:240798 2:2468 
-1 0:14.02 1:244411 2:2456 
-1 0:13.96 1:251909 2:2447 3:6 
-1 0:12.79 1:256643 2:2437 
-1 0:20.94 1:261260 2:2425 
-1 0:17.25 1:265738 2:2414 
-1 0:19.87 1:272960 2:2404 3:6 
-1 0:15.17 1:278961 2:2395 
-1 0:33.85 1:281386 2:2384 
-1 0:16.85 1:283810 2:2373 
-1 0:24.87 1:288559 2:2363 
-1 0:15.48 1:292427 2:2352 3:6 
-1 0:13.89 1:298096 2:2343 
-1 0:10.78 1:305141 2:2334 
-1 0:18.33 1:316390 2:2326 
-1 0:8.25 1:326721 2:2317 
-1 0:24.02 1:328497 2:2307 3:6 
-1 0:20.22 1:332942 2:2297 
-1 0:78.04 1:335850 2:2287 
-1 0:19.71 1:355626 2:2278 3:18 
-1 0:17.95 1:354730 2:2268 
-1 0:19.53 1:354678 2:2257 
-1 0:11.26 1:354721 2:2247 3:12 
-1 0:15.93 1:355181 2:2236 
-1 0:18.91 1:354065 2:2224 
-1 0:15.76 1:354193 2:2213 
-1 0:35.17 1:354181 2:2204 
-1 0:20.26 1:354168 2:2193 
-1 0:19.71 1:354176 2:2183 
-1 0:15.19 1:353652 2:2172 
-1 0:20.81 1:354072 2:2163 
-1 0:11.27 1:354080 2:2152 
-1 0:17 1:354056 2:2142 
-1 0:14.7 1:354060 2:2132 
-1 0:9.33 1:354291 2:2122 
-1 0:28.49 1:354231 2:2113 
-1 0:11.16 1:354263 2:2103 
-1 0:21.61 1:354263 2:2094 3:6 
-1 0:5.46 1:354242 2:2084 
-1 0:27.73 1:354762 2:2075 
-1 0:16.33 1:354890 2:2065 
-1 0:18.86 1:354882 2:2056 
-1 0:10.31 1:355230 2:2046 
-1 0:16.91 1:355198 2:2038 3:6 
-1 0:16.91 1:355730 2:2029 
-1 0:69.59 1:355725 2:2020 
-1 0:35.06 1:355745 2:2011 
-1 0:23.29 1:355721 2:2002 
-1 0:18.05 1:355733 2:1994 
-1 0:13.59 1:355732 2:1984 
-1 0:26.72 1:355728 2:1976 
-1 0:13.44 1:355744 2:1968 3:5 
-1 0:20.67 1:355704 2:1959 
-1 0:21.22 1:355724 2:1951 
-1 0:20.38 1:355727 2:1942 
-1 0:22.5 1:355711 2:1934 
-1 0:16.46 1:355835 2:1926 
-1 0:14.51 1:355815 2:1919 
-1 0:10.18 1:355827 2:1910 
-1 0:17.78 1:355839 2:1902 
-1 0:17.27 1:355838 2:1895 3:6 
-1 0:16.81 1:355838 2:1886 
-1 0:11.65 1:355850 2:1879 
-1 0:14.76 1:355838 2:1871 
-1 0:17.8 1:355838 2:1864 
-1 0:11.83 1:355845 2:1855 
-1 0:10.39 1:355837 2:1848 3:6 
-1 0:11.89 1:355841 2:1841 
-1 0:11.16 1:355837 2:1834 
-1 0:7.92 1:355833 2:1826 3:6 
-1 0:11.23 1:355821 2:1819 
-1 0:10.62 1:355828 2:1811 
-1 0:17.85 1:355824 2:1804 
-1 0:6.4 1:355820 2:1798 
-1 0:11.93 1:355832 2:1791 3:6 
-1 0:8.1 1:355824 2:1783 
-1 0:4.58 1:355832 2:1776 3:5 
-1 0:6.85 1:355827 2:1769 
-1 0:5.74 1:355831 2:1763 
-1 0:6.69 1:355831 2:1756 3:6 
-1 0:2.8 1:355831 2:1749 3:6 
-1 0:6.54 1:355831 2:1743 
-1 0:8.1 1:355823 2:1736 
-1 0:6.56 1:355834 2:1730 
-1 0:6.11 1:355830 2:1723 
-1 0:5.73 1:355822 2:1716 
-1 0:5.25 1:355830 2:1709 
-1 0:15.28 1:355826 2:1703 
-1 0:9.08 1:355802 2:1697 
-1 0:10.26 1:355818 2:1690 
-1 0:6.03 1:355825 2:1684 3:6 
-1 0:9.35 1:355825 2:1678 
-1 0:4.17 1:355817 2:1672 
-1 0:8.1 1:355813 2:1666 3:6 
-1 0:16.66 1:355581 2:1660 
-1 0:15.1 1:355905 2:1654 3:6 
-1 0:13.35 1:355897 2:1648 
-1 0:16.25 1:355909 2:1642 3:6 
-1 0:7.95 1:355900 2:1637 
-1 0:8.43 1:355920 2:1631 3:6 
-1 0:21.75 1:355920 2:1625 
-1 0:14.95 1:355928 2:1619 
-1 0:17.84 1:355932 2:1614 
-1 0:12.82 1:355932 2:1608 
-1 0:13.22 1:355920 2:1602 
-1 0:13.28 1:355907 2:1597 
-1 0:17.06 1:355931 2:1591 3:6 
-1 0:12.1 1:355907 2:1585 
-1 0:10.79 1:355931 2:1580 3:6 
-1 0:23.76 1:355935 2:1574 
-1 0:12.28 1:355923 2:1569 
-1 0:27.06 1:355931 2:1564 
-1 0:13.3 1:356027 2:1559 
-1 0:11.4 1:356242 2:1553 
-1 0:10.51 1:356242 2:1548 
-1 0:12.24 1:356242 2:1543 
-1 0:16.17 1:356234 2:1537 3:6 
-1 0:15.76 1:356274 2:1533 
-1 0:22.61 1:356686 2:1528 
-1 0:13.78 1:356686 2:1522 
-1 0:28.54 1:357726 2:1518 
-1 0:15.53 1:358742 2:1514 
-1 0:7.99 1:361187 2:1510 
-1 0:19.46 1:364939 2:1506 
-1 0:16.67 1:375375 2:1502 3:6 
