svm_type c_svc
kernel_type rbf
gamma 0.0078125
nr_class 2
total_sv 208
rho -0.930521
label 11 13
nr_sv 183 25
SV
0.06956502093619682 1:20.25 2:163 3:91418.2 4:10 
0.06943273325246541 1:92 2:173 3:82532 4:11.375 
0.06783078517293278 1:97.625 2:173 3:71281.9 4:11 
0.06814366495485036 1:119.75 2:173 3:71285.6 4:10.875 
0.06925050076949602 1:77.75 2:173 3:76931.9 4:11.375 
0.06964896135027371 1:110.375 2:173 3:86836.1 4:11.125 
0.06710372592229075 1:105.125 2:173 3:65696.2 4:10.75 
0.05301588365527543 1:114.5 2:173 3:65713.8 4:10.5 
0.04576678578639166 1:107.75 2:173 3:65724.4 4:11 
0.06270808141731643 1:111.875 2:173 3:65739.9 4:11.25 
0.06909525849658175 1:97.625 2:173 3:65760.4 4:9.75 
0.06924912728696553 1:77.75 2:173 3:65787.6 4:10.125 
0.06579720671790673 1:117.875 2:173 3:87011 4:11.25 
0.06924978088346323 1:111.875 2:173 3:65815.9 4:9.75 
0.06961140258759829 1:77.75 2:173 3:65833.5 4:10 
0.06783817409860271 1:92 2:171 3:65860.2 4:9.75 
0.06641092622928019 1:111.875 2:170 3:86992.5 4:11.125 
0.06786266465532037 1:105.125 2:170 3:65877.5 4:10.75 
0.0696088795532589 1:119.75 2:170 3:87115 4:10.875 
0.06922166168452853 1:96.75 2:170 3:87059.5 4:11.375 
0.06958440319691922 1:117.125 2:170 3:65919 4:10.375 
0.06446308080690555 1:107.75 2:170 3:65962 4:9.5 
0.0642525541659395 1:90.5 2:170 3:65967.2 4:9.375 
0.06554097655131647 1:112.625 2:170 3:87203.1 4:10.75 
0.0666672331414303 1:104.375 2:170 3:66008.5 4:10.125 
0.06643341977240635 1:92 2:170 3:66024.6 4:10.125 
0.069536666303117 1:92 2:170 3:92776.9 4:11.875 
0.06554877402370141 1:97.625 2:169 3:87191.4 4:11.875 
0.06907438581925354 1:98 2:169 3:87277.5 4:11.125 
0.04682870599503769 1:92.75 2:170 3:87343 4:11 
0.06984037902471724 1:112.625 2:170 3:66082 4:9.625 
0.06956298305389626 1:136.125 2:170 3:66123.6 4:9.75 
0.06941246242650495 1:77.75 2:170 3:66129 4:9.875 
0.06882334666677811 1:85.25 2:170 3:87299.8 4:10.875 
0.0693666143806904 1:112.625 2:170 3:66168.6 4:10.375 
0.0694337827204965 1:77.75 2:170 3:66186.5 4:9.75 
0.06936362448350786 1:90.5 2:170 3:92959.2 4:11.5 
0.04709089977317821 1:97.625 2:170 3:87334.6 4:11.5 
0.06962532286513451 1:191.625 2:170 3:87467 4:10.75 
0.06899952918711061 1:219.75 2:170 3:87458 4:10.625 
0.06953820245655691 1:92 2:170 3:66239.1 4:10.125 
0.04461266808941033 1:111.875 2:170 3:66280.1 4:9.375 
0.04512814197257307 1:104.375 2:170 3:66284.6 4:10.125 
0.06930874884410559 1:98 2:170 3:87403.1 4:11.125 
0.06952037321191112 1:77.75 2:170 3:66324.5 4:9.875 
0.06838077863429937 1:119.375 2:170 3:66340.4 4:9.75 
0.06922488317105485 1:85.25 2:170 3:66353.1 4:9.5 
0.06972492454283374 1:85.25 2:170 3:87449.8 4:11.5 
0.06801074543861169 1:111.875 2:170 3:66362 4:10.25 
0.06426857371185703 1:105.125 2:170 3:66420.8 4:9.125 
0.06957919481400837 1:84.5 2:169 3:98687.5 4:11.875 
0.04789067323310348 1:84.5 2:170 3:66406.2 4:10.25 
0.04457668619959565 1:84.5 2:169 3:66415.8 4:10.375 
0.06953338764061556 1:111.875 2:169 3:87560 4:11.375 
0.06594038525823628 1:128.375 2:170 3:66422.1 4:10 
0.06333880201332805 1:115.625 2:170 3:66438.1 4:9.25 
0.06845975647130659 1:121.125 2:170 3:66461.2 4:10.125 
0.06827763990319902 1:105.125 2:169 3:87660.4 4:11.875 
0.06899382124768208 1:39.75 2:170 3:66471.2 4:10.25 
0.06965848816962539 1:115.25 2:170 3:66503.1 4:8.5 
0.06832088440642931 1:110.375 2:170 3:87638.5 4:10.5 
0.05466943819354697 1:90.5 2:169 3:66541.6 4:10 
0.05392285273008446 1:85.25 2:170 3:66553.2 4:10 
0.06951259523359693 1:111.875 2:170 3:93337.4 4:11 
0.06959579637786273 1:105.125 2:170 3:93445 4:12.25 
0.06559639924067862 1:85.25 2:170 3:66578.8 4:9.75 
0.06594955961373988 1:100.25 2:170 3:66590.9 4:9.375 
0.06928600676919125 1:126.875 2:170 3:66609.8 4:9.125 
0.06871600895424118 1:85.25 2:170 3:66623.8 4:9.25 
0.0680639400797329 1:105.5 2:169 3:66636 4:9.25 
0.06877095185552738 1:92 2:170 3:66656.4 4:9.375 
0.06911193112780561 1:105.125 2:170 3:87765.6 4:10.125 
0.06906291354882432 1:84.5 2:173 3:87857 4:11.875 
0.05661717954920481 1:85.25 2:173 3:66721.6 4:9.5 
0.05123963290617402 1:97.625 2:173 3:66715.2 4:9.25 
0.0635531127211465 1:105.125 2:173 3:66731 4:9.25 
0.06915862433083658 1:92 2:173 3:93494 4:11.25 
0.06955658192357794 1:90.5 2:173 3:87894.9 4:11.125 
0.06938888325874881 1:111.875 2:174 3:87854.1 4:10.875 
0.06951417539394505 1:85.25 2:173 3:93554.2 4:11.375 
0.06964092478750539 1:85.25 2:173 3:66777.5 4:9.375 
0.06898914205703638 1:111.875 2:173 3:66795.5 4:9.25 
0.05450430546168038 1:104.375 2:173 3:66822 4:9.625 
0.05431648041675025 1:114.5 2:173 3:66829.8 4:9.25 
0.0691318284703748 1:90.5 2:173 3:66850.1 4:9.75 
0.06831462932468568 1:110.375 2:173 3:66866.5 4:9.125 
0.06959579649419861 1:92 2:173 3:93659.8 4:11.125 
0.06949393305205959 1:92 2:173 3:88010.8 4:10.875 
0.06518386151090949 1:120.125 2:173 3:66887.6 4:9.25 
0.05201831788874117 1:112.625 2:173 3:66905.2 4:10.25 
0.05670448574609316 1:99.5 2:173 3:66908.8 4:10 
0.06728702798982428 1:99.5 2:171 3:66937.1 4:9.25 
0.0675963025535663 1:117.875 2:170 3:66948.1 4:9.375 
0.06261767297494064 1:92 2:170 3:66961 4:9.375 
0.06325620720648895 1:77.75 2:170 3:66970.6 4:9.125 
0.06948217303604526 1:84.5 2:170 3:66998.6 4:9.125 
0.06958473236676904 1:105.125 2:170 3:93713.6 4:11 
0.06944746261397231 1:112.25 2:169 3:88246.8 4:11 
0.06938410564225392 1:85.25 2:170 3:88240.1 4:10.25 
0.06934095718742855 1:126.143 2:169 3:76628 4:10.2857 
0.06938212542346484 1:9.23077 2:158 3:17198.5 4:6.15385 
0.04620128097271592 1:21.4615 2:158 3:16944.2 4:6.15385 
0.0005558129697709429 1:12.2308 2:158 3:16761.4 4:5.92308 
0.02310143652624244 2:157 3:16795.8 4:6.23077 
0.06941456892850795 1:4.61538 2:157 3:17050.6 4:6.92308 
0.03605329576046397 1:26.0769 2:157 3:16869.5 4:6.30769 
0.04476532453365922 1:12.4615 2:157 3:16945.5 4:6.23077 
0.03505814081596532 1:21.4615 2:157 3:16828.6 4:6 
0.005760531687424384 1:12.2308 2:157 3:16735 4:6.07692 
0.02860487831448457 1:16.8462 2:157 3:16865.1 4:6.30769 
0.05018388592083153 2:157 3:16882.6 4:6.15385 
0.02578776980495305 1:12.2308 2:157 3:16670.4 4:5.92308 
0.05366224362084598 1:12.2308 2:158 3:16921 4:6.15385 
0.06925912761836683 2:157 3:17138.5 4:5.69231 
0.06649814818593358 1:38.5385 2:158 3:16677.9 4:6.38462 
0.02552602869352585 1:4.61538 2:161 3:16717.2 4:6.23077 
0.06081239548635148 1:30.9231 2:161 3:16899.5 4:6 
0.02438864243492606 1:12.2308 2:161 3:16714 4:5.76923 
0.04687669043409454 1:4.61538 2:161 3:16869 4:6.46154 
0.01224200328879428 1:12.2308 2:161 3:16690.2 4:6.15385 
0.001386820489871932 1:16.8462 2:161 3:16811.3 4:5.53846 
0.04144706060041591 1:19.3077 2:161 3:16814.2 4:6.15385 
0.04659890355550669 1:16.8462 2:161 3:16847.7 4:5.76923 
0.03218358319208556 1:4.61538 2:157 3:16784.8 4:5.30769 
0.02148811775249701 1:16.8462 2:157 3:16877.3 4:6.30769 
0.05234593320281716 1:12.2308 2:157 3:16898.5 4:6 
0.06940749062957502 1:4.61538 2:157 3:16970.9 4:6.38462 
0.03535567518887938 1:21.4615 2:157 3:16911.3 4:6.15385 
0.04173869228991727 2:157 3:16762.3 4:5.76923 
0.06306984864062047 1:79.6154 2:157 3:16762.2 4:5.53846 
0.06935963938305839 1:103.923 2:157 3:16775 4:5.84615 
0.06745575052136302 1:74 2:157 3:16741.3 4:6.07692 
0.05799568097411012 1:52.8462 2:157 3:16719.9 4:6 
0.06925371432200611 1:60.3077 2:157 3:16920.5 4:5.92308 
0.05956901415449253 1:59.7692 2:158 3:16706.6 4:6.07692 
0.04322538227355699 1:68.8462 2:157 3:16864.8 4:5.61538 
0.06879337057870363 1:104.769 2:157 3:16833.6 4:6.38462 
0.06938397220398466 1:127.615 2:157 3:16822.1 4:5.69231 
0.04422084120447525 1:76.5385 2:157 3:16861.8 4:6.15385 
0.06936529078907511 1:64 2:157 3:16981.7 4:5.92308 
0.06452404347224633 1:64.8462 2:157 3:16773.2 4:5.53846 
0.06323106137383683 1:52.6923 2:157 3:16814.9 4:5.46154 
0.06252802228205895 1:40.4615 2:157 3:16865.8 4:6.23077 
0.06496799038754117 1:55.3077 2:157 3:16796.1 4:5.69231 
0.0285693388918465 1:4.61538 2:157 3:16807.7 4:5.76923 
0.05455237495329512 1:33.9231 2:157 3:16822.6 4:5.76923 
0.04058860981392171 1:16.8462 2:157 3:16791.6 4:5.92308 
0.04642522122065288 2:157 3:16749 4:5.61538 
0.0475228985298493 1:16.8462 2:157 3:16545.7 4:5.15385 
0.02219729414731419 1:12.2308 2:157 3:16883.6 4:6.23077 
0.05802646471917428 2:157 3:16665.8 4:5.53846 
0.06932745154804171 1:16.8462 2:161 3:17016.9 4:6.15385 
0.03632578779957207 1:16.8462 2:161 3:16644.5 4:5.76923 
0.008339774678973635 1:13.8462 2:161 3:16914.6 4:6.07692 
0.04218365291078785 1:12.2308 2:161 3:16632.5 4:5.92308 
0.02097012106509747 1:12.2308 2:161 3:16651.4 4:5.53846 
0.02356830998084255 1:4.61538 2:160 3:16709.8 4:5.46154 
0.02351709238370381 2:160 3:16792.7 4:5.69231 
0.0488319975055119 1:16.8462 2:157 3:16737.6 4:5.46154 
0.06900894729770796 1:37.1538 2:157 3:16630.3 4:5.46154 
0.03865346893821266 1:16.8462 2:157 3:16658.3 4:5.46154 
0.03123622985402654 1:12.2308 2:157 3:16575.5 4:5.46154 
0.0393470108431172 1:4.61538 2:157 3:16696.2 4:5.76923 
0.03463886739581138 1:12.2308 2:157 3:16753.3 4:5.46154 
0.0306141122356749 1:16.8462 2:157 3:16840.5 4:5.69231 
0.05606279130335013 2:157 3:16626.9 4:6.15385 
0.03457359587739138 1:12.2308 2:157 3:16766.9 4:5.38462 
0.008437398865030032 1:16.8462 2:157 3:16688.2 4:5.38462 
0.0268039770902857 1:13.8462 2:157 3:16697.7 4:6 
0.06781054318529683 1:38.5385 2:157 3:16601.6 4:5 
0.01960460277535579 1:12.2308 2:157 3:16804.8 4:5.46154 
0.005763162523047585 1:4.61538 2:158 3:16633.2 4:5.46154 
0.04873094894447932 1:12.2308 2:157 3:16536.5 4:5.61538 
0.0128838991380034 1:12.2308 2:158 3:16683.6 4:5.46154 
0.05383955482975289 1:4.61538 2:157 3:16821.6 4:5.23077 
0.05672927376377618 1:21.4615 2:157 3:16568.5 4:5.53846 
0.06898778999069854 1:16.8462 2:157 3:16511.8 4:5.30769 
0.04620861664955177 1:19.3077 2:157 3:16778.1 4:5.76923 
0.06747260079758734 1:49.1538 2:157 3:16742.1 4:5.61538 
0.03875984042134661 1:20.0769 2:157 3:16679.6 4:5.30769 
0.05897631621357612 2:157 3:16576.5 4:5.38462 
0.06763588970591283 1:16.8462 2:157 3:16601.9 4:5.15385 
0.03546618720521124 1:12.2308 2:157 3:16725.2 4:5.23077 
-1.045372953201901 1:12261.7 2:158 3:652.75 4:2.625 
-0.4848518867074071 1:12261.9 2:158 3:637.375 4:2.75 
-0.01632372620371425 1:12262.1 2:158 3:632.625 4:3 
-0.279938934671474 1:12261.4 2:158 3:634.5 4:3 
-0.6552420374612489 1:12261 2:161 3:652.5 4:3.375 
-0.569191740922272 1:12261.6 2:162 3:641.125 4:2.5 
-0.1927384883649826 1:12262 2:162 3:629.875 4:2.625 
-0.4212523231628325 1:12261.9 2:162 3:625.875 4:3.125 
-0.2820731306818425 1:12261.1 2:158 3:622.875 4:2.5 
-0.2836442175811583 1:12261.1 2:158 3:623.375 4:2.5 
-0.3977961610357487 1:12262 2:158 3:613.75 4:2.25 
-0.131391647014844 1:12261.9 2:162 3:630.75 4:2.875 
-0.08387066880069934 1:12262 2:162 3:614 4:2.5 
-0.2098816248127169 1:12262 2:158 3:603.625 4:2.5 
-0.2670141690002204 1:12261.3 2:158 3:608.5 4:2.25 
-0.481791192027461 1:12261.4 2:162 3:615 4:3.125 
-0.04381931912177794 1:12261.4 2:162 3:595.75 4:2.75 
-0.05069945739939466 1:12261.9 2:162 3:587 4:2.75 
-0.4108040193072861 1:12261 2:162 3:587.625 4:2.5 
-0.2663443431231222 1:12261.3 2:162 3:586.375 4:2.75 
-0.6807014951056245 1:12261.9 2:157 3:593.25 4:2.625 
-0.3780196929902853 1:12261.4 2:157 3:584.875 4:2.25 
-1.280166154402137 1:12261.9 2:158 3:571.875 4:2.625 
-0.7867343696549861 1:12261.4 2:162 3:602.375 4:3.25 
-0.4978835539108414 1:12262 2:162 3:573.875 4:2.625 
