svm_type c_svc
kernel_type rbf
gamma 0.0078125
nr_class 2
total_sv 1200
rho 0.00679269
label 11 13
nr_sv 600 600
SV
0.03125 2:0.01 3:0.93 4:0.1 
0.03125 1:0.01 2:0.01 3:0.84 4:0.11 
0.03125 1:0.01 2:0.01 3:0.72 4:0.11 
0.03125 1:0.01 2:0.01 3:0.72 4:0.11 
0.03125 1:0.01 2:0.01 3:0.78 4:0.11 
0.03125 1:0.01 2:0.01 3:0.88 4:0.11 
0.03125 1:0.01 2:0.01 3:0.67 4:0.11 
0.03125 1:0.01 2:0.01 3:0.67 4:0.1 
0.03125 1:0.01 2:0.01 3:0.67 4:0.11 
0.03125 1:0.01 2:0.01 3:0.67 4:0.11 
0.03125 1:0.01 2:0.01 3:0.67 4:0.1 
0.03125 1:0.01 2:0.01 3:0.67 4:0.1 
0.03125 1:0.01 2:0.01 3:0.88 4:0.11 
0.03125 1:0.01 2:0.01 3:0.67 4:0.1 
0.03125 1:0.01 2:0.01 3:0.67 4:0.1 
0.03125 1:0.01 2:0.01 3:0.67 4:0.1 
0.03125 1:0.01 2:0.01 3:0.88 4:0.11 
0.03125 1:0.01 2:0.01 3:0.67 4:0.11 
0.03125 1:0.01 2:0.01 3:0.88 4:0.11 
0.03125 1:0.01 2:0.01 3:0.88 4:0.11 
0.03125 1:0.01 2:0.01 3:0.67 4:0.1 
0.03125 1:0.01 2:0.01 3:0.67 4:0.09 
0.03125 1:0.01 2:0.01 3:0.67 4:0.09 
0.03125 1:0.01 2:0.01 3:0.88 4:0.11 
0.03125 1:0.01 2:0.01 3:0.67 4:0.1 
0.03125 1:0.01 2:0.01 3:0.67 4:0.1 
0.03125 1:0.01 2:0.01 3:0.94 4:0.12 
0.03125 1:0.01 2:0.01 3:0.88 4:0.12 
0.03125 1:0.01 2:0.01 3:0.88 4:0.11 
0.03125 1:0.01 2:0.01 3:0.89 4:0.11 
0.03125 1:0.01 2:0.01 3:0.67 4:0.09 
0.03125 1:0.01 2:0.01 3:0.67 4:0.1 
0.03125 1:0.01 2:0.01 3:0.67 4:0.1 
0.03125 1:0.01 2:0.01 3:0.88 4:0.11 
0.03125 1:0.01 2:0.01 3:0.67 4:0.1 
0.03125 1:0.01 2:0.01 3:0.67 4:0.1 
0.03125 1:0.01 2:0.01 3:0.94 4:0.11 
0.03125 1:0.01 2:0.01 3:0.88 4:0.11 
0.03125 1:0.02 2:0.01 3:0.89 4:0.11 
0.03125 1:0.02 2:0.01 3:0.89 4:0.1 
0.03125 1:0.01 2:0.01 3:0.67 4:0.1 
0.03125 1:0.01 2:0.01 3:0.67 4:0.09 
0.03125 1:0.01 2:0.01 3:0.67 4:0.1 
0.03125 1:0.01 2:0.01 3:0.89 4:0.11 
0.03125 1:0.01 2:0.01 3:0.67 4:0.1 
0.03125 1:0.01 2:0.01 3:0.67 4:0.1 
0.03125 1:0.01 2:0.01 3:0.67 4:0.09 
0.03125 1:0.01 2:0.01 3:0.89 4:0.11 
0.03125 1:0.01 2:0.01 3:0.67 4:0.1 
0.03125 1:0.01 2:0.01 3:0.67 4:0.09 
0.03125 1:0.01 2:0.01 3:1 4:0.12 
0.03125 1:0.01 2:0.01 3:0.67 4:0.1 
0.03125 1:0.01 2:0.01 3:0.67 4:0.1 
0.03125 1:0.01 2:0.01 3:0.89 4:0.11 
0.03125 1:0.01 2:0.01 3:0.67 4:0.1 
0.03125 1:0.01 2:0.01 3:0.67 4:0.09 
0.03125 1:0.01 2:0.01 3:0.67 4:0.1 
0.03125 1:0.01 2:0.01 3:0.89 4:0.12 
0.03125 2:0.01 3:0.67 4:0.1 
0.03125 1:0.01 2:0.01 3:0.67 4:0.08 
0.03125 1:0.01 2:0.01 3:0.89 4:0.1 
0.03125 1:0.01 2:0.01 3:0.67 4:0.1 
0.03125 1:0.01 2:0.01 3:0.67 4:0.1 
0.03125 1:0.01 2:0.01 3:0.95 4:0.11 
0.03125 1:0.01 2:0.01 3:0.95 4:0.12 
0.03125 1:0.01 2:0.01 3:0.67 4:0.1 
0.03125 1:0.01 2:0.01 3:0.67 4:0.09 
0.03125 1:0.01 2:0.01 3:0.67 4:0.09 
0.03125 1:0.01 2:0.01 3:0.68 4:0.09 
0.03125 1:0.01 2:0.01 3:0.68 4:0.09 
0.03125 1:0.01 2:0.01 3:0.68 4:0.09 
0.03125 1:0.01 2:0.01 3:0.89 4:0.1 
0.03125 1:0.01 2:0.01 3:0.89 4:0.12 
0.03125 1:0.01 2:0.01 3:0.68 4:0.09 
0.03125 1:0.01 2:0.01 3:0.68 4:0.09 
0.03125 1:0.01 2:0.01 3:0.68 4:0.09 
0.03125 1:0.01 2:0.01 3:0.95 4:0.11 
0.03125 1:0.01 2:0.01 3:0.89 4:0.11 
0.03125 1:0.01 2:0.02 3:0.89 4:0.11 
0.03125 1:0.01 2:0.01 3:0.95 4:0.11 
0.03125 1:0.01 2:0.01 3:0.68 4:0.09 
0.03125 1:0.01 2:0.01 3:0.68 4:0.09 
0.03125 1:0.01 2:0.01 3:0.68 4:0.09 
0.03125 1:0.01 2:0.01 3:0.68 4:0.09 
0.03125 1:0.01 2:0.01 3:0.68 4:0.1 
0.03125 1:0.01 2:0.01 3:0.68 4:0.09 
0.03125 1:0.01 2:0.01 3:0.95 4:0.11 
0.03125 1:0.01 2:0.01 3:0.89 4:0.11 
0.03125 1:0.01 2:0.01 3:0.68 4:0.09 
0.03125 1:0.01 2:0.01 3:0.68 4:0.1 
0.03125 1:0.01 2:0.01 3:0.68 4:0.1 
0.03125 1:0.01 2:0.01 3:0.68 4:0.09 
0.03125 1:0.01 2:0.01 3:0.68 4:0.09 
0.03125 1:0.01 2:0.01 3:0.68 4:0.09 
0.03125 1:0.01 2:0.01 3:0.68 4:0.09 
0.03125 1:0.01 2:0.01 3:0.68 4:0.09 
0.03125 1:0.01 2:0.01 3:0.95 4:0.11 
0.03125 1:0.01 2:0.01 3:0.89 4:0.11 
0.03125 1:0.01 2:0.01 3:0.89 4:0.1 
0.03125 1:0.01 2:0.01 3:0.78 4:0.1 
0.03125 3:0.17 4:0.06 
0.03125 3:0.17 4:0.06 
0.03125 3:0.17 4:0.06 
0.03125 3:0.17 4:0.06 
0.03125 3:0.17 4:0.06 
0.03125 3:0.17 4:0.06 
0.03125 3:0.17 4:0.07 
0.03125 3:0.17 4:0.06 
0.03125 3:0.17 4:0.06 
0.03125 3:0.17 4:0.06 
0.03125 3:0.17 4:0.06 
0.03125 3:0.17 4:0.06 
0.03125 3:0.17 4:0.06 
0.03125 3:0.17 4:0.06 
0.03125 3:0.17 4:0.06 
0.03125 3:0.17 4:0.06 
0.03125 3:0.17 4:0.06 
0.03125 3:0.17 4:0.05 
0.03125 3:0.17 4:0.06 
0.03125 3:0.17 4:0.06 
0.03125 2:0.01 3:0.17 4:0.06 
0.03125 2:0.01 3:0.17 4:0.06 
0.03125 2:0.01 3:0.17 4:0.06 
0.03125 2:0.01 3:0.17 4:0.06 
0.03125 2:0.01 3:0.17 4:0.06 
0.03125 2:0.01 3:0.17 4:0.05 
0.03125 2:0.01 3:0.17 4:0.06 
0.03125 2:0.01 3:0.17 4:0.06 
0.03125 2:0.01 3:0.17 4:0.06 
0.03125 3:0.17 4:0.05 
0.03125 3:0.17 4:0.06 
0.03125 3:0.17 4:0.06 
0.03125 3:0.17 4:0.06 
0.03125 3:0.17 4:0.06 
0.03125 3:0.17 4:0.06 
0.03125 3:0.17 4:0.06 
0.03125 1:0.01 3:0.17 4:0.05 
0.03125 1:0.01 3:0.17 4:0.06 
0.03125 1:0.01 3:0.17 4:0.06 
0.03125 3:0.17 4:0.06 
0.03125 3:0.17 4:0.06 
0.03125 3:0.17 4:0.06 
0.03125 3:0.17 4:0.06 
0.03125 1:0.01 3:0.17 4:0.05 
0.03125 1:0.01 3:0.17 4:0.06 
0.03125 1:0.01 3:0.17 4:0.05 
0.03125 1:0.01 3:0.17 4:0.06 
0.03125 1:0.01 3:0.17 4:0.06 
0.03125 1:0.01 3:0.17 4:0.05 
0.03125 3:0.17 4:0.05 
0.03125 3:0.17 4:0.06 
0.03125 3:0.17 4:0.05 
0.03125 3:0.17 4:0.06 
0.03125 3:0.17 4:0.06 
0.03125 3:0.17 4:0.06 
0.03125 3:0.17 4:0.05 
0.03125 3:0.17 4:0.06 
0.03125 3:0.17 4:0.06 
0.03125 3:0.17 4:0.06 
0.03125 3:0.17 4:0.06 
0.03125 3:0.17 4:0.05 
0.03125 3:0.17 4:0.05 
0.03125 3:0.17 4:0.05 
0.03125 3:0.17 4:0.06 
0.03125 3:0.17 4:0.05 
0.03125 2:0.01 3:0.17 4:0.06 
0.03125 2:0.01 3:0.17 4:0.06 
0.03125 2:0.01 3:0.17 4:0.06 
0.03125 2:0.01 3:0.17 4:0.06 
0.03125 2:0.01 3:0.17 4:0.05 
0.03125 2:0.01 3:0.17 4:0.05 
0.03125 2:0.01 3:0.17 4:0.06 
0.03125 2:0.01 3:0.17 4:0.05 
0.03125 2:0.01 3:0.17 4:0.05 
0.03125 3:0.17 4:0.05 
0.03125 3:0.17 4:0.05 
0.03125 3:0.17 4:0.05 
0.03125 3:0.17 4:0.05 
0.03125 3:0.17 4:0.05 
0.03125 3:0.17 4:0.06 
0.03125 3:0.17 4:0.05 
0.03125 3:0.17 4:0.05 
0.03125 3:0.17 4:0.06 
0.03125 3:0.17 4:0.05 
0.03125 3:0.17 4:0.05 
0.03125 3:0.17 4:0.06 
0.03125 3:0.17 4:0.05 
0.03125 3:0.17 4:0.05 
0.03125 3:0.17 4:0.05 
0.03125 3:0.17 4:0.05 
0.03125 3:0.17 4:0.05 
0.03125 3:0.17 4:0.05 
0.03125 3:0.17 4:0.05 
0.03125 3:0.17 4:0.05 
0.03125 3:0.17 4:0.06 
0.03125 3:0.17 4:0.05 
0.03125 3:0.17 4:0.05 
0.03125 3:0.17 4:0.05 
0.03125 3:0.17 4:0.05 
0.03125 3:0.17 4:0.05 
0.03125 2:0.01 3:0.79 4:0.02 
0.03125 2:0.01 3:0.78 4:0.01 
0.03125 2:0.01 3:0.71 4:0.02 
0.03125 2:0.01 3:0.79 4:0.01 
0.03125 2:0.01 3:0.69 4:0.01 
0.03125 2:0.01 3:0.81 4:0.02 
0.03125 2:0.01 3:0.68 4:0.01 
0.03125 2:0.01 3:0.76 4:0.01 
0.03125 2:0.01 3:0.78 4:0.01 
0.03125 2:0.01 3:0.75 4:0.02 
0.03125 2:0.01 3:0.68 4:0.01 
0.03125 2:0.01 3:0.71 4:0.01 
0.03125 2:0.01 3:0.73 4:0.02 
0.03125 2:0.01 3:0.7 4:0.01 
0.03125 2:0.01 3:0.81 4:0.01 
0.03125 2:0.01 3:0.75 4:0.02 
0.03125 2:0.01 3:0.71 4:0.02 
0.03125 2:0.01 3:0.77 4:0.02 
0.03125 2:0.01 3:0.72 4:0.02 
0.03125 2:0.01 3:0.69 4:0.01 
0.03125 2:0.01 3:0.72 4:0.02 
0.03125 2:0.01 3:0.69 4:0.02 
0.03125 2:0.01 3:0.75 4:0.01 
0.03125 2:0.01 3:0.69 4:0.01 
0.03125 2:0.01 3:0.7 4:0.02 
0.03125 2:0.01 3:0.74 4:0.02 
0.03125 1:0.01 2:0.01 3:0.74 4:0.02 
0.03125 2:0.01 3:0.69 4:0.01 
0.03125 2:0.01 3:0.71 4:0.01 
0.03125 2:0.01 3:0.77 4:0.01 
0.03125 2:0.01 3:0.69 4:0.02 
0.03125 2:0.01 3:0.7 4:0.02 
0.03125 2:0.01 3:0.78 4:0.01 
0.03125 2:0.01 3:0.75 4:0.01 
0.03125 2:0.01 3:0.75 4:0.02 
0.03125 2:0.01 3:0.71 4:0.02 
0.03125 2:0.01 3:0.76 4:0.01 
0.03125 2:0.01 3:0.71 4:0.02 
0.03125 2:0.01 3:0.68 4:0.01 
0.03125 2:0.01 3:0.69 4:0.01 
0.03125 2:0.01 3:0.74 4:0.01 
0.03125 2:0.01 3:0.72 4:0.01 
0.03125 2:0.01 3:0.77 4:0.02 
0.03125 2:0.01 3:0.7 4:0.01 
0.03125 2:0.01 3:0.71 4:0.01 
0.03125 2:0.01 3:0.77 4:0.01 
0.03125 2:0.01 3:0.68 4:0.01 
0.03125 2:0.01 3:0.76 4:0.01 
0.03125 2:0.01 3:0.68 4:0.02 
0.03125 2:0.01 3:0.72 4:0.02 
0.03125 2:0.01 3:0.79 4:0.01 
0.03125 2:0.01 3:0.76 4:0.01 
0.03125 2:0.01 3:0.7 4:0.02 
0.03125 2:0.01 3:0.7 4:0.02 
0.03125 2:0.01 3:0.69 4:0.02 
0.03125 2:0.01 3:0.69 4:0.01 
0.03125 2:0.01 3:0.66 4:0.02 
0.03125 2:0.01 3:0.72 4:0.01 
0.03125 2:0.01 3:0.7 4:0.01 
0.03125 2:0.01 3:0.69 4:0.01 
0.03125 2:0.01 3:0.69 4:0.02 
0.03125 2:0.01 3:0.71 4:0.02 
0.03125 2:0.01 3:0.77 4:0.02 
0.03125 2:0.01 3:0.7 4:0.02 
0.03125 2:0.01 3:0.69 4:0.02 
0.03125 2:0.01 3:0.75 4:0.02 
0.03125 2:0.01 3:0.7 4:0.02 
0.03125 2:0.01 3:0.71 4:0.02 
0.03125 2:0.01 3:0.68 4:0.02 
0.03125 2:0.01 3:0.62 4:0.01 
0.03125 2:0.01 3:0.69 4:0.01 
0.03125 2:0.01 3:0.68 4:0.02 
0.03125 2:0.01 3:0.69 4:0.02 
0.03125 2:0.01 3:0.69 4:0.02 
0.03125 2:0.01 3:0.77 4:0.01 
0.03125 2:0.01 3:0.73 4:0.01 
0.03125 2:0.01 3:0.72 4:0.01 
0.03125 2:0.01 3:0.82 4:0.02 
0.03125 2:0.01 3:0.72 4:0.02 
0.03125 2:0.01 3:0.7 4:0.02 
0.03125 2:0.01 3:0.76 4:0.01 
0.03125 2:0.01 3:0.72 4:0.02 
0.03125 2:0.01 3:0.76 4:0.01 
0.03125 2:0.01 3:0.7 4:0.01 
0.03125 2:0.01 3:0.81 4:0.01 
0.03125 2:0.01 3:0.71 4:0.02 
0.03125 2:0.01 3:0.73 4:0.01 
0.03125 2:0.01 3:0.78 4:0.02 
0.03125 2:0.01 3:0.73 4:0.02 
0.03125 2:0.01 3:0.68 4:0.01 
0.03125 2:0.01 3:0.69 4:0.01 
0.03125 2:0.01 3:0.68 4:0.01 
0.03125 2:0.01 3:0.71 4:0.01 
0.03125 2:0.01 3:0.69 4:0.01 
0.03125 2:0.01 3:0.72 4:0.02 
0.03125 2:0.01 3:0.7 4:0.01 
0.03125 2:0.01 3:0.67 4:0.02 
0.03125 2:0.01 3:0.69 4:0.01 
0.03125 2:0.01 3:0.67 4:0.02 
0.03125 2:0.01 3:0.77 4:0.01 
0.03125 2:0.01 3:0.73 4:0.01 
0.03125 2:0.01 3:0.72 4:0.02 
0.03125 2:0.01 3:0.68 4:0.02 
0.03125 2:0.01 3:0.76 4:0.01 
0.03125 2:0.01 3:0.75 4:0.01 
0.03125 2:0.01 3:0.73 4:0.02 
0.03125 2:0.01 3:0.73 4:0.02 
0.03125 2:0.01 3:0.77 4:0.02 
0.03125 2:0.01 3:0.7 4:0.01 
0.03125 2:0.01 3:0.75 4:0.01 
0.03125 2:0.01 3:0.71 4:0.02 
0.03125 2:0.01 3:0.76 4:0.02 
0.03125 2:0.01 3:0.71 4:0.02 
0.03125 2:0.01 3:0.66 4:0.02 
0.03125 2:0.01 3:0.74 4:0.01 
0.03125 2:0.01 3:0.73 4:0.01 
0.03125 2:0.01 3:0.74 4:0.01 
0.03125 2:0.01 3:0.71 4:0.01 
0.03125 2:0.01 3:0.67 4:0.02 
0.03125 2:0.01 3:0.69 4:0.02 
0.03125 2:0.01 3:0.76 4:0.01 
0.03125 2:0.01 3:0.68 4:0.01 
0.03125 2:0.01 3:0.68 4:0.01 
0.03125 2:0.01 3:0.7 4:0.01 
0.03125 2:0.01 3:0.69 4:0.01 
0.03125 2:0.01 3:0.77 4:0.01 
0.03125 2:0.01 3:0.7 4:0.01 
0.03125 2:0.01 3:0.7 4:0.01 
0.03125 2:0.01 3:0.72 4:0.01 
0.03125 2:0.01 3:0.69 4:0.02 
0.03125 2:0.01 3:0.71 4:0.01 
0.03125 2:0.01 3:0.71 4:0.01 
0.03125 2:0.01 3:0.68 4:0.02 
0.03125 2:0.01 3:0.73 4:0.02 
0.03125 2:0.01 3:0.77 4:0.01 
0.03125 2:0.01 3:0.74 4:0.01 
0.03125 2:0.01 3:0.7 4:0.02 
0.03125 2:0.01 3:0.79 4:0.02 
0.03125 2:0.01 3:0.69 4:0.01 
0.03125 2:0.01 3:0.7 4:0.02 
0.03125 2:0.01 3:0.68 4:0.02 
0.03125 2:0.01 3:0.69 4:0.02 
0.03125 2:0.01 3:0.73 4:0.01 
0.03125 2:0.01 3:0.7 4:0.02 
0.03125 2:0.01 3:0.78 4:0.02 
0.03125 2:0.01 3:0.69 4:0.01 
0.03125 2:0.01 3:0.82 4:0.02 
0.03125 2:0.01 3:0.75 4:0.01 
0.03125 2:0.01 3:0.73 4:0.01 
0.03125 2:0.01 3:0.74 4:0.02 
0.03125 2:0.01 3:0.73 4:0.01 
0.03125 2:0.01 3:0.79 4:0.02 
0.03125 2:0.01 3:0.72 4:0.02 
0.03125 2:0.01 3:0.8 4:0.02 
0.03125 2:0.01 3:0.69 4:0.01 
0.03125 2:0.01 3:0.67 4:0.01 
0.03125 2:0.01 3:0.73 4:0.02 
0.03125 2:0.01 3:0.71 4:0.02 
0.03125 2:0.01 3:0.79 4:0.01 
0.03125 2:0.01 3:0.76 4:0.01 
0.03125 2:0.01 3:0.7 4:0.01 
0.03125 2:0.01 3:0.69 4:0.01 
0.03125 2:0.01 3:0.71 4:0.02 
0.03125 2:0.01 3:0.72 4:0.01 
0.03125 2:0.01 3:0.71 4:0.02 
0.03125 2:0.01 3:0.69 4:0.01 
0.03125 2:0.01 3:0.73 4:0.01 
0.03125 2:0.01 3:0.71 4:0.01 
0.03125 2:0.01 3:0.72 4:0.02 
0.03125 2:0.01 3:0.74 4:0.02 
0.03125 2:0.01 3:0.69 4:0.01 
0.03125 2:0.01 3:0.69 4:0.01 
0.03125 2:0.01 3:0.78 4:0.02 
0.03125 2:0.01 3:0.73 4:0.02 
0.03125 2:0.01 3:0.75 4:0.02 
0.03125 2:0.01 3:0.78 4:0.02 
0.03125 2:0.01 3:0.75 4:0.02 
0.03125 2:0.01 3:0.74 4:0.02 
0.03125 2:0.01 3:0.77 4:0.01 
0.03125 2:0.01 3:0.77 4:0.01 
0.03125 2:0.01 3:0.72 4:0.01 
0.03125 2:0.01 3:0.75 4:0.01 
0.03125 2:0.01 3:0.78 4:0.02 
0.03125 2:0.01 3:0.76 4:0.02 
0.03125 2:0.01 3:0.71 4:0.01 
0.03125 2:0.01 3:0.71 4:0.01 
0.03125 2:0.01 3:0.71 4:0.01 
0.03125 2:0.01 3:0.69 4:0.01 
0.03125 2:0.01 3:0.82 4:0.01 
0.03125 2:0.01 3:0.77 4:0.01 
0.03125 2:0.01 3:0.72 4:0.01 
0.03125 2:0.01 3:0.71 4:0.01 
0.03125 2:0.01 3:0.76 4:0.01 
0.03125 2:0.01 3:0.76 4:0.02 
0.03125 2:0.01 3:0.69 4:0.01 
0.03125 2:0.01 3:0.76 4:0.02 
0.03125 2:0.01 3:0.67 4:0.01 
0.03125 2:0.01 3:0.77 4:0.01 
0.03125 2:0.01 3:0.72 4:0.01 
0.03125 2:0.01 3:0.75 4:0.02 
0.03125 2:0.01 3:0.67 4:0.02 
0.03125 2:0.01 3:0.7 4:0.02 
0.03125 2:0.01 3:0.71 4:0.02 
0.03125 2:0.01 3:0.78 4:0.01 
0.03125 1:0.04 2:0.01 3:0.7 4:0.02 
0.03125 2:0.01 3:0.65 4:0.01 
0.03125 2:0.01 3:0.68 4:0.01 
0.03125 2:0.01 3:0.69 4:0.01 
0.03125 2:0.01 3:0.73 4:0.02 
0.03125 2:0.01 3:0.69 4:0.02 
0.03125 2:0.01 3:0.68 4:0.01 
0.03125 2:0.01 3:0.68 4:0.02 
0.03125 2:0.01 3:0.8 4:0.01 
0.03125 2:0.01 3:0.82 4:0.01 
0.03125 2:0.01 3:0.72 4:0.02 
0.03125 2:0.01 3:0.73 4:0.02 
0.03125 2:0.01 3:0.72 4:0.02 
0.03125 2:0.01 3:0.7 4:0.01 
0.03125 2:0.01 3:0.66 4:0.02 
0.03125 2:0.01 3:0.68 4:0.02 
0.03125 2:0.01 3:0.66 4:0.02 
0.03125 2:0.01 3:0.68 4:0.01 
0.03125 2:0.01 3:0.78 4:0.02 
0.03125 2:0.01 3:0.73 4:0.02 
0.03125 2:0.01 3:0.71 4:0.02 
0.03125 2:0.01 3:0.71 4:0.01 
0.03125 2:0.01 3:0.79 4:0.01 
0.03125 2:0.01 3:0.73 4:0.01 
0.03125 2:0.01 3:0.73 4:0.01 
0.03125 2:0.01 3:0.74 4:0.01 
0.03125 2:0.01 3:0.78 4:0.02 
0.03125 2:0.01 3:0.7 4:0.01 
0.03125 2:0.01 3:0.7 4:0.02 
0.03125 2:0.01 3:0.72 4:0.02 
0.03125 2:0.01 3:0.72 4:0.01 
0.03125 2:0.01 3:0.79 4:0.01 
0.03125 2:0.01 3:0.81 4:0.01 
0.03125 2:0.01 3:0.69 4:0.02 
0.03125 2:0.01 3:0.76 4:0.02 
0.03125 2:0.01 3:0.76 4:0.01 
0.03125 2:0.01 3:0.68 4:0.01 
0.03125 2:0.01 3:0.73 4:0.02 
0.03125 2:0.01 3:0.71 4:0.01 
0.03125 2:0.01 3:0.71 4:0.02 
0.03125 2:0.01 3:0.71 4:0.02 
0.03125 2:0.01 3:0.74 4:0.01 
0.03125 2:0.01 3:0.74 4:0.02 
0.03125 2:0.01 3:0.69 4:0.01 
0.03125 2:0.01 3:0.82 4:0.01 
0.03125 2:0.01 3:0.71 4:0.01 
0.03125 2:0.01 3:0.75 4:0.02 
0.03125 2:0.01 3:0.77 4:0.01 
0.03125 2:0.01 3:0.71 4:0.01 
0.03125 2:0.01 3:0.78 4:0.02 
0.03125 2:0.01 3:0.74 4:0.01 
0.03125 2:0.01 3:0.73 4:0.02 
0.03125 2:0.01 3:0.68 4:0.02 
0.03125 2:0.01 3:0.73 4:0.01 
0.03125 1:0.01 2:0.01 3:0.73 4:0.01 
0.03125 2:0.01 3:0.69 4:0.01 
0.03125 2:0.01 3:0.72 4:0.01 
0.03125 2:0.01 3:0.71 4:0.01 
0.03125 2:0.01 3:0.79 4:0.01 
0.03125 2:0.01 3:0.72 4:0.02 
0.03125 2:0.01 3:0.74 4:0.02 
0.03125 2:0.01 3:0.69 4:0.01 
0.03125 2:0.01 3:0.69 4:0.01 
0.03125 2:0.01 3:0.82 4:0.02 
0.03125 2:0.01 3:0.72 4:0.01 
0.03125 2:0.01 3:0.76 4:0.01 
0.03125 2:0.01 3:0.76 4:0.01 
0.03125 2:0.01 3:0.69 4:0.02 
0.03125 2:0.01 3:0.65 4:0.02 
0.03125 2:0.01 3:0.66 4:0.02 
0.03125 2:0.01 3:0.8 4:0.01 
0.03125 2:0.01 3:0.8 4:0.01 
0.03125 2:0.01 3:0.7 4:0.01 
0.03125 1:0.01 2:0.01 3:0.75 4:0.01 
0.03125 2:0.01 3:0.77 4:0.01 
0.03125 2:0.01 3:0.75 4:0.01 
0.03125 2:0.01 3:0.79 4:0.01 
0.03125 2:0.01 3:0.76 4:0.01 
0.03125 2:0.01 3:0.7 4:0.01 
0.03125 2:0.01 3:0.7 4:0.02 
0.03125 2:0.01 3:0.73 4:0.01 
0.03125 2:0.01 3:0.74 4:0.01 
0.03125 2:0.01 3:0.72 4:0.01 
0.03125 2:0.01 3:0.72 4:0.01 
0.03125 2:0.01 3:0.68 4:0.02 
0.03125 2:0.01 3:0.8 4:0.02 
0.03125 2:0.01 3:0.69 4:0.01 
0.03125 2:0.01 3:0.67 4:0.01 
0.03125 2:0.01 3:0.75 4:0.02 
0.03125 2:0.01 3:0.81 4:0.01 
0.03125 2:0.01 3:0.69 4:0.01 
0.03125 2:0.01 3:0.71 4:0.02 
0.03125 2:0.01 3:0.76 4:0.01 
0.03125 2:0.01 3:0.76 4:0.01 
0.03125 2:0.01 3:0.7 4:0.02 
0.03125 2:0.01 3:0.71 4:0.01 
0.03125 1:0.01 2:0.01 3:0.68 4:0.02 
0.03125 2:0.01 3:0.68 4:0.02 
0.03125 1:0.01 2:0.01 3:0.69 4:0.01 
0.03125 1:0.01 2:0.01 3:0.76 4:0.01 
0.03125 2:0.01 3:0.68 4:0.01 
0.03125 1:0.01 2:0.01 3:0.73 4:0.02 
0.03125 1:0.01 2:0.01 3:0.69 4:0.02 
0.03125 1:0.01 2:0.01 3:0.71 4:0.01 
0.03125 2:0.01 3:0.71 4:0.01 
0.03125 1:0.01 2:0.01 3:0.77 4:0.02 
0.03125 2:0.01 3:0.7 4:0.01 
0.03125 1:0.01 2:0.01 3:0.71 4:0.02 
0.03125 2:0.01 3:0.7 4:0.01 
0.03125 1:0.01 2:0.01 3:0.78 4:0.02 
0.03125 1:0.01 2:0.01 3:0.71 4:0.02 
0.03125 1:0.01 2:0.01 3:0.75 4:0.01 
0.03125 2:0.01 3:0.73 4:0.02 
0.03125 2:0.01 3:0.72 4:0.02 
0.03125 2:0.01 3:0.78 4:0.01 
0.03125 2:0.01 3:0.74 4:0.02 
0.03125 1:0.01 2:0.01 3:0.74 4:0.02 
0.03125 2:0.01 3:0.72 4:0.01 
0.03125 1:0.01 2:0.01 3:0.71 4:0.01 
0.03125 1:0.01 2:0.01 3:0.78 4:0.01 
0.03125 1:0.01 2:0.01 3:0.7 4:0.01 
0.03125 1:0.01 2:0.01 3:0.68 4:0.01 
0.03125 2:0.01 3:0.72 4:0.01 
0.03125 2:0.01 3:0.73 4:0.01 
0.03125 2:0.01 3:0.74 4:0.01 
0.03125 2:0.01 3:0.71 4:0.01 
0.03125 1:0.03 2:0.01 3:0.8 4:0.01 
0.03125 2:0.01 3:0.7 4:0.01 
0.03125 2:0.01 3:0.75 4:0.01 
0.03125 2:0.01 3:0.71 4:0.02 
0.03125 2:0.01 3:0.8 4:0.01 
0.03125 1:0.01 2:0.01 3:0.73 4:0.01 
0.03125 1:0.01 2:0.01 3:0.68 4:0.02 
0.03125 2:0.01 3:0.81 4:0.01 
0.03125 2:0.01 3:0.68 4:0.01 
0.03125 2:0.01 3:0.68 4:0.01 
0.03125 2:0.01 3:0.72 4:0.01 
0.03125 2:0.01 3:0.72 4:0.02 
0.03125 2:0.01 3:0.72 4:0.01 
0.03125 2:0.01 3:0.82 4:0.01 
0.03125 2:0.01 3:0.7 4:0.01 
0.03125 2:0.01 3:0.69 4:0.02 
0.03125 2:0.01 3:0.74 4:0.01 
0.03125 2:0.01 3:0.66 4:0.01 
0.03125 2:0.01 3:0.71 4:0.01 
0.03125 2:0.01 3:0.72 4:0.01 
0.03125 2:0.01 3:0.68 4:0.01 
0.03125 2:0.01 3:0.67 4:0.01 
0.03125 2:0.01 3:0.73 4:0.01 
0.03125 1:0.01 2:0.01 3:0.76 4:0.01 
0.03125 1:0.01 2:0.01 3:0.71 4:0.02 
0.03125 2:0.01 3:0.68 4:0.01 
0.03125 2:0.01 3:0.77 4:0.01 
0.03125 2:0.01 3:0.71 4:0.02 
0.03125 2:0.01 3:0.69 4:0.02 
0.03125 2:0.01 3:0.69 4:0.01 
0.03125 2:0.01 3:0.7 4:0.02 
0.03125 2:0.01 3:0.69 4:0.02 
0.03125 2:0.01 3:0.71 4:0.01 
0.03125 2:0.01 3:0.72 4:0.01 
0.03125 2:0.01 3:0.76 4:0.01 
0.03125 2:0.01 3:0.72 4:0.01 
0.03125 2:0.01 3:0.71 4:0.01 
0.03125 2:0.01 3:0.78 4:0.01 
0.03125 2:0.01 3:0.68 4:0.01 
0.03125 2:0.01 3:0.8 4:0.01 
0.03125 2:0.01 3:0.63 4:0.01 
0.03125 2:0.01 3:0.69 4:0.02 
0.03125 2:0.01 3:0.69 4:0.01 
0.03125 2:0.01 3:0.67 4:0.01 
0.03125 2:0.01 3:0.71 4:0.01 
0.03125 2:0.01 3:0.75 4:0.01 
0.03125 2:0.01 3:0.73 4:0.01 
0.03125 2:0.01 3:0.69 4:0.01 
0.03125 2:0.01 3:0.79 4:0.01 
0.03125 2:0.01 3:0.7 4:0.01 
0.03125 2:0.01 3:0.71 4:0.01 
0.03125 2:0.01 3:0.7 4:0.01 
0.03125 2:0.01 3:0.71 4:0.01 
0.03125 2:0.01 3:0.72 4:0.01 
0.03125 2:0.01 3:0.68 4:0.01 
0.03125 2:0.01 3:0.72 4:0.02 
0.03125 2:0.01 3:0.69 4:0.01 
0.03125 2:0.01 3:0.81 4:0.02 
0.03125 2:0.01 3:0.7 4:0.01 
0.03125 2:0.01 3:0.7 4:0.02 
0.03125 2:0.01 3:0.73 4:0.01 
0.03125 2:0.01 3:0.73 4:0.02 
0.03125 2:0.01 3:0.74 4:0.01 
0.03125 2:0.01 3:0.79 4:0.02 
0.03125 2:0.01 3:0.69 4:0.01 
0.03125 2:0.01 3:0.72 4:0.01 
0.03125 1:0.01 2:0.01 3:0.74 4:0.01 
0.03125 1:0.01 2:0.01 3:0.72 4:0.01 
0.03125 2:0.01 3:0.81 4:0.01 
0.03125 2:0.01 3:0.74 4:0.02 
-0.03125 1:0.76 4:0.02 
-0.03125 1:0.76 4:0.02 
-0.03125 1:0.76 4:0.02 
-0.03125 1:0.76 4:0.02 
-0.03125 1:0.76 4:0.02 
-0.03125 1:0.76 4:0.02 
-0.03125 1:0.76 4:0.02 
-0.03125 1:0.76 4:0.02 
-0.03125 1:0.76 4:0.02 
-0.03125 1:0.77 4:0.02 
-0.03125 1:0.76 4:0.02 
-0.03125 1:0.76 4:0.02 
-0.03125 1:0.76 4:0.02 
-0.03125 1:0.76 4:0.02 
-0.03125 1:0.76 4:0.02 
-0.03125 1:0.76 4:0.02 
-0.03125 1:0.76 4:0.02 
-0.03125 1:0.76 4:0.02 
-0.03125 1:0.76 4:0.02 
-0.03125 1:0.76 4:0.02 
-0.03125 1:0.77 4:0.02 
-0.03125 1:0.76 4:0.02 
-0.03125 1:0.76 4:0.02 
-0.03125 1:0.76 4:0.02 
-0.03125 1:0.76 4:0.02 
-0.03125 1:0.76 4:0.02 
-0.03125 1:0.76 4:0.02 
-0.03125 1:0.76 4:0.02 
-0.03125 1:0.76 4:0.02 
-0.03125 1:0.76 4:0.02 
-0.03125 1:0.77 4:0.02 
-0.03125 1:0.76 4:0.02 
-0.03125 1:0.76 4:0.02 
-0.03125 1:0.76 4:0.02 
-0.03125 1:0.76 4:0.02 
-0.03125 1:0.76 4:0.02 
-0.03125 1:0.76 4:0.02 
-0.03125 1:0.76 4:0.02 
-0.03125 1:0.77 4:0.02 
-0.03125 1:0.76 4:0.02 
-0.03125 1:0.76 4:0.02 
-0.03125 1:0.76 4:0.02 
-0.03125 1:0.76 4:0.02 
-0.03125 1:0.76 4:0.02 
-0.03125 1:0.76 4:0.02 
-0.03125 1:0.76 4:0.03 
-0.03125 1:0.76 4:0.02 
-0.03125 1:0.76 4:0.02 
-0.03125 1:0.76 4:0.02 
-0.03125 1:0.76 4:0.02 
-0.03125 1:0.76 4:0.02 
-0.03125 1:0.76 4:0.02 
-0.03125 1:0.76 4:0.02 
-0.03125 1:0.76 4:0.02 
-0.03125 1:0.76 4:0.02 
-0.03125 1:0.76 4:0.02 
-0.03125 1:0.76 4:0.02 
-0.03125 1:0.76 4:0.02 
-0.03125 1:0.76 4:0.02 
-0.03125 1:0.76 4:0.02 
-0.03125 1:0.76 4:0.02 
-0.03125 1:0.76 4:0.02 
-0.03125 1:0.76 4:0.02 
-0.03125 1:0.76 4:0.02 
-0.03125 1:0.76 4:0.02 
-0.03125 1:0.76 4:0.02 
-0.03125 1:0.76 4:0.02 
-0.03125 1:0.76 4:0.02 
-0.03125 1:0.77 4:0.02 
-0.03125 1:0.76 4:0.02 
-0.03125 1:0.76 4:0.02 
-0.03125 1:0.76 4:0.02 
-0.03125 1:0.76 4:0.02 
-0.03125 1:0.76 4:0.02 
-0.03125 1:0.76 4:0.02 
-0.03125 1:0.76 4:0.02 
-0.03125 1:0.76 4:0.02 
-0.03125 1:0.76 4:0.02 
-0.03125 1:0.77 4:0.02 
-0.03125 1:0.76 4:0.02 
-0.03125 1:0.76 4:0.02 
-0.03125 1:0.76 4:0.02 
-0.03125 1:0.76 4:0.02 
-0.03125 1:0.76 4:0.02 
-0.03125 1:0.76 4:0.02 
-0.03125 1:0.76 4:0.02 
-0.03125 1:0.76 4:0.02 
-0.03125 1:0.76 4:0.02 
-0.03125 1:0.76 4:0.02 
-0.03125 1:0.76 4:0.02 
-0.03125 1:0.76 4:0.02 
-0.03125 1:0.76 4:0.02 
-0.03125 1:0.76 4:0.02 
-0.03125 1:0.76 4:0.02 
-0.03125 1:0.76 4:0.02 
-0.03125 1:0.76 4:0.02 
-0.03125 1:0.76 4:0.02 
-0.03125 1:0.76 4:0.02 
-0.03125 1:0.76 4:0.02 
-0.03125 1:0.76 4:0.02 
-0.03125 1:0.76 4:0.02 
-0.03125 1:0.76 4:0.02 
-0.03125 1:0.76 4:0.02 
-0.03125 1:0.76 4:0.02 
-0.03125 1:0.76 4:0.02 
-0.03125 1:0.76 4:0.02 
-0.03125 1:0.76 4:0.02 
-0.03125 1:0.76 4:0.02 
-0.03125 1:0.76 4:0.02 
-0.03125 1:0.76 4:0.02 
-0.03125 1:0.77 4:0.02 
-0.03125 1:0.76 4:0.02 
-0.03125 1:0.76 4:0.02 
-0.03125 1:0.76 4:0.02 
-0.03125 1:0.76 4:0.02 
-0.03125 1:0.76 4:0.02 
-0.03125 1:0.76 4:0.02 
-0.03125 1:0.76 4:0.02 
-0.03125 1:0.76 4:0.02 
-0.03125 1:0.76 4:0.02 
-0.03125 1:0.76 4:0.02 
-0.03125 1:0.76 4:0.02 
-0.03125 1:0.76 4:0.02 
-0.03125 1:0.76 4:0.02 
-0.03125 1:0.76 4:0.02 
-0.03125 1:0.76 4:0.02 
-0.03125 1:0.76 4:0.02 
-0.03125 1:0.77 4:0.02 
-0.03125 1:0.76 4:0.02 
-0.03125 1:0.76 4:0.02 
-0.03125 1:0.76 4:0.02 
-0.03125 1:0.76 4:0.02 
-0.03125 1:0.76 4:0.02 
-0.03125 1:0.76 4:0.02 
-0.03125 1:0.76 4:0.02 
-0.03125 1:0.76 4:0.02 
-0.03125 1:0.76 4:0.02 
-0.03125 1:0.77 4:0.02 
-0.03125 1:0.76 4:0.02 
-0.03125 1:0.76 4:0.02 
-0.03125 1:0.76 4:0.02 
-0.03125 1:0.76 4:0.02 
-0.03125 1:0.76 4:0.02 
-0.03125 1:0.76 4:0.02 
-0.03125 1:0.76 4:0.02 
-0.03125 1:0.76 4:0.02 
-0.03125 1:0.76 4:0.02 
-0.03125 1:0.77 4:0.02 
-0.03125 1:0.76 4:0.02 
-0.03125 1:0.76 4:0.02 
-0.03125 1:0.76 4:0.02 
-0.03125 1:0.76 4:0.02 
-0.03125 1:0.76 4:0.02 
-0.03125 1:0.76 4:0.02 
-0.03125 1:0.76 4:0.02 
-0.03125 1:0.76 4:0.02 
-0.03125 1:0.76 4:0.02 
-0.03125 1:0.76 4:0.02 
-0.03125 1:0.76 4:0.02 
-0.03125 1:0.77 4:0.02 
-0.03125 1:0.76 4:0.02 
-0.03125 1:0.76 4:0.02 
-0.03125 1:0.76 4:0.02 
-0.03125 1:0.76 4:0.02 
-0.03125 1:0.76 4:0.02 
-0.03125 1:0.77 4:0.02 
-0.03125 1:0.76 4:0.02 
-0.03125 1:0.76 4:0.02 
-0.03125 1:0.76 4:0.02 
-0.03125 1:0.76 4:0.02 
-0.03125 1:0.76 4:0.02 
-0.03125 1:0.76 4:0.02 
-0.03125 1:0.76 4:0.02 
-0.03125 1:0.76 4:0.02 
-0.03125 1:0.76 4:0.02 
-0.03125 1:0.77 4:0.02 
-0.03125 1:0.76 4:0.02 
-0.03125 1:0.76 4:0.02 
-0.03125 1:0.76 4:0.02 
-0.03125 1:0.76 4:0.02 
-0.03125 1:0.76 4:0.02 
-0.03125 1:0.76 4:0.02 
-0.03125 1:0.76 4:0.02 
-0.03125 1:0.76 4:0.02 
-0.03125 1:0.76 4:0.02 
-0.03125 1:0.76 4:0.02 
-0.03125 1:0.76 4:0.02 
-0.03125 1:0.76 4:0.02 
-0.03125 1:0.76 4:0.02 
-0.03125 1:0.76 4:0.02 
-0.03125 1:0.76 4:0.02 
-0.03125 1:0.76 4:0.02 
-0.03125 1:0.76 4:0.02 
-0.03125 1:0.76 4:0.02 
-0.03125 1:0.76 4:0.02 
-0.03125 1:0.76 4:0.02 
-0.03125 1:0.76 4:0.02 
-0.03125 1:0.76 4:0.02 
-0.03125 1:0.76 4:0.02 
-0.03125 1:0.66 4:0.02 
-0.03125 1:1 4:0.02 
-0.03125 1:1 4:0.02 
-0.03125 1:1 4:0.02 
-0.03125 1:1 4:0.01 
-0.03125 1:1 4:0.02 
-0.03125 1:1 4:0.02 
-0.03125 1:1 4:0.02 
-0.03125 1:1 4:0.02 
-0.03125 1:1 4:0.02 
-0.03125 1:1 4:0.02 
-0.03125 1:1 4:0.02 
-0.03125 1:1 4:0.02 
-0.03125 1:1 4:0.02 
-0.03125 1:1 4:0.02 
-0.03125 1:1 4:0.02 
-0.03125 1:1 4:0.01 
-0.03125 1:1 4:0.02 
-0.03125 1:1 4:0.02 
-0.03125 1:1 4:0.02 
-0.03125 1:1 4:0.01 
-0.03125 1:1 4:0.02 
-0.03125 1:1 4:0.02 
-0.03125 1:1 4:0.01 
-0.03125 1:1 4:0.02 
-0.03125 1:1 4:0.02 
-0.03125 1:1 4:0.02 
-0.03125 1:1 4:0.02 
-0.03125 1:1 4:0.02 
-0.03125 1:1 4:0.02 
-0.03125 1:1 4:0.02 
-0.03125 1:1 4:0.02 
-0.03125 1:1 4:0.02 
-0.03125 1:1 4:0.02 
-0.03125 1:1 4:0.02 
-0.03125 1:1 4:0.02 
-0.03125 1:1 4:0.02 
-0.03125 1:1 4:0.02 
-0.03125 1:1 4:0.02 
-0.03125 1:1 4:0.02 
-0.03125 1:1 4:0.02 
-0.03125 1:1 4:0.02 
-0.03125 1:1 4:0.01 
-0.03125 1:1 4:0.02 
-0.03125 1:1 4:0.02 
-0.03125 1:1 4:0.02 
-0.03125 1:1 4:0.02 
-0.03125 1:1 4:0.02 
-0.03125 1:1 4:0.02 
-0.03125 1:1 4:0.02 
-0.03125 1:1 4:0.02 
-0.03125 1:1 4:0.02 
-0.03125 1:1 4:0.02 
-0.03125 1:1 4:0.02 
-0.03125 1:1 4:0.02 
-0.03125 1:1 4:0.02 
-0.03125 1:1 4:0.02 
-0.03125 1:1 4:0.02 
-0.03125 1:1 4:0.02 
-0.03125 1:1 4:0.02 
-0.03125 1:1 4:0.02 
-0.03125 1:1 4:0.02 
-0.03125 1:1 4:0.02 
-0.03125 1:1 4:0.02 
-0.03125 1:1 4:0.02 
-0.03125 1:1 4:0.02 
-0.03125 1:1 4:0.02 
-0.03125 1:1 4:0.02 
-0.03125 1:1 4:0.02 
-0.03125 1:1 4:0.02 
-0.03125 1:1 4:0.02 
-0.03125 1:1 4:0.02 
-0.03125 1:1 4:0.02 
-0.03125 1:1 4:0.02 
-0.03125 1:1 4:0.02 
-0.03125 1:1 4:0.02 
-0.03125 1:1 4:0.02 
-0.03125 1:1 4:0.02 
-0.03125 1:1 4:0.02 
-0.03125 1:1 4:0.02 
-0.03125 1:1 4:0.02 
-0.03125 1:1 4:0.02 
-0.03125 1:1 4:0.02 
-0.03125 1:1 4:0.01 
-0.03125 1:1 4:0.02 
-0.03125 1:1 4:0.02 
-0.03125 1:1 4:0.02 
-0.03125 1:1 4:0.02 
-0.03125 1:1 4:0.02 
-0.03125 1:1 4:0.02 
-0.03125 1:1 4:0.02 
-0.03125 1:1 4:0.02 
-0.03125 1:1 4:0.02 
-0.03125 1:1 4:0.02 
-0.03125 1:1 4:0.02 
-0.03125 1:1 4:0.02 
-0.03125 1:1 4:0.02 
-0.03125 1:1 4:0.02 
-0.03125 1:1 4:0.02 
-0.03125 1:1 4:0.02 
-0.03125 1:1 4:0.02 
-0.03125 1:1 4:0.01 
-0.03125 1:1 4:0.02 
-0.03125 1:1 4:0.02 
-0.03125 1:1 4:0.02 
-0.03125 1:1 4:0.02 
-0.03125 1:1 4:0.02 
-0.03125 1:1 4:0.02 
-0.03125 1:1 4:0.02 
-0.03125 1:1 4:0.02 
-0.03125 1:1 4:0.02 
-0.03125 1:1 4:0.02 
-0.03125 1:1 4:0.01 
-0.03125 1:1 4:0.02 
-0.03125 1:1 4:0.02 
-0.03125 1:1 4:0.02 
-0.03125 1:1 4:0.02 
-0.03125 1:1 4:0.02 
-0.03125 1:1 4:0.02 
-0.03125 1:1 4:0.02 
-0.03125 1:1 4:0.02 
-0.03125 1:1 4:0.02 
-0.03125 1:1 4:0.02 
-0.03125 1:1 4:0.02 
-0.03125 1:1 4:0.02 
-0.03125 1:1 4:0.02 
-0.03125 1:1 4:0.02 
-0.03125 1:1 4:0.02 
-0.03125 1:1 4:0.02 
-0.03125 1:1 4:0.02 
-0.03125 1:1 4:0.02 
-0.03125 1:1 4:0.02 
-0.03125 1:1 4:0.02 
-0.03125 1:1 4:0.02 
-0.03125 1:1 4:0.02 
-0.03125 1:1 4:0.02 
-0.03125 1:1 4:0.02 
-0.03125 1:1 4:0.02 
-0.03125 1:1 4:0.02 
-0.03125 1:1 4:0.02 
-0.03125 1:1 4:0.02 
-0.03125 1:1 4:0.02 
-0.03125 1:1 4:0.02 
-0.03125 1:1 4:0.02 
-0.03125 1:1 4:0.02 
-0.03125 1:1 4:0.02 
-0.03125 1:1 4:0.02 
-0.03125 1:1 4:0.02 
-0.03125 1:1 4:0.02 
-0.03125 1:1 4:0.02 
-0.03125 1:1 4:0.02 
-0.03125 1:1 4:0.02 
-0.03125 1:1 4:0.02 
-0.03125 1:1 4:0.02 
-0.03125 1:1 4:0.02 
-0.03125 1:1 4:0.02 
-0.03125 1:1 4:0.02 
-0.03125 1:1 4:0.02 
-0.03125 1:1 4:0.02 
-0.03125 1:1 4:0.02 
-0.03125 1:1 4:0.02 
-0.03125 1:1 4:0.02 
-0.03125 1:1 4:0.02 
-0.03125 1:1 4:0.02 
-0.03125 1:1 4:0.02 
-0.03125 1:1 4:0.02 
-0.03125 1:1 4:0.02 
-0.03125 1:1 4:0.02 
-0.03125 1:1 4:0.02 
-0.03125 1:1 4:0.02 
-0.03125 1:1 4:0.02 
-0.03125 1:1 4:0.01 
-0.03125 1:1 4:0.02 
-0.03125 1:1 4:0.02 
-0.03125 1:1 4:0.02 
-0.03125 1:1 4:0.02 
-0.03125 1:1 4:0.02 
-0.03125 1:1 4:0.02 
-0.03125 1:1 4:0.02 
-0.03125 1:1 4:0.02 
-0.03125 1:1 4:0.02 
-0.03125 1:1 4:0.02 
-0.03125 1:1 4:0.02 
-0.03125 1:1 4:0.02 
-0.03125 1:1 4:0.02 
-0.03125 1:1 4:0.02 
-0.03125 1:1 4:0.02 
-0.03125 1:1 4:0.02 
-0.03125 1:1 4:0.02 
-0.03125 1:1 4:0.02 
-0.03125 1:1 4:0.02 
-0.03125 1:1 4:0.02 
-0.03125 1:1 4:0.02 
-0.03125 1:1 4:0.02 
-0.03125 1:1 4:0.02 
-0.03125 1:1 4:0.02 
-0.03125 1:1 4:0.02 
-0.03125 1:1 4:0.02 
-0.03125 1:1 4:0.02 
-0.03125 1:1 4:0.02 
-0.03125 1:1 4:0.02 
-0.03125 1:0.71 4:0.02 
-0.03125 1:0.7 4:0.02 
-0.03125 1:0.7 4:0.02 
-0.03125 1:0.7 4:0.03 
-0.03125 1:0.7 4:0.02 
-0.03125 1:0.7 4:0.02 
-0.03125 1:0.7 4:0.03 
-0.03125 1:0.7 4:0.02 
-0.03125 1:0.7 4:0.02 
-0.03125 1:0.7 4:0.02 
-0.03125 1:0.7 4:0.03 
-0.03125 1:0.7 4:0.03 
-0.03125 1:0.71 4:0.02 
-0.03125 1:0.7 4:0.02 
-0.03125 1:0.7 4:0.02 
-0.03125 1:0.7 4:0.02 
-0.03125 1:0.7 4:0.02 
-0.03125 1:0.7 4:0.03 
-0.03125 1:0.7 4:0.02 
-0.03125 1:0.7 4:0.02 
-0.03125 1:0.7 4:0.03 
-0.03125 1:0.7 4:0.02 
-0.03125 1:0.7 4:0.03 
-0.03125 1:0.71 4:0.02 
-0.03125 1:0.7 4:0.02 
-0.03125 1:0.71 4:0.03 
-0.03125 1:0.7 4:0.02 
-0.03125 1:0.71 4:0.02 
-0.03125 1:0.7 4:0.02 
-0.03125 1:0.7 4:0.02 
-0.03125 1:0.7 4:0.02 
-0.03125 1:0.7 4:0.02 
-0.03125 1:0.7 4:0.02 
-0.03125 1:0.7 4:0.02 
-0.03125 1:0.7 4:0.02 
-0.03125 1:0.7 4:0.02 
-0.03125 1:0.71 4:0.02 
-0.03125 1:0.71 4:0.02 
-0.03125 1:0.7 4:0.02 
-0.03125 1:0.71 4:0.02 
-0.03125 1:0.7 4:0.02 
-0.03125 1:0.7 4:0.02 
-0.03125 1:0.71 4:0.02 
-0.03125 1:0.7 4:0.02 
-0.03125 1:0.7 4:0.02 
-0.03125 1:0.7 4:0.02 
-0.03125 1:0.7 4:0.03 
-0.03125 1:0.7 4:0.02 
-0.03125 1:0.7 4:0.02 
-0.03125 1:0.7 4:0.02 
-0.03125 1:0.7 4:0.02 
-0.03125 1:0.7 4:0.03 
-0.03125 1:0.7 4:0.02 
-0.03125 1:0.7 4:0.03 
-0.03125 1:0.7 4:0.02 
-0.03125 1:0.71 4:0.02 
-0.03125 1:0.7 4:0.03 
-0.03125 1:0.7 4:0.03 
-0.03125 1:0.71 4:0.02 
-0.03125 1:0.7 4:0.02 
-0.03125 1:0.71 4:0.02 
-0.03125 1:0.7 4:0.02 
-0.03125 1:0.7 4:0.02 
-0.03125 1:0.7 4:0.02 
-0.03125 1:0.7 4:0.02 
-0.03125 1:0.71 4:0.02 
-0.03125 1:0.7 4:0.02 
-0.03125 1:0.7 4:0.02 
-0.03125 1:0.7 4:0.02 
-0.03125 1:0.7 4:0.02 
-0.03125 1:0.7 4:0.02 
-0.03125 1:0.7 4:0.02 
-0.03125 1:0.71 4:0.02 
-0.03125 1:0.7 4:0.02 
-0.03125 1:0.71 4:0.02 
-0.03125 1:0.7 4:0.02 
-0.03125 1:0.7 4:0.02 
-0.03125 1:0.7 4:0.02 
-0.03125 1:0.7 4:0.03 
-0.03125 1:0.71 4:0.02 
-0.03125 1:0.71 4:0.02 
-0.03125 1:0.71 4:0.02 
-0.03125 1:0.71 4:0.02 
-0.03125 1:0.7 4:0.02 
-0.03125 1:0.71 4:0.02 
-0.03125 1:0.7 4:0.02 
-0.03125 1:0.7 4:0.02 
-0.03125 1:0.7 4:0.02 
-0.03125 1:0.7 4:0.02 
-0.03125 1:0.7 4:0.02 
-0.03125 1:0.7 4:0.02 
-0.03125 1:0.71 4:0.02 
-0.03125 1:0.7 4:0.02 
-0.03125 1:0.71 4:0.02 
-0.03125 1:0.7 4:0.02 
-0.03125 1:0.7 4:0.03 
-0.03125 1:0.7 4:0.02 
-0.03125 1:0.7 3:0.01 4:0.03 
-0.03125 1:0.7 4:0.02 
-0.03125 1:0.7 4:0.02 
-0.03125 1:0.71 4:0.02 
-0.03125 1:0.7 4:0.02 
-0.03125 1:0.7 4:0.02 
-0.03125 1:0.7 4:0.02 
-0.03125 1:0.7 4:0.02 
-0.03125 1:0.7 4:0.02 
-0.03125 1:0.7 4:0.03 
-0.03125 1:0.7 4:0.03 
-0.03125 1:0.7 4:0.02 
-0.03125 1:0.7 4:0.02 
-0.03125 1:0.7 4:0.02 
-0.03125 1:0.7 4:0.02 
-0.03125 1:0.7 4:0.02 
-0.03125 1:0.7 4:0.02 
-0.03125 1:0.7 4:0.02 
-0.03125 1:0.71 4:0.02 
-0.03125 1:0.7 4:0.02 
-0.03125 1:0.7 4:0.02 
-0.03125 1:0.71 4:0.03 
-0.03125 1:0.7 4:0.02 
-0.03125 1:0.7 4:0.02 
-0.03125 1:0.71 4:0.02 
-0.03125 1:0.7 4:0.02 
-0.03125 1:0.7 4:0.02 
-0.03125 1:0.71 4:0.02 
-0.03125 1:0.7 4:0.02 
-0.03125 1:0.71 4:0.02 
-0.03125 1:0.7 4:0.02 
-0.03125 1:0.7 4:0.02 
-0.03125 1:0.71 4:0.03 
-0.03125 1:0.7 4:0.03 
-0.03125 1:0.7 4:0.02 
-0.03125 1:0.7 4:0.03 
-0.03125 1:0.7 4:0.02 
-0.03125 1:0.7 4:0.02 
-0.03125 1:0.7 4:0.02 
-0.03125 1:0.7 4:0.02 
-0.03125 1:0.7 4:0.02 
-0.03125 1:0.7 4:0.02 
-0.03125 1:0.71 4:0.02 
-0.03125 1:0.7 4:0.03 
-0.03125 1:0.7 4:0.02 
-0.03125 1:0.71 4:0.02 
-0.03125 1:0.7 4:0.02 
-0.03125 1:0.7 4:0.02 
-0.03125 1:0.7 4:0.02 
-0.03125 1:0.7 4:0.02 
-0.03125 1:0.7 4:0.02 
-0.03125 1:0.7 4:0.02 
-0.03125 1:0.7 4:0.02 
-0.03125 1:0.7 4:0.03 
-0.03125 1:0.7 4:0.02 
-0.03125 1:0.71 4:0.02 
-0.03125 1:0.7 4:0.02 
-0.03125 1:0.7 4:0.02 
-0.03125 1:0.7 4:0.03 
-0.03125 1:0.7 4:0.02 
-0.03125 1:0.7 4:0.02 
-0.03125 1:0.71 4:0.02 
-0.03125 1:0.7 4:0.02 
-0.03125 1:0.7 4:0.02 
-0.03125 1:0.7 4:0.02 
-0.03125 1:0.7 4:0.03 
-0.03125 1:0.7 4:0.02 
-0.03125 1:0.7 4:0.02 
-0.03125 1:0.7 4:0.02 
-0.03125 1:0.7 4:0.02 
-0.03125 1:0.7 4:0.02 
-0.03125 1:0.7 4:0.03 
-0.03125 1:0.7 4:0.02 
-0.03125 1:0.71 4:0.02 
-0.03125 1:0.7 4:0.02 
-0.03125 1:0.7 4:0.03 
-0.03125 1:0.7 4:0.03 
-0.03125 1:0.71 4:0.02 
-0.03125 1:0.7 4:0.02 
-0.03125 1:0.7 4:0.02 
-0.03125 1:0.71 4:0.02 
-0.03125 1:0.7 4:0.02 
-0.03125 1:0.7 4:0.03 
-0.03125 1:0.71 4:0.03 
-0.03125 1:0.7 4:0.03 
-0.03125 1:0.7 4:0.02 
-0.03125 1:0.71 4:0.02 
-0.03125 1:0.7 4:0.02 
-0.03125 1:0.7 4:0.02 
-0.03125 1:0.71 4:0.03 
-0.03125 1:0.7 4:0.02 
-0.03125 1:0.7 4:0.02 
-0.03125 1:0.71 4:0.02 
-0.03125 1:0.7 4:0.03 
-0.03125 1:0.7 4:0.03 
-0.03125 1:0.71 4:0.03 
-0.03125 1:0.7 4:0.03 
-0.03125 1:0.71 4:0.03 
-0.03125 1:0.7 4:0.03 
-0.03125 1:0.71 4:0.02 
-0.03125 1:0.71 4:0.02 
-0.03125 1:0.7 4:0.02 
-0.03125 1:0.61 4:0.02 
