svm_type c_svc
kernel_type rbf
gamma 0.0078125
nr_class 2
total_sv 1200
rho 0.0045562
label 12 13
nr_sv 600 600
SV
0.03125 1:0.19 2:0.8 3:0.01 4:1 
0.03125 1:0.19 2:0.8 4:1 
0.03125 1:0.2 2:0.8 4:1 
0.03125 1:0.19 2:0.8 4:1 
0.03125 1:0.2 2:0.8 4:1 
0.03125 1:0.19 2:0.8 4:1 
0.03125 1:0.2 2:0.8 4:1 
0.03125 1:0.2 2:0.8 4:1 
0.03125 1:0.19 2:0.8 4:1 
0.03125 1:0.2 2:0.8 4:1 
0.03125 1:0.2 2:0.8 4:1 
0.03125 1:0.2 2:0.8 4:1 
0.03125 1:0.2 2:0.8 4:0.99 
0.03125 1:0.19 2:0.8 4:0.99 
0.03125 1:0.19 2:0.8 4:0.99 
0.03125 1:0.2 2:0.8 4:1 
0.03125 1:0.21 2:0.8 4:1 
0.03125 1:0.2 2:0.8 4:1 
0.03125 1:0.2 2:0.8 4:1 
0.03125 1:0.19 2:0.8 4:1 
0.03125 2:0.27 4:0.99 
0.03125 2:0.29 4:0.99 
0.03125 2:0.29 4:1 
0.03125 2:0.29 4:1 
0.03125 2:0.29 4:1 
0.03125 2:0.3 4:0.99 
0.03125 2:0.3 4:1 
0.03125 2:0.31 4:1 
0.03125 2:0.32 4:1 
0.03125 2:0.32 4:1 
0.03125 2:0.33 4:0.99 
0.03125 2:0.33 4:0.99 
0.03125 2:0.36 4:0.99 
0.03125 2:0.36 4:1 
0.03125 2:0.36 4:0.99 
0.03125 2:0.36 4:1 
0.03125 2:0.37 4:1 
0.03125 2:0.37 4:0.99 
0.03125 2:0.37 4:1 
0.03125 1:0.01 2:0.37 4:1 
0.03125 2:0.37 4:0.99 
0.03125 1:0.01 2:0.37 4:0.99 
0.03125 1:0.01 2:0.38 4:1 
0.03125 2:0.38 4:1 
0.03125 2:0.38 4:1 
0.03125 2:0.38 4:1 
0.03125 2:0.38 4:1 
0.03125 2:0.39 4:0.99 
0.03125 2:0.39 4:1 
0.03125 2:0.39 4:1 
0.03125 2:0.39 4:1 
0.03125 2:0.39 4:1 
0.03125 1:0.01 2:0.41 4:1 
0.03125 2:0.41 4:1 
0.03125 2:0.41 4:1 
0.03125 2:0.41 4:1 
0.03125 2:0.41 4:1 
0.03125 2:0.41 4:1 
0.03125 2:0.41 4:1 
0.03125 2:0.41 4:1 
0.03125 2:0.41 4:0.98 
0.03125 2:0.41 4:1 
0.03125 2:0.41 4:1 
0.03125 2:0.41 4:1 
0.03125 2:0.41 4:1 
0.03125 2:0.41 4:1 
0.03125 2:0.41 4:1 
0.03125 2:0.41 4:1 
0.03125 2:0.41 4:1 
0.03125 2:0.42 4:1 
0.03125 2:0.42 4:1 
0.03125 2:0.42 4:1 
0.03125 2:0.53 4:0.99 
0.03125 2:0.53 4:1 
0.03125 2:0.53 4:1 
0.03125 2:0.53 4:1 
0.03125 2:0.53 4:1 
0.03125 2:0.53 4:1 
0.03125 2:0.53 4:1 
0.03125 2:0.53 4:1 
0.03125 2:0.53 4:1 
0.03125 2:0.53 4:1 
0.03125 2:0.53 4:1 
0.03125 2:0.54 4:1 
0.03125 2:0.54 4:1 
0.03125 2:0.54 4:1 
0.03125 2:0.53 4:1 
0.03125 2:0.53 4:1 
0.03125 2:0.53 4:1 
0.03125 2:0.54 4:1 
0.03125 2:0.54 4:1 
0.03125 2:0.53 4:1 
0.03125 2:0.53 4:1 
0.03125 2:0.53 4:1 
0.03125 2:0.53 4:1 
0.03125 2:0.53 4:1 
0.03125 2:0.53 4:1 
0.03125 2:0.53 4:1 
0.03125 2:0.53 4:1 
0.03125 2:0.53 4:0.99 
0.03125 2:0.53 4:1 
0.03125 2:0.53 4:1 
0.03125 2:0.53 4:1 
0.03125 2:0.53 4:1 
0.03125 2:0.53 4:0.99 
0.03125 2:0.53 4:1 
0.03125 2:0.53 4:1 
0.03125 2:0.53 4:1 
0.03125 1:0.01 2:0.53 4:1 
0.03125 2:0.53 4:0.99 
0.03125 2:0.53 4:1 
0.03125 2:0.53 4:1 
0.03125 2:0.67 4:1 
0.03125 2:0.67 4:1 
0.03125 2:0.67 4:1 
0.03125 2:0.67 4:1 
0.03125 2:0.67 4:1 
0.03125 2:0.67 4:1 
0.03125 2:0.67 4:1 
0.03125 2:0.67 4:1 
0.03125 2:0.67 4:0.99 
0.03125 2:0.67 4:1 
0.03125 2:0.67 4:1 
0.03125 2:0.67 4:1 
0.03125 2:0.67 4:1 
0.03125 2:0.67 4:1 
0.03125 2:0.67 4:1 
0.03125 2:0.67 4:1 
0.03125 2:0.67 4:1 
0.03125 2:0.67 4:1 
0.03125 2:0.67 4:1 
0.03125 2:0.67 4:1 
0.03125 2:0.66 4:1 
0.03125 2:0.67 4:1 
0.03125 2:0.67 4:1 
0.03125 1:0.01 2:0.67 4:1 
0.03125 2:0.67 4:1 
0.03125 2:0.67 4:1 
0.03125 2:0.67 4:1 
0.03125 2:0.67 4:1 
0.03125 2:0.67 4:1 
0.03125 2:0.67 4:1 
0.03125 2:0.67 4:0.99 
0.03125 2:0.66 4:1 
0.03125 2:0.67 4:0.98 
0.03125 2:0.67 4:0.98 
0.03125 2:0.66 4:1 
0.03125 2:0.67 4:0.99 
0.03125 2:0.67 4:1 
0.03125 2:0.67 4:1 
0.03125 2:0.67 4:1 
0.03125 2:0.67 4:1 
0.03125 2:0.8 4:0.99 
0.03125 2:0.8 4:1 
0.03125 2:0.8 4:1 
0.03125 2:0.8 4:1 
0.03125 2:0.8 4:1 
0.03125 2:0.8 4:1 
0.03125 2:0.8 4:1 
0.03125 2:0.8 4:1 
0.03125 2:0.8 4:1 
0.03125 2:0.8 4:1 
0.03125 2:0.8 4:0.99 
0.03125 2:0.8 4:1 
0.03125 2:0.8 4:1 
0.03125 2:0.8 4:1 
0.03125 2:0.8 4:1 
0.03125 1:0.01 2:0.8 4:0.99 
0.03125 2:0.8 4:1 
0.03125 2:0.8 4:1 
0.03125 2:0.8 4:1 
0.03125 2:0.8 4:1 
0.03125 2:0.8 4:1 
0.03125 2:0.8 4:1 
0.03125 2:0.8 4:1 
0.03125 2:0.8 4:1 
0.03125 2:0.8 4:1 
0.03125 2:0.8 4:1 
0.03125 2:0.8 4:0.99 
0.03125 2:0.8 4:1 
0.03125 2:0.8 4:1 
0.03125 2:0.8 4:1 
0.03125 2:0.8 4:1 
0.03125 2:0.8 4:0.99 
0.03125 2:0.8 4:1 
0.03125 2:0.8 4:0.98 
0.03125 2:0.8 4:0.98 
0.03125 2:0.8 4:0.99 
0.03125 2:0.8 4:0.98 
0.03125 2:0.8 4:1 
0.03125 2:0.8 4:1 
0.03125 2:0.8 4:1 
0.03125 1:0.01 2:0.8 4:1 
0.03125 2:0.8 4:1 
0.03125 2:0.8 4:1 
0.03125 2:0.8 4:1 
0.03125 2:0.8 4:1 
0.03125 2:0.8 4:1 
0.03125 2:0.8 4:1 
0.03125 2:0.8 4:1 
0.03125 2:0.8 4:1 
0.03125 2:0.8 4:1 
0.03125 2:0.8 4:1 
0.03125 2:0.8 4:1 
0.03125 2:0.8 4:1 
0.03125 2:0.8 4:1 
0.03125 2:0.8 4:0.99 
0.03125 2:0.8 4:1 
0.03125 2:0.8 4:1 
0.03125 2:0.8 4:1 
0.03125 2:0.8 4:1 
0.03125 2:0.8 4:1 
0.03125 1:0.01 2:0.86 4:0.98 
0.03125 2:0.86 4:1 
0.03125 2:0.86 4:1 
0.03125 2:0.86 4:1 
0.03125 2:0.86 4:1 
0.03125 2:0.86 4:1 
0.03125 2:0.86 4:1 
0.03125 2:0.86 4:1 
0.03125 2:0.86 4:1 
0.03125 2:0.86 4:1 
0.03125 2:0.87 3:0.01 4:0.98 
0.03125 2:0.87 4:1 
0.03125 2:0.87 4:1 
0.03125 2:0.87 4:1 
0.03125 2:0.87 4:1 
0.03125 2:0.87 4:0.99 
0.03125 2:0.87 4:1 
0.03125 2:0.87 4:1 
0.03125 2:0.87 4:1 
0.03125 2:0.87 4:1 
0.03125 2:0.87 4:1 
0.03125 2:0.87 4:1 
0.03125 2:0.87 4:1 
0.03125 2:0.87 4:1 
0.03125 2:0.87 4:1 
0.03125 2:0.87 4:1 
0.03125 2:0.87 4:1 
0.03125 2:0.87 4:1 
0.03125 2:0.87 4:1 
0.03125 2:0.87 4:1 
0.03125 2:0.87 4:0.99 
0.03125 2:0.87 4:0.99 
0.03125 2:0.87 4:1 
0.03125 2:0.87 4:1 
0.03125 2:0.87 4:1 
0.03125 1:0.01 2:0.87 4:0.99 
0.03125 2:0.87 4:1 
0.03125 2:0.86 4:0.99 
0.03125 2:0.86 4:1 
0.03125 2:0.86 4:1 
0.03125 2:0.86 4:1 
0.03125 2:0.86 4:1 
0.03125 2:0.86 4:1 
0.03125 2:0.86 4:1 
0.03125 2:0.86 4:1 
0.03125 1:0.01 2:0.86 4:0.99 
0.03125 2:0.86 4:1 
0.03125 2:0.86 4:1 
0.03125 2:0.86 4:1 
0.03125 2:0.86 4:1 
0.03125 2:0.86 4:1 
0.03125 2:0.86 4:1 
0.03125 2:0.86 4:1 
0.03125 1:0.01 2:0.86 4:0.98 
0.03125 2:0.86 4:0.98 
0.03125 2:0.86 4:0.99 
0.03125 2:0.86 4:0.98 
0.03125 2:0.86 4:1 
0.03125 2:0.86 4:1 
0.03125 2:0.86 4:1 
0.03125 2:0.86 4:1 
0.03125 2:0.86 4:1 
0.03125 2:0.86 4:1 
0.03125 2:0.86 4:1 
0.03125 2:0.86 4:1 
0.03125 2:0.86 4:1 
0.03125 2:0.86 4:1 
0.03125 2:0.86 4:1 
0.03125 2:0.86 4:1 
0.03125 2:0.86 4:1 
0.03125 2:0.86 4:1 
0.03125 2:0.86 4:1 
0.03125 2:0.86 4:1 
0.03125 2:0.86 4:0.99 
0.03125 2:0.86 4:1 
0.03125 2:0.86 4:0.99 
0.03125 2:0.86 4:1 
0.03125 2:0.86 4:1 
0.03125 2:0.86 4:1 
0.03125 2:0.86 4:1 
0.03125 2:0.86 4:1 
0.03125 2:0.86 4:1 
0.03125 2:0.86 4:1 
0.03125 2:0.86 4:1 
0.03125 2:0.86 4:1 
0.03125 2:0.86 4:1 
0.03125 2:0.86 4:1 
0.03125 2:0.86 4:1 
0.03125 2:0.86 4:1 
0.03125 2:0.86 4:1 
0.03125 2:0.86 4:0.99 
0.03125 2:0.86 4:1 
0.03125 2:0.86 4:1 
0.03125 2:0.86 4:1 
0.03125 2:0.86 4:1 
0.03125 2:0.86 4:1 
0.03125 2:0.86 4:1 
0.03125 2:0.86 4:1 
0.03125 2:0.86 4:1 
0.03125 2:0.86 4:1 
0.03125 2:0.6 4:0.99 
0.03125 2:0.6 4:1 
0.03125 2:0.6 4:1 
0.03125 2:0.6 4:1 
0.03125 2:0.6 4:1 
0.03125 2:0.6 4:1 
0.03125 2:0.6 4:1 
0.03125 2:0.6 4:1 
0.03125 2:0.6 4:1 
0.03125 2:0.6 4:1 
0.03125 2:0.6 4:1 
0.03125 2:0.6 4:1 
0.03125 2:0.6 4:1 
0.03125 2:0.6 4:0.99 
0.03125 2:0.6 4:1 
0.03125 2:0.6 4:1 
0.03125 2:0.6 4:0.99 
0.03125 2:0.6 4:1 
0.03125 2:0.6 4:1 
0.03125 2:0.6 4:1 
0.03125 2:0.6 4:1 
0.03125 2:0.6 4:1 
0.03125 2:0.6 4:1 
0.03125 2:0.6 4:1 
0.03125 2:0.6 4:1 
0.03125 2:0.6 4:1 
0.03125 2:0.6 4:1 
0.03125 2:0.6 4:1 
0.03125 2:0.6 4:0.99 
0.03125 2:0.6 4:1 
0.03125 2:0.6 4:1 
0.03125 2:0.6 4:1 
0.03125 2:0.6 4:1 
0.03125 2:0.6 4:1 
0.03125 2:0.6 4:1 
0.03125 2:0.6 4:1 
0.03125 2:0.6 4:0.98 
0.03125 2:0.6 4:0.97 
0.03125 2:0.6 4:1 
0.03125 2:0.6 4:1 
0.03125 2:0.6 4:1 
0.03125 2:0.6 4:1 
0.03125 2:0.6 4:1 
0.03125 1:0.01 2:0.6 4:0.99 
0.03125 1:0.01 2:0.6 4:1 
0.03125 2:0.6 4:1 
0.03125 2:0.6 4:1 
0.03125 2:0.6 4:1 
0.03125 2:0.6 4:1 
0.03125 2:0.6 4:1 
0.03125 2:0.6 4:1 
0.03125 2:0.6 4:1 
0.03125 2:0.6 4:1 
0.03125 2:0.6 4:1 
0.03125 2:0.6 4:1 
0.03125 2:0.6 4:1 
0.03125 2:0.6 4:1 
0.03125 2:0.6 4:1 
0.03125 2:0.6 4:0.99 
0.03125 2:0.6 4:1 
0.03125 2:0.6 4:1 
0.03125 2:0.6 4:1 
0.03125 2:0.6 4:1 
0.03125 2:0.6 4:1 
0.03125 2:0.6 4:1 
0.03125 2:0.6 4:1 
0.03125 2:0.6 4:1 
0.03125 2:0.6 4:1 
0.03125 2:0.6 4:1 
0.03125 2:0.6 4:1 
0.03125 2:0.6 4:1 
0.03125 2:0.6 4:1 
0.03125 2:0.6 4:1 
0.03125 2:0.6 4:0.99 
0.03125 2:0.6 4:1 
0.03125 2:0.6 4:0.98 
0.03125 2:0.6 4:0.98 
0.03125 2:0.6 4:0.98 
0.03125 2:0.6 4:1 
0.03125 2:0.6 4:1 
0.03125 2:0.6 4:1 
0.03125 2:0.6 4:1 
0.03125 2:0.6 4:1 
0.03125 2:0.6 4:1 
0.03125 2:0.6 4:1 
0.03125 2:0.6 4:1 
0.03125 2:0.6 4:1 
0.03125 2:0.6 4:1 
0.03125 2:0.6 4:0.99 
0.03125 2:0.6 4:1 
0.03125 2:0.6 4:1 
0.03125 2:0.6 4:1 
0.03125 2:0.6 4:1 
0.03125 2:0.6 4:1 
0.03125 2:0.6 4:1 
0.03125 2:0.6 4:1 
0.03125 1:0.01 2:0.6 4:1 
0.03125 2:0.6 4:1 
0.03125 2:0.6 4:1 
0.03125 1:0.01 2:0.6 4:1 
0.03125 2:0.73 4:0.99 
0.03125 2:0.73 4:1 
0.03125 2:0.73 4:1 
0.03125 2:0.73 4:0.98 
0.03125 2:0.73 4:1 
0.03125 2:0.73 4:1 
0.03125 2:0.73 4:1 
0.03125 2:0.73 4:1 
0.03125 2:0.73 4:0.99 
0.03125 2:0.73 4:1 
0.03125 2:0.73 4:1 
0.03125 2:0.73 4:1 
0.03125 2:0.73 4:1 
0.03125 2:0.73 4:1 
0.03125 2:0.73 4:1 
0.03125 2:0.73 4:1 
0.03125 2:0.73 4:1 
0.03125 2:0.73 4:1 
0.03125 2:0.73 4:0.98 
0.03125 2:0.73 4:1 
0.03125 2:0.73 4:1 
0.03125 2:0.73 4:1 
0.03125 2:0.73 4:1 
0.03125 2:0.73 4:0.99 
0.03125 2:0.73 4:1 
0.03125 2:0.73 4:1 
0.03125 2:0.73 4:0.99 
0.03125 2:0.73 4:1 
0.03125 2:0.73 4:1 
0.03125 2:0.73 4:1 
0.03125 2:0.73 4:1 
0.03125 2:0.73 4:1 
0.03125 2:0.73 4:1 
0.03125 2:0.73 4:1 
0.03125 2:0.73 4:1 
0.03125 2:0.73 4:1 
0.03125 2:0.73 4:1 
0.03125 2:0.73 4:1 
0.03125 2:0.73 4:0.99 
0.03125 2:0.73 4:1 
0.03125 2:0.73 4:1 
0.03125 2:0.73 4:1 
0.03125 2:0.73 4:1 
0.03125 2:0.73 4:1 
0.03125 2:0.73 4:0.99 
0.03125 2:0.73 4:0.98 
0.03125 2:0.73 4:0.98 
0.03125 2:0.73 4:0.98 
0.03125 2:0.73 4:1 
0.03125 2:0.73 4:1 
0.03125 2:0.73 4:1 
0.03125 2:0.73 4:1 
0.03125 2:0.73 4:1 
0.03125 2:0.73 4:0.99 
0.03125 2:0.73 4:1 
0.03125 2:0.73 4:1 
0.03125 2:0.73 4:1 
0.03125 2:0.73 4:1 
0.03125 2:0.73 4:0.99 
0.03125 2:0.73 4:1 
0.03125 2:0.73 4:1 
0.03125 2:0.73 4:1 
0.03125 2:0.73 4:1 
0.03125 2:0.73 4:1 
0.03125 2:0.73 4:1 
0.03125 2:0.73 4:1 
0.03125 2:0.73 4:1 
0.03125 2:0.73 4:1 
0.03125 2:0.73 4:0.99 
0.03125 2:0.73 4:1 
0.03125 2:0.73 4:1 
0.03125 2:0.73 4:1 
0.03125 1:0.01 2:0.73 4:1 
0.03125 2:0.73 4:1 
0.03125 2:0.73 4:1 
0.03125 2:0.73 4:1 
0.03125 2:0.73 4:1 
0.03125 2:0.73 4:1 
0.03125 2:0.73 4:1 
0.03125 2:0.73 4:1 
0.03125 2:0.73 4:1 
0.03125 2:0.73 4:1 
0.03125 2:0.73 4:1 
0.03125 2:0.73 4:0.99 
0.03125 2:0.73 4:1 
0.03125 2:0.73 4:1 
0.03125 2:0.73 4:1 
0.03125 2:0.73 4:1 
0.03125 2:0.73 4:1 
0.03125 2:0.73 4:1 
0.03125 2:0.73 4:1 
0.03125 2:0.73 4:1 
0.03125 2:0.73 4:0.97 
0.03125 2:0.73 4:0.97 
0.03125 2:0.73 4:1 
0.03125 2:0.73 4:0.99 
0.03125 2:0.73 4:1 
0.03125 2:0.73 4:1 
0.03125 2:0.73 4:1 
0.03125 2:0.73 4:1 
0.03125 2:1 4:0.98 
0.03125 2:1 4:1 
0.03125 2:1 4:1 
0.03125 2:1 4:1 
0.03125 2:1 4:1 
0.03125 2:1 4:1 
0.03125 2:1 4:1 
0.03125 2:1 4:1 
0.03125 2:1 4:1 
0.03125 2:1 4:1 
0.03125 2:1 4:0.99 
0.03125 2:1 4:1 
0.03125 2:1 4:1 
0.03125 2:1 4:1 
0.03125 2:1 4:1 
0.03125 2:1 4:1 
0.03125 2:1 4:1 
0.03125 2:1 4:1 
0.03125 2:1 4:1 
0.03125 2:1 4:1 
0.03125 2:1 4:1 
0.03125 2:1 4:1 
0.03125 2:1 4:1 
0.03125 2:1 4:1 
0.03125 2:1 4:1 
0.03125 2:1 4:1 
0.03125 2:1 4:1 
0.03125 2:1 4:1 
0.03125 2:1 4:1 
0.03125 2:1 4:1 
0.03125 2:1 4:1 
0.03125 2:1 4:1 
0.03125 2:1 4:1 
0.03125 2:1 4:1 
0.03125 2:1 4:1 
0.03125 2:1 3:0.01 4:0.98 
0.03125 2:1 4:1 
0.03125 2:1 4:1 
0.03125 2:1 4:1 
0.03125 2:1 4:1 
0.03125 2:1 4:0.99 
0.03125 2:1 4:1 
0.03125 2:1 4:1 
0.03125 2:1 4:1 
0.03125 2:1 4:1 
0.03125 2:1 4:1 
0.03125 2:1 4:0.99 
0.03125 2:1 4:1 
0.03125 2:1 4:1 
0.03125 2:1 4:1 
0.03125 2:1 4:1 
0.03125 2:1 4:1 
0.03125 2:1 4:1 
0.03125 2:1 4:1 
0.03125 2:1 4:1 
0.03125 2:1 4:0.99 
0.03125 2:1 4:1 
0.03125 2:1 4:1 
0.03125 2:1 4:1 
0.03125 2:1 4:1 
0.03125 2:1 4:1 
0.03125 2:1 4:0.98 
0.03125 2:1 4:0.98 
0.03125 2:1 4:0.97 
0.03125 2:1 4:1 
0.03125 2:1 4:0.97 
0.03125 2:1 4:0.99 
0.03125 2:1 4:1 
0.03125 2:1 4:1 
0.03125 2:1 4:0.99 
0.03125 2:1 4:0.99 
0.03125 2:1 4:1 
0.03125 2:1 4:1 
0.03125 2:1 4:1 
0.03125 2:1 4:0.99 
0.03125 2:1 4:1 
0.03125 2:1 4:1 
0.03125 2:1 4:1 
0.03125 1:0.01 2:1 4:1 
0.03125 2:1 4:1 
0.03125 2:1 4:1 
0.03125 2:1 4:1 
0.03125 2:1 4:1 
0.03125 2:1 4:1 
0.03125 2:1 4:1 
0.03125 2:1 4:0.99 
0.03125 2:1 4:1 
0.03125 2:1 4:1 
-0.03125 1:0.76 4:0.02 
-0.03125 1:0.76 4:0.02 
-0.03125 1:0.76 4:0.02 
-0.03125 1:0.76 4:0.02 
-0.03125 1:0.76 4:0.02 
-0.03125 1:0.76 4:0.02 
-0.03125 1:0.76 4:0.02 
-0.03125 1:0.76 4:0.02 
-0.03125 1:0.76 4:0.02 
-0.03125 1:0.77 4:0.02 
-0.03125 1:0.76 4:0.02 
-0.03125 1:0.76 4:0.02 
-0.03125 1:0.76 4:0.02 
-0.03125 1:0.76 4:0.02 
-0.03125 1:0.76 4:0.02 
-0.03125 1:0.76 4:0.02 
-0.03125 1:0.76 4:0.02 
-0.03125 1:0.76 4:0.02 
-0.03125 1:0.76 4:0.02 
-0.03125 1:0.76 4:0.02 
-0.03125 1:0.77 4:0.02 
-0.03125 1:0.76 4:0.02 
-0.03125 1:0.76 4:0.02 
-0.03125 1:0.76 4:0.02 
-0.03125 1:0.76 4:0.02 
-0.03125 1:0.76 4:0.02 
-0.03125 1:0.76 4:0.02 
-0.03125 1:0.76 4:0.02 
-0.03125 1:0.76 4:0.02 
-0.03125 1:0.76 4:0.02 
-0.03125 1:0.77 4:0.02 
-0.03125 1:0.76 4:0.02 
-0.03125 1:0.76 4:0.02 
-0.03125 1:0.76 4:0.02 
-0.03125 1:0.76 4:0.02 
-0.03125 1:0.76 4:0.02 
-0.03125 1:0.76 4:0.02 
-0.03125 1:0.76 4:0.02 
-0.03125 1:0.77 4:0.02 
-0.03125 1:0.76 4:0.02 
-0.03125 1:0.76 4:0.02 
-0.03125 1:0.76 4:0.02 
-0.03125 1:0.76 4:0.02 
-0.03125 1:0.76 4:0.02 
-0.03125 1:0.76 4:0.02 
-0.03125 1:0.76 4:0.03 
-0.03125 1:0.76 4:0.02 
-0.03125 1:0.76 4:0.02 
-0.03125 1:0.76 4:0.02 
-0.03125 1:0.76 4:0.02 
-0.03125 1:0.76 4:0.02 
-0.03125 1:0.76 4:0.02 
-0.03125 1:0.76 4:0.02 
-0.03125 1:0.76 4:0.02 
-0.03125 1:0.76 4:0.02 
-0.03125 1:0.76 4:0.02 
-0.03125 1:0.76 4:0.02 
-0.03125 1:0.76 4:0.02 
-0.03125 1:0.76 4:0.02 
-0.03125 1:0.76 4:0.02 
-0.03125 1:0.76 4:0.02 
-0.03125 1:0.76 4:0.02 
-0.03125 1:0.76 4:0.02 
-0.03125 1:0.76 4:0.02 
-0.03125 1:0.76 4:0.02 
-0.03125 1:0.76 4:0.02 
-0.03125 1:0.76 4:0.02 
-0.03125 1:0.76 4:0.02 
-0.03125 1:0.77 4:0.02 
-0.03125 1:0.76 4:0.02 
-0.03125 1:0.76 4:0.02 
-0.03125 1:0.76 4:0.02 
-0.03125 1:0.76 4:0.02 
-0.03125 1:0.76 4:0.02 
-0.03125 1:0.76 4:0.02 
-0.03125 1:0.76 4:0.02 
-0.03125 1:0.76 4:0.02 
-0.03125 1:0.76 4:0.02 
-0.03125 1:0.77 4:0.02 
-0.03125 1:0.76 4:0.02 
-0.03125 1:0.76 4:0.02 
-0.03125 1:0.76 4:0.02 
-0.03125 1:0.76 4:0.02 
-0.03125 1:0.76 4:0.02 
-0.03125 1:0.76 4:0.02 
-0.03125 1:0.76 4:0.02 
-0.03125 1:0.76 4:0.02 
-0.03125 1:0.76 4:0.02 
-0.03125 1:0.76 4:0.02 
-0.03125 1:0.76 4:0.02 
-0.03125 1:0.76 4:0.02 
-0.03125 1:0.76 4:0.02 
-0.03125 1:0.76 4:0.02 
-0.03125 1:0.76 4:0.02 
-0.03125 1:0.76 4:0.02 
-0.03125 1:0.76 4:0.02 
-0.03125 1:0.76 4:0.02 
-0.03125 1:0.76 4:0.02 
-0.03125 1:0.76 4:0.02 
-0.03125 1:0.76 4:0.02 
-0.03125 1:0.76 4:0.02 
-0.03125 1:0.76 4:0.02 
-0.03125 1:0.76 4:0.02 
-0.03125 1:0.76 4:0.02 
-0.03125 1:0.76 4:0.02 
-0.03125 1:0.76 4:0.02 
-0.03125 1:0.76 4:0.02 
-0.03125 1:0.76 4:0.02 
-0.03125 1:0.76 4:0.02 
-0.03125 1:0.76 4:0.02 
-0.03125 1:0.77 4:0.02 
-0.03125 1:0.76 4:0.02 
-0.03125 1:0.76 4:0.02 
-0.03125 1:0.76 4:0.02 
-0.03125 1:0.76 4:0.02 
-0.03125 1:0.76 4:0.02 
-0.03125 1:0.76 4:0.02 
-0.03125 1:0.76 4:0.02 
-0.03125 1:0.76 4:0.02 
-0.03125 1:0.76 4:0.02 
-0.03125 1:0.76 4:0.02 
-0.03125 1:0.76 4:0.02 
-0.03125 1:0.76 4:0.02 
-0.03125 1:0.76 4:0.02 
-0.03125 1:0.76 4:0.02 
-0.03125 1:0.76 4:0.02 
-0.03125 1:0.76 4:0.02 
-0.03125 1:0.77 4:0.02 
-0.03125 1:0.76 4:0.02 
-0.03125 1:0.76 4:0.02 
-0.03125 1:0.76 4:0.02 
-0.03125 1:0.76 4:0.02 
-0.03125 1:0.76 4:0.02 
-0.03125 1:0.76 4:0.02 
-0.03125 1:0.76 4:0.02 
-0.03125 1:0.76 4:0.02 
-0.03125 1:0.76 4:0.02 
-0.03125 1:0.77 4:0.02 
-0.03125 1:0.76 4:0.02 
-0.03125 1:0.76 4:0.02 
-0.03125 1:0.76 4:0.02 
-0.03125 1:0.76 4:0.02 
-0.03125 1:0.76 4:0.02 
-0.03125 1:0.76 4:0.02 
-0.03125 1:0.76 4:0.02 
-0.03125 1:0.76 4:0.02 
-0.03125 1:0.76 4:0.02 
-0.03125 1:0.77 4:0.02 
-0.03125 1:0.76 4:0.02 
-0.03125 1:0.76 4:0.02 
-0.03125 1:0.76 4:0.02 
-0.03125 1:0.76 4:0.02 
-0.03125 1:0.76 4:0.02 
-0.03125 1:0.76 4:0.02 
-0.03125 1:0.76 4:0.02 
-0.03125 1:0.76 4:0.02 
-0.03125 1:0.76 4:0.02 
-0.03125 1:0.76 4:0.02 
-0.03125 1:0.76 4:0.02 
-0.03125 1:0.77 4:0.02 
-0.03125 1:0.76 4:0.02 
-0.03125 1:0.76 4:0.02 
-0.03125 1:0.76 4:0.02 
-0.03125 1:0.76 4:0.02 
-0.03125 1:0.76 4:0.02 
-0.03125 1:0.77 4:0.02 
-0.03125 1:0.76 4:0.02 
-0.03125 1:0.76 4:0.02 
-0.03125 1:0.76 4:0.02 
-0.03125 1:0.76 4:0.02 
-0.03125 1:0.76 4:0.02 
-0.03125 1:0.76 4:0.02 
-0.03125 1:0.76 4:0.02 
-0.03125 1:0.76 4:0.02 
-0.03125 1:0.76 4:0.02 
-0.03125 1:0.77 4:0.02 
-0.03125 1:0.76 4:0.02 
-0.03125 1:0.76 4:0.02 
-0.03125 1:0.76 4:0.02 
-0.03125 1:0.76 4:0.02 
-0.03125 1:0.76 4:0.02 
-0.03125 1:0.76 4:0.02 
-0.03125 1:0.76 4:0.02 
-0.03125 1:0.76 4:0.02 
-0.03125 1:0.76 4:0.02 
-0.03125 1:0.76 4:0.02 
-0.03125 1:0.76 4:0.02 
-0.03125 1:0.76 4:0.02 
-0.03125 1:0.76 4:0.02 
-0.03125 1:0.76 4:0.02 
-0.03125 1:0.76 4:0.02 
-0.03125 1:0.76 4:0.02 
-0.03125 1:0.76 4:0.02 
-0.03125 1:0.76 4:0.02 
-0.03125 1:0.76 4:0.02 
-0.03125 1:0.76 4:0.02 
-0.03125 1:0.76 4:0.02 
-0.03125 1:0.76 4:0.02 
-0.03125 1:0.76 4:0.02 
-0.03125 1:0.66 4:0.02 
-0.03125 1:1 4:0.02 
-0.03125 1:1 4:0.02 
-0.03125 1:1 4:0.02 
-0.03125 1:1 4:0.01 
-0.03125 1:1 4:0.02 
-0.03125 1:1 4:0.02 
-0.03125 1:1 4:0.02 
-0.03125 1:1 4:0.02 
-0.03125 1:1 4:0.02 
-0.03125 1:1 4:0.02 
-0.03125 1:1 4:0.02 
-0.03125 1:1 4:0.02 
-0.03125 1:1 4:0.02 
-0.03125 1:1 4:0.02 
-0.03125 1:1 4:0.02 
-0.03125 1:1 4:0.01 
-0.03125 1:1 4:0.02 
-0.03125 1:1 4:0.02 
-0.03125 1:1 4:0.02 
-0.03125 1:1 4:0.01 
-0.03125 1:1 4:0.02 
-0.03125 1:1 4:0.02 
-0.03125 1:1 4:0.01 
-0.03125 1:1 4:0.02 
-0.03125 1:1 4:0.02 
-0.03125 1:1 4:0.02 
-0.03125 1:1 4:0.02 
-0.03125 1:1 4:0.02 
-0.03125 1:1 4:0.02 
-0.03125 1:1 4:0.02 
-0.03125 1:1 4:0.02 
-0.03125 1:1 4:0.02 
-0.03125 1:1 4:0.02 
-0.03125 1:1 4:0.02 
-0.03125 1:1 4:0.02 
-0.03125 1:1 4:0.02 
-0.03125 1:1 4:0.02 
-0.03125 1:1 4:0.02 
-0.03125 1:1 4:0.02 
-0.03125 1:1 4:0.02 
-0.03125 1:1 4:0.02 
-0.03125 1:1 4:0.01 
-0.03125 1:1 4:0.02 
-0.03125 1:1 4:0.02 
-0.03125 1:1 4:0.02 
-0.03125 1:1 4:0.02 
-0.03125 1:1 4:0.02 
-0.03125 1:1 4:0.02 
-0.03125 1:1 4:0.02 
-0.03125 1:1 4:0.02 
-0.03125 1:1 4:0.02 
-0.03125 1:1 4:0.02 
-0.03125 1:1 4:0.02 
-0.03125 1:1 4:0.02 
-0.03125 1:1 4:0.02 
-0.03125 1:1 4:0.02 
-0.03125 1:1 4:0.02 
-0.03125 1:1 4:0.02 
-0.03125 1:1 4:0.02 
-0.03125 1:1 4:0.02 
-0.03125 1:1 4:0.02 
-0.03125 1:1 4:0.02 
-0.03125 1:1 4:0.02 
-0.03125 1:1 4:0.02 
-0.03125 1:1 4:0.02 
-0.03125 1:1 4:0.02 
-0.03125 1:1 4:0.02 
-0.03125 1:1 4:0.02 
-0.03125 1:1 4:0.02 
-0.03125 1:1 4:0.02 
-0.03125 1:1 4:0.02 
-0.03125 1:1 4:0.02 
-0.03125 1:1 4:0.02 
-0.03125 1:1 4:0.02 
-0.03125 1:1 4:0.02 
-0.03125 1:1 4:0.02 
-0.03125 1:1 4:0.02 
-0.03125 1:1 4:0.02 
-0.03125 1:1 4:0.02 
-0.03125 1:1 4:0.02 
-0.03125 1:1 4:0.02 
-0.03125 1:1 4:0.02 
-0.03125 1:1 4:0.01 
-0.03125 1:1 4:0.02 
-0.03125 1:1 4:0.02 
-0.03125 1:1 4:0.02 
-0.03125 1:1 4:0.02 
-0.03125 1:1 4:0.02 
-0.03125 1:1 4:0.02 
-0.03125 1:1 4:0.02 
-0.03125 1:1 4:0.02 
-0.03125 1:1 4:0.02 
-0.03125 1:1 4:0.02 
-0.03125 1:1 4:0.02 
-0.03125 1:1 4:0.02 
-0.03125 1:1 4:0.02 
-0.03125 1:1 4:0.02 
-0.03125 1:1 4:0.02 
-0.03125 1:1 4:0.02 
-0.03125 1:1 4:0.02 
-0.03125 1:1 4:0.01 
-0.03125 1:1 4:0.02 
-0.03125 1:1 4:0.02 
-0.03125 1:1 4:0.02 
-0.03125 1:1 4:0.02 
-0.03125 1:1 4:0.02 
-0.03125 1:1 4:0.02 
-0.03125 1:1 4:0.02 
-0.03125 1:1 4:0.02 
-0.03125 1:1 4:0.02 
-0.03125 1:1 4:0.02 
-0.03125 1:1 4:0.01 
-0.03125 1:1 4:0.02 
-0.03125 1:1 4:0.02 
-0.03125 1:1 4:0.02 
-0.03125 1:1 4:0.02 
-0.03125 1:1 4:0.02 
-0.03125 1:1 4:0.02 
-0.03125 1:1 4:0.02 
-0.03125 1:1 4:0.02 
-0.03125 1:1 4:0.02 
-0.03125 1:1 4:0.02 
-0.03125 1:1 4:0.02 
-0.03125 1:1 4:0.02 
-0.03125 1:1 4:0.02 
-0.03125 1:1 4:0.02 
-0.03125 1:1 4:0.02 
-0.03125 1:1 4:0.02 
-0.03125 1:1 4:0.02 
-0.03125 1:1 4:0.02 
-0.03125 1:1 4:0.02 
-0.03125 1:1 4:0.02 
-0.03125 1:1 4:0.02 
-0.03125 1:1 4:0.02 
-0.03125 1:1 4:0.02 
-0.03125 1:1 4:0.02 
-0.03125 1:1 4:0.02 
-0.03125 1:1 4:0.02 
-0.03125 1:1 4:0.02 
-0.03125 1:1 4:0.02 
-0.03125 1:1 4:0.02 
-0.03125 1:1 4:0.02 
-0.03125 1:1 4:0.02 
-0.03125 1:1 4:0.02 
-0.03125 1:1 4:0.02 
-0.03125 1:1 4:0.02 
-0.03125 1:1 4:0.02 
-0.03125 1:1 4:0.02 
-0.03125 1:1 4:0.02 
-0.03125 1:1 4:0.02 
-0.03125 1:1 4:0.02 
-0.03125 1:1 4:0.02 
-0.03125 1:1 4:0.02 
-0.03125 1:1 4:0.02 
-0.03125 1:1 4:0.02 
-0.03125 1:1 4:0.02 
-0.03125 1:1 4:0.02 
-0.03125 1:1 4:0.02 
-0.03125 1:1 4:0.02 
-0.03125 1:1 4:0.02 
-0.03125 1:1 4:0.02 
-0.03125 1:1 4:0.02 
-0.03125 1:1 4:0.02 
-0.03125 1:1 4:0.02 
-0.03125 1:1 4:0.02 
-0.03125 1:1 4:0.02 
-0.03125 1:1 4:0.02 
-0.03125 1:1 4:0.02 
-0.03125 1:1 4:0.02 
-0.03125 1:1 4:0.02 
-0.03125 1:1 4:0.01 
-0.03125 1:1 4:0.02 
-0.03125 1:1 4:0.02 
-0.03125 1:1 4:0.02 
-0.03125 1:1 4:0.02 
-0.03125 1:1 4:0.02 
-0.03125 1:1 4:0.02 
-0.03125 1:1 4:0.02 
-0.03125 1:1 4:0.02 
-0.03125 1:1 4:0.02 
-0.03125 1:1 4:0.02 
-0.03125 1:1 4:0.02 
-0.03125 1:1 4:0.02 
-0.03125 1:1 4:0.02 
-0.03125 1:1 4:0.02 
-0.03125 1:1 4:0.02 
-0.03125 1:1 4:0.02 
-0.03125 1:1 4:0.02 
-0.03125 1:1 4:0.02 
-0.03125 1:1 4:0.02 
-0.03125 1:1 4:0.02 
-0.03125 1:1 4:0.02 
-0.03125 1:1 4:0.02 
-0.03125 1:1 4:0.02 
-0.03125 1:1 4:0.02 
-0.03125 1:1 4:0.02 
-0.03125 1:1 4:0.02 
-0.03125 1:1 4:0.02 
-0.03125 1:1 4:0.02 
-0.03125 1:1 4:0.02 
-0.03125 1:0.71 4:0.02 
-0.03125 1:0.7 4:0.02 
-0.03125 1:0.7 4:0.02 
-0.03125 1:0.7 4:0.03 
-0.03125 1:0.7 4:0.02 
-0.03125 1:0.7 4:0.02 
-0.03125 1:0.7 4:0.03 
-0.03125 1:0.7 4:0.02 
-0.03125 1:0.7 4:0.02 
-0.03125 1:0.7 4:0.02 
-0.03125 1:0.7 4:0.03 
-0.03125 1:0.7 4:0.03 
-0.03125 1:0.71 4:0.02 
-0.03125 1:0.7 4:0.02 
-0.03125 1:0.7 4:0.02 
-0.03125 1:0.7 4:0.02 
-0.03125 1:0.7 4:0.02 
-0.03125 1:0.7 4:0.03 
-0.03125 1:0.7 4:0.02 
-0.03125 1:0.7 4:0.02 
-0.03125 1:0.7 4:0.03 
-0.03125 1:0.7 4:0.02 
-0.03125 1:0.7 4:0.03 
-0.03125 1:0.71 4:0.02 
-0.03125 1:0.7 4:0.02 
-0.03125 1:0.71 4:0.03 
-0.03125 1:0.7 4:0.02 
-0.03125 1:0.71 4:0.02 
-0.03125 1:0.7 4:0.02 
-0.03125 1:0.7 4:0.02 
-0.03125 1:0.7 4:0.02 
-0.03125 1:0.7 4:0.02 
-0.03125 1:0.7 4:0.02 
-0.03125 1:0.7 4:0.02 
-0.03125 1:0.7 4:0.02 
-0.03125 1:0.7 4:0.02 
-0.03125 1:0.71 4:0.02 
-0.03125 1:0.71 4:0.02 
-0.03125 1:0.7 4:0.02 
-0.03125 1:0.71 4:0.02 
-0.03125 1:0.7 4:0.02 
-0.03125 1:0.7 4:0.02 
-0.03125 1:0.71 4:0.02 
-0.03125 1:0.7 4:0.02 
-0.03125 1:0.7 4:0.02 
-0.03125 1:0.7 4:0.02 
-0.03125 1:0.7 4:0.03 
-0.03125 1:0.7 4:0.02 
-0.03125 1:0.7 4:0.02 
-0.03125 1:0.7 4:0.02 
-0.03125 1:0.7 4:0.02 
-0.03125 1:0.7 4:0.03 
-0.03125 1:0.7 4:0.02 
-0.03125 1:0.7 4:0.03 
-0.03125 1:0.7 4:0.02 
-0.03125 1:0.71 4:0.02 
-0.03125 1:0.7 4:0.03 
-0.03125 1:0.7 4:0.03 
-0.03125 1:0.71 4:0.02 
-0.03125 1:0.7 4:0.02 
-0.03125 1:0.71 4:0.02 
-0.03125 1:0.7 4:0.02 
-0.03125 1:0.7 4:0.02 
-0.03125 1:0.7 4:0.02 
-0.03125 1:0.7 4:0.02 
-0.03125 1:0.71 4:0.02 
-0.03125 1:0.7 4:0.02 
-0.03125 1:0.7 4:0.02 
-0.03125 1:0.7 4:0.02 
-0.03125 1:0.7 4:0.02 
-0.03125 1:0.7 4:0.02 
-0.03125 1:0.7 4:0.02 
-0.03125 1:0.71 4:0.02 
-0.03125 1:0.7 4:0.02 
-0.03125 1:0.71 4:0.02 
-0.03125 1:0.7 4:0.02 
-0.03125 1:0.7 4:0.02 
-0.03125 1:0.7 4:0.02 
-0.03125 1:0.7 4:0.03 
-0.03125 1:0.71 4:0.02 
-0.03125 1:0.71 4:0.02 
-0.03125 1:0.71 4:0.02 
-0.03125 1:0.71 4:0.02 
-0.03125 1:0.7 4:0.02 
-0.03125 1:0.71 4:0.02 
-0.03125 1:0.7 4:0.02 
-0.03125 1:0.7 4:0.02 
-0.03125 1:0.7 4:0.02 
-0.03125 1:0.7 4:0.02 
-0.03125 1:0.7 4:0.02 
-0.03125 1:0.7 4:0.02 
-0.03125 1:0.71 4:0.02 
-0.03125 1:0.7 4:0.02 
-0.03125 1:0.71 4:0.02 
-0.03125 1:0.7 4:0.02 
-0.03125 1:0.7 4:0.03 
-0.03125 1:0.7 4:0.02 
-0.03125 1:0.7 3:0.01 4:0.03 
-0.03125 1:0.7 4:0.02 
-0.03125 1:0.7 4:0.02 
-0.03125 1:0.71 4:0.02 
-0.03125 1:0.7 4:0.02 
-0.03125 1:0.7 4:0.02 
-0.03125 1:0.7 4:0.02 
-0.03125 1:0.7 4:0.02 
-0.03125 1:0.7 4:0.02 
-0.03125 1:0.7 4:0.03 
-0.03125 1:0.7 4:0.03 
-0.03125 1:0.7 4:0.02 
-0.03125 1:0.7 4:0.02 
-0.03125 1:0.7 4:0.02 
-0.03125 1:0.7 4:0.02 
-0.03125 1:0.7 4:0.02 
-0.03125 1:0.7 4:0.02 
-0.03125 1:0.7 4:0.02 
-0.03125 1:0.71 4:0.02 
-0.03125 1:0.7 4:0.02 
-0.03125 1:0.7 4:0.02 
-0.03125 1:0.71 4:0.03 
-0.03125 1:0.7 4:0.02 
-0.03125 1:0.7 4:0.02 
-0.03125 1:0.71 4:0.02 
-0.03125 1:0.7 4:0.02 
-0.03125 1:0.7 4:0.02 
-0.03125 1:0.71 4:0.02 
-0.03125 1:0.7 4:0.02 
-0.03125 1:0.71 4:0.02 
-0.03125 1:0.7 4:0.02 
-0.03125 1:0.7 4:0.02 
-0.03125 1:0.71 4:0.03 
-0.03125 1:0.7 4:0.03 
-0.03125 1:0.7 4:0.02 
-0.03125 1:0.7 4:0.03 
-0.03125 1:0.7 4:0.02 
-0.03125 1:0.7 4:0.02 
-0.03125 1:0.7 4:0.02 
-0.03125 1:0.7 4:0.02 
-0.03125 1:0.7 4:0.02 
-0.03125 1:0.7 4:0.02 
-0.03125 1:0.71 4:0.02 
-0.03125 1:0.7 4:0.03 
-0.03125 1:0.7 4:0.02 
-0.03125 1:0.71 4:0.02 
-0.03125 1:0.7 4:0.02 
-0.03125 1:0.7 4:0.02 
-0.03125 1:0.7 4:0.02 
-0.03125 1:0.7 4:0.02 
-0.03125 1:0.7 4:0.02 
-0.03125 1:0.7 4:0.02 
-0.03125 1:0.7 4:0.02 
-0.03125 1:0.7 4:0.03 
-0.03125 1:0.7 4:0.02 
-0.03125 1:0.71 4:0.02 
-0.03125 1:0.7 4:0.02 
-0.03125 1:0.7 4:0.02 
-0.03125 1:0.7 4:0.03 
-0.03125 1:0.7 4:0.02 
-0.03125 1:0.7 4:0.02 
-0.03125 1:0.71 4:0.02 
-0.03125 1:0.7 4:0.02 
-0.03125 1:0.7 4:0.02 
-0.03125 1:0.7 4:0.02 
-0.03125 1:0.7 4:0.03 
-0.03125 1:0.7 4:0.02 
-0.03125 1:0.7 4:0.02 
-0.03125 1:0.7 4:0.02 
-0.03125 1:0.7 4:0.02 
-0.03125 1:0.7 4:0.02 
-0.03125 1:0.7 4:0.03 
-0.03125 1:0.7 4:0.02 
-0.03125 1:0.71 4:0.02 
-0.03125 1:0.7 4:0.02 
-0.03125 1:0.7 4:0.03 
-0.03125 1:0.7 4:0.03 
-0.03125 1:0.71 4:0.02 
-0.03125 1:0.7 4:0.02 
-0.03125 1:0.7 4:0.02 
-0.03125 1:0.71 4:0.02 
-0.03125 1:0.7 4:0.02 
-0.03125 1:0.7 4:0.03 
-0.03125 1:0.71 4:0.03 
-0.03125 1:0.7 4:0.03 
-0.03125 1:0.7 4:0.02 
-0.03125 1:0.71 4:0.02 
-0.03125 1:0.7 4:0.02 
-0.03125 1:0.7 4:0.02 
-0.03125 1:0.71 4:0.03 
-0.03125 1:0.7 4:0.02 
-0.03125 1:0.7 4:0.02 
-0.03125 1:0.71 4:0.02 
-0.03125 1:0.7 4:0.03 
-0.03125 1:0.7 4:0.03 
-0.03125 1:0.71 4:0.03 
-0.03125 1:0.7 4:0.03 
-0.03125 1:0.71 4:0.03 
-0.03125 1:0.7 4:0.03 
-0.03125 1:0.71 4:0.02 
-0.03125 1:0.71 4:0.02 
-0.03125 1:0.7 4:0.02 
-0.03125 1:0.61 4:0.02 
