svm_type c_svc
kernel_type rbf
gamma 0.333333
nr_class 2
total_sv 429
rho -0.612739
label 12 14
nr_sv 293 136
SV
0.3873867695525647 0:10.51 1:796317 2:1717 
0.3875488513245346 0:12.99 1:795669 2:1715 3:100 
0.3875025243060721 0:18.59 1:693937 2:1717 
0.3871250068460718 0:11.54 1:694333 2:1715 
0.3875169196851515 0:10.12 1:694361 2:1713 
0.3872793531957865 0:18.03 1:694381 2:1712 3:6 
0.3873777038075952 0:34.24 1:694373 2:1710 
0.3840770933903039 0:10.88 1:694353 2:1709 
0.3871019756290764 0:15.12 1:694377 2:1707 
0.3838271616454383 0:13.19 1:694353 2:1706 
0.3873865100885329 0:10.95 1:694357 2:1704 3:6 
0.3873329157963855 0:10.38 1:694377 2:1702 
0.3870598996614716 0:9.07 1:694445 2:1700 
0.3871631489634147 0:1.89 1:694445 2:1699 
0.3870640281634573 0:9.03 1:694433 2:1697 3:6 
0.3874455852551102 0:12.56 1:694445 2:1696 3:6 
0.3871578939830715 0:8.58 1:694717 2:1694 3:6 
0.3875468667843936 0:0.72 1:694997 2:1693 3:6 
0.3873865106530419 0:53.14 1:695073 2:1691 
0.3870870941527941 0:1.77 1:695049 2:1690 3:6 
0.3876684565515028 0:22.91 1:695045 2:1688 
0.3871439008502062 0:16.48 1:695037 2:1687 
0.3867055673119091 0:11.48 1:695049 2:1685 
0.3873545825020844 0:20.65 1:695041 2:1684 
0.3873776436502159 0:22.9 1:695041 2:1682 3:6 
0.3869944416482434 0:18.89 1:695037 2:1681 
0.3873543471198257 0:12.75 1:694993 2:1679 
0.3875528320013757 0:21.47 1:694985 2:1678 
0.3871343567595679 0:14.5 1:694989 2:1676 
0.3870582443950528 0:22.42 1:694985 2:1675 3:6 
0.387387993011545 0:9.64 1:695125 2:1674 
0.3862341035174651 0:20.62 1:695781 2:1672 
0.387279353195933 1:695781 2:1671 
0.3869391294763387 0:20.31 1:695785 2:1669 
0.3861401553231966 0:22.31 1:695781 2:1668 
0.3875484366880095 0:7.16 1:695785 2:1666 
0.3873125718497683 0:16.56 1:695785 2:1665 
0.3874580377536885 0:19.69 1:696681 2:1663 
0.3874455854527256 0:16.43 1:696709 2:1662 
0.3873910397664683 0:9.97 1:696749 2:1661 
0.387670101838 0:14.53 1:696733 2:1659 
0.3870871837967261 0:15.13 1:696749 2:1658 3:6 
0.3874488187890314 0:23.8 1:696809 2:1656 
0.3870223754750996 0:11.81 1:697117 2:1655 
0.3872677438887644 0:14.42 1:697093 2:1653 
0.3871013574517518 0:13.21 1:697089 2:1652 3:6 
0.3871730111004781 0:17.63 1:697085 2:1651 
0.3876287917627483 0:10.43 1:697217 2:1649 3:6 
0.3870971555995074 0:14.88 1:697197 2:1648 
0.3871973780309089 0:14.06 1:697257 2:1646 
0.3132832408484613 0:12.06 1:697269 2:1645 
0.3134447984863684 0:12.64 1:697269 2:1643 
0.3871321263945927 0:14.85 1:697261 2:1642 
0.3876609422089956 0:19.8 1:697257 2:1641 3:6 
0.3873519152842488 0:13.1 1:697265 2:1639 
0.3873921514200516 0:15.83 1:697221 2:1638 3:6 
0.3875897631700593 0:12.25 1:697217 2:1636 
0.3875516287648106 0:20.77 1:697221 2:1635 
0.3876607515452932 0:20.91 1:697185 2:1634 
0.3872635007790086 0:12.22 1:697189 2:1632 
0.3875050938407947 0:8.85 1:697193 2:1631 3:6 
0.3871487402561619 0:16.6 1:697185 2:1629 
0.3822529569071315 0:12.47 1:697193 2:1628 
0.3779055360323578 0:11.4 1:697189 2:1627 
0.3831233210747198 0:14.59 1:697193 2:1625 
0.3792913252104358 0:9.81 1:697189 2:1624 
0.3876275614919438 0:15.26 1:697193 2:1622 3:6 
0.3870211851642432 0:10.64 1:697189 2:1621 3:6 
0.3870804548782058 0:11.04 1:697193 2:1620 
0.3871197628269525 0:8.94 1:697221 2:1618 
0.387344738977277 0:20.77 1:697241 2:1617 
0.387385779433183 0:16.97 1:697257 2:1616 
0.3870421762170156 0:16.13 1:697313 2:1614 
0.2250337258811975 0:12.15 1:697501 2:1613 
0.2264938579466001 0:12.21 1:697501 2:1612 
0.3871731528255736 0:21.13 1:697525 2:1610 3:5 
0.3873662931998016 0:15.21 1:697477 2:1609 
0.3870573350881452 0:61.6 1:697461 2:1607 3:6 
0.3870975141075197 0:51.74 1:697457 2:1606 
0.3874733030357724 0:19.71 1:697461 2:1605 
0.387022375400793 0:19.1 1:697473 2:1603 
0.3871013623798495 0:14.67 1:697481 2:1602 
0.3872268627233704 0:33.5 1:697489 2:1601 
0.3871188070339342 0:31.67 1:697509 2:1598 
0.3875336354889164 0:29.43 1:697497 2:1597 
0.387047328182393 0:16.08 1:697497 2:1596 3:6 
0.3875488508367115 0:13.74 1:697493 2:1594 
0.3875314737092128 0:13.83 1:697501 2:1593 3:6 
0.3870992880145425 0:12.01 1:697477 2:1592 3:6 
0.3873954078534627 0:38.56 1:697477 2:1590 
0.3875897609369002 0:13.06 1:697473 2:1589 
0.3873662912468844 0:17.58 1:697473 2:1588 3:6 
0.3873416457628083 0:32.18 1:697517 2:1586 
0.3871437466111278 0:49.09 1:697489 2:1585 3:6 
0.3875605049700532 0:24.57 1:697489 2:1584 
0.3870971794470237 0:39.67 1:697505 2:1583 3:6 
0.3876609409614439 0:16.38 1:697517 2:1581 3:6 
0.3870597970249584 0:14.39 1:697529 2:1580 
0.3876281268841118 0:14.2 1:697541 2:1579 3:6 
0.3871636856483108 0:11.01 1:697541 2:1577 
0.3873777038075951 0:18.29 1:722117 2:1576 3:6 
0.3873897935346412 0:14.65 1:720717 2:1575 3:6 
0.3873910397827526 0:12.51 1:725189 2:1574 3:20 
0.3875529196928585 0:25.23 1:711209 2:1572 
0.3874929891533044 0:25.42 1:711801 2:1571 3:6 
0.3872268627296994 0:20.5 1:713413 2:1570 3:6 
0.3875516276669129 0:21 1:713425 2:1569 3:6 
0.3870975128897949 0:19.29 1:713429 2:1567 
0.3870223754750997 0:14.64 1:713765 2:1566 3:6 
0.3871141329201132 0:22.2 1:712741 2:1565 
0.3870042907173715 0:19.04 1:712681 2:1564 3:6 
0.3870223754750996 0:24.01 1:712545 2:1562 3:6 
0.3870561113892261 0:24.86 1:713137 2:1561 
0.3870992886972526 0:11.69 1:713653 2:1560 3:6 
0.3870870941527941 0:15.15 1:714913 2:1559 3:6 
0.3871389079138113 0:12.41 1:715045 2:1557 3:6 
0.3874929891533044 0:31.65 1:715041 2:1556 3:6 
0.3872936518405172 0:15.15 1:715041 2:1555 
0.387146074068779 0:21.4 1:715041 2:1553 
0.3875050954789366 0:17.4 1:715025 2:1552 
0.3875516288069104 0:32.72 1:715029 2:1551 
0.3872268557848205 0:21.64 1:706785 2:1550 3:6 
0.3876351869497653 0:17.53 1:706957 2:1548 
0.3870217225702373 0:16.97 1:714389 2:1547 3:6 
0.3870597970249584 0:16.84 1:718365 2:1546 
0.3875487578214449 0:15.21 1:718437 2:1545 3:6 
0.3871679031703626 1:713297 2:1544 
0.386960855291451 0:18.8 1:713301 2:1543 3:6 
0.3870195594577555 0:19.43 1:713297 2:1541 3:6 
0.3873910397827526 0:29.04 1:713257 2:1540 
0.3871729073653929 0:18.41 1:713329 2:1539 
0.3869628079049479 0:33.85 1:706053 2:1538 
0.3874488187890313 0:19.42 1:706065 2:1536 
0.3875424964623203 0:16.76 1:714769 2:1535 3:6 
0.3873878242928289 0:15.85 1:714757 2:1534 3:13 
0.387385779433183 0:27.21 1:714713 2:1533 3:6 
0.3873904535057817 0:19.82 1:714805 2:1532 3:6 
0.3873897935346411 0:12.68 1:714849 2:1530 
0.3873795097043687 0:24.13 1:714921 2:1529 3:6 
0.3873878120687621 0:13.2 1:714961 2:1528 
0.3873886118971986 0:23.01 1:714977 2:1527 
0.3082794296571953 0:10.68 1:715001 2:1525 
0.3075895516608396 0:12.43 1:715001 2:1524 
0.387334881478704 0:2.68 1:715025 2:1523 
0.3872941210266248 0:19.38 1:715221 2:1522 3:12 
0.387247984873746 0:14.1 1:716049 2:1521 3:13 
0.3870202656337011 0:21.78 1:715941 2:1519 3:6 
0.3869707037194807 0:13.85 1:715849 2:1518 3:20 
0.3872070949139167 0:13.79 1:703765 2:1517 
0.3871189055084642 0:33.87 1:703777 2:1516 
0.3870989178097022 0:17.69 1:703785 2:1515 
0.3870597970249584 0:18.08 1:703749 2:1513 
0.3872070949139168 0:17.28 1:703737 2:1512 3:12 
0.3872810181765716 0:19.63 1:702865 2:1511 3:6 
0.3873898890922095 0:11.51 1:698633 2:1510 3:6 
0.3873749151349636 0:9.12 1:710985 2:1509 
0.3873910397829544 0:8.52 1:141443 2:2653 
0.3871756935121033 0:21.47 1:175578 2:2566 
0.3871197628269525 0:16.09 1:179487 2:2554 
0.3870992887022147 0:13.3 1:183368 2:2541 
0.3875516288069105 0:13.27 1:190010 2:2530 
0.3872268627233666 0:23.14 1:197628 2:2519 
0.3872955868663117 0:15.3 1:203954 2:2508 3:6 
0.3870501979213279 0:24.58 1:210648 2:2497 
0.3870646284122741 0:12.81 1:220184 2:2486 3:6 
0.3875516288069104 0:21.51 1:226502 2:2477 
0.3875516287997297 0:25.29 1:227766 2:2490 
0.387132281862655 0:21.45 1:236909 2:2479 3:6 
0.3876287494549557 0:23.42 1:240798 2:2468 
0.3875366533327398 0:14.02 1:244411 2:2456 
0.3873989093070581 0:13.96 1:251909 2:2447 3:6 
0.3870192273392044 0:12.79 1:256643 2:2437 
0.3870599094273063 0:20.94 1:261260 2:2425 
0.387332967721554 0:17.25 1:265738 2:2414 
0.3871731528255736 0:19.87 1:272960 2:2404 3:6 
0.3871463018607276 0:15.17 1:278961 2:2395 
0.3871197629661672 0:33.85 1:281386 2:2384 
0.3872268627296994 0:16.85 1:283810 2:2373 
0.3874016313518163 0:24.87 1:288559 2:2363 
0.3871179149054704 0:15.48 1:292427 2:2352 3:6 
0.3871677802487956 0:13.89 1:298096 2:2343 
0.3870573350881452 0:10.78 1:305141 2:2334 
0.387087094152794 0:18.33 1:316390 2:2326 
0.3870176415333991 0:8.25 1:326721 2:2317 
0.3873897620751152 0:24.02 1:328497 2:2307 3:6 
0.3873897935346411 0:20.22 1:332942 2:2297 
0.3873911793959751 0:78.04 1:335850 2:2287 
0.3872070949139167 0:19.71 1:355626 2:2278 3:18 
0.3870992886972527 0:17.95 1:354730 2:2268 
0.3872070949139167 0:19.53 1:354678 2:2257 
0.387450999545511 0:11.26 1:354721 2:2247 3:12 
0.3872268627233666 0:15.93 1:355181 2:2236 
0.3873867695525647 0:18.91 1:354065 2:2224 
0.3870975140331906 0:15.76 1:354193 2:2213 
0.387387812068762 0:35.17 1:354181 2:2204 
0.3871063598755297 0:20.26 1:354168 2:2193 
0.3870512696680131 0:19.71 1:354176 2:2183 
0.3870870941527941 0:15.19 1:353652 2:2172 
0.3870421762170158 0:20.81 1:354072 2:2163 
0.3871731528260174 0:11.27 1:354080 2:2152 
0.3876255672503934 0:17 1:354056 2:2142 
0.3871040041156726 0:14.7 1:354060 2:2132 
0.3870972188207307 0:9.33 1:354291 2:2122 
0.3873299030035391 0:28.49 1:354231 2:2113 
0.3875605049700532 0:11.16 1:354263 2:2103 
0.387154965410431 0:21.61 1:354263 2:2094 3:6 
0.3870042907173715 0:5.46 1:354242 2:2084 
0.3876351869497654 0:27.73 1:354762 2:2075 
0.3871631585143011 0:16.33 1:354890 2:2065 
0.3871731528260173 0:18.86 1:354882 2:2056 
0.3870597970249585 0:10.31 1:355230 2:2046 
0.3870447074608562 0:16.91 1:355198 2:2038 3:6 
0.387391179395975 0:16.91 1:355730 2:2029 
0.3873886118971986 0:69.59 1:355725 2:2020 
0.3873449456357254 0:35.06 1:355745 2:2011 
0.3876255672503935 0:23.29 1:355721 2:2002 
0.3872268627233745 0:18.05 1:355733 2:1994 
0.3870192273392045 0:13.59 1:355732 2:1984 
0.3870394784015718 0:26.72 1:355728 2:1976 
0.3873382927412795 0:13.44 1:355744 2:1968 3:5 
0.3871677802487957 0:20.67 1:355704 2:1959 
0.3867055673118807 0:21.22 1:355724 2:1951 
0.3871941499506222 0:20.38 1:355727 2:1942 
0.3876287917627484 0:22.5 1:355711 2:1934 
0.3875169196859827 0:16.46 1:355835 2:1926 
0.3870223752107512 0:14.51 1:355815 2:1919 
0.3870506080775101 0:10.18 1:355827 2:1910 
0.3870561113891012 0:17.78 1:355839 2:1902 
0.3871197629660413 0:17.27 1:355838 2:1895 3:6 
0.3870870942638488 0:16.81 1:355838 2:1886 
0.3870922753903846 0:11.65 1:355850 2:1879 
0.3870971800188129 0:14.76 1:355838 2:1871 
0.3872700800332722 0:17.8 1:355838 2:1864 
0.3873666022209213 0:11.83 1:355845 2:1855 
0.387546866784393 0:10.39 1:355837 2:1848 3:6 
0.3871437464849492 0:11.89 1:355841 2:1841 
0.3871188069079455 0:11.16 1:355837 2:1834 
0.387628148009146 0:7.92 1:355833 2:1826 3:6 
0.3870870942638487 0:11.23 1:355821 2:1819 
0.3876179076805323 0:10.62 1:355828 2:1811 
0.3870972188207307 0:17.85 1:355824 2:1804 
0.3875233514093224 0:6.4 1:355820 2:1798 
0.387398909307058 0:11.93 1:355832 2:1791 3:6 
0.3873981170816257 0:8.1 1:355824 2:1783 
0.3873981170816256 0:4.58 1:355832 2:1776 3:5 
0.3872700739476388 0:6.85 1:355827 2:1769 
0.3871728997466404 0:5.74 1:355831 2:1763 
0.3871648976438642 0:6.69 1:355831 2:1756 3:6 
0.3870217223685044 0:2.8 1:355831 2:1749 3:6 
0.3873943999568695 0:6.54 1:355831 2:1743 
0.3873981170816258 0:8.1 1:355823 2:1736 
0.3871006610455358 0:6.56 1:355834 2:1730 
0.3870506079369004 0:6.11 1:355830 2:1723 
0.3871044993233647 0:5.73 1:355822 2:1716 
0.3871250068460716 0:5.25 1:355830 2:1709 
0.3873422848691523 0:15.28 1:355826 2:1703 
0.3872941210266248 0:9.08 1:355802 2:1697 
0.3871648978452216 0:10.26 1:355818 2:1690 
0.3871826837747178 0:6.03 1:355825 2:1684 3:6 
0.3876701134359377 0:9.35 1:355825 2:1678 
0.3873897935346408 0:4.17 1:355817 2:1672 
0.3873662934115217 0:8.1 1:355813 2:1666 3:6 
0.3875336354889205 0:16.66 1:355581 2:1660 
0.3873773647925894 0:15.1 1:355905 2:1654 3:6 
0.387377758872916 0:13.35 1:355897 2:1648 
0.387387993011545 0:16.25 1:355909 2:1642 3:6 
0.3873981170816257 0:7.95 1:355900 2:1637 
0.3876179076805324 0:8.43 1:355920 2:1631 3:6 
0.3875516287997298 0:21.75 1:355920 2:1625 
0.3871178871315852 0:14.95 1:355928 2:1619 
0.3873348529809226 0:17.84 1:355932 2:1614 
0.3870394778664849 0:12.82 1:355932 2:1608 
0.3870223753694821 0:13.22 1:355920 2:1602 
0.3870975141075197 0:13.28 1:355907 2:1597 
0.3870971794470237 0:17.06 1:355931 2:1591 3:6 
0.3870550611575607 0:12.1 1:355907 2:1585 
0.3873508396022017 0:10.79 1:355931 2:1580 3:6 
0.3872268557848206 0:23.76 1:355935 2:1574 
0.387551628799602 0:12.28 1:355923 2:1569 
0.3876609409614439 0:27.06 1:355931 2:1564 
0.3870223752107512 0:13.3 1:356027 2:1559 
0.3869581650968109 0:11.4 1:356242 2:1553 
0.3872359864434036 0:10.51 1:356242 2:1548 
0.3873103568616018 0:12.24 1:356242 2:1543 
0.3870599093984075 0:16.17 1:356234 2:1537 3:6 
0.3876701134363114 0:15.76 1:356274 2:1533 
0.3873898890922095 0:22.61 1:356686 2:1528 
0.3870599093984074 0:13.78 1:356686 2:1522 
0.3873749151349635 0:28.54 1:357726 2:1518 
0.3873662934115221 0:15.53 1:358742 2:1514 
0.3873382927412794 0:7.99 1:361187 2:1510 
0.3871233176865018 0:19.46 1:364939 2:1506 
0.3871637067673409 0:16.67 1:375375 2:1502 3:6 
-0.8790505982996424 0:0.9 1:2545992 2:38 
-0.7333926857056002 1:2545992 2:38 
-1 1:2545988 2:38 
-0.788803517981314 1:2546000 2:38 
-0.7588079963494943 0:0.22 1:2546000 2:38 
-1 1:2545900 2:38 3:20 
-1 1:2545896 2:38 
-0.05816566338542759 0:0.08 1:2545896 2:38 
-1 0:2.26 1:2545896 2:38 3:6 
-1 0:5.78 1:2545896 2:38 
-1 1:2545888 2:38 
-0.08844854028847467 0:1.48 1:2545896 2:38 
-1 0:6.12 1:2545892 2:38 
-0.59716608955021 1:2545908 2:38 
-0.6012936084711327 1:2545892 2:38 
-1 0:1.78 1:2545900 2:38 
-0.3189559873503162 1:2545900 2:38 
-0.9306259829017495 1:2545900 2:38 
-0.9992334385007202 1:2545892 2:38 
-1 1:2545904 2:38 3:13 
-1 0:1.53 1:2545896 2:38 
-0.8067718314368924 0:0.3 1:2545904 2:38 
-1 1:2545908 2:38 
-0.7954843350758527 1:2545912 2:38 
-0.8076125530390528 0:0.09 1:2545912 2:38 
-0.814425081416225 1:2545904 2:38 
-0.9439783189263968 1:2545932 2:38 
-1 0:22.26 1:2545916 2:38 
-1 0:82.88 1:2545920 2:37 
-1 0:1.92 1:2545924 2:37 
-0.6241060959437775 1:2545924 2:37 3:6 
-0.9883353142249988 1:2545924 2:37 3:6 
-0.9314274004868497 1:2545916 2:37 
-0.5968088677691308 1:2545924 2:37 
-0.1194804098700381 0:1.64 1:2545924 2:37 
-1 0:184.68 1:2545932 2:37 
-1 1:2545940 2:37 3:6 
-0.922869750261579 1:2545932 2:37 
-0.8352073254899848 0:0.49 1:2545940 2:37 
-0.5971673205101973 1:2545936 2:37 
-1 1:2545944 2:37 3:12 
-1 1:2545936 2:37 
-0.848362179372719 0:0.6 1:2545944 2:37 
-0.939165962505242 1:2545964 2:37 
-1 0:82.99 1:2545948 2:37 
-0.8262036709486329 1:2545940 2:37 
-0.4578483126913266 1:2545948 2:37 
-0.5975075061411529 1:2545952 2:37 
-1 1:2545952 2:37 
-1 0:2.43 1:2545948 2:37 
-1 0:1.36 1:2545956 2:37 
-0.9392322429430714 1:2545976 2:37 
-1 1:2545948 2:37 
-1 0:38.3 1:2545956 2:37 
-0.8448327681801679 1:2545944 2:37 
-0.3932382468259615 1:2545956 2:37 
-0.5971787065958323 1:2545960 2:36 
-0.9143543077375988 0:0.9 1:2545964 2:36 
-0.6119857099577177 1:2545964 2:36 3:6 
-0.9971545351826419 1:2545964 2:36 3:6 
-0.9305474060164379 1:2545956 2:36 
-1 1:2545960 2:36 
-0.5970387668694968 1:2545968 2:36 
-1 0:9.31 1:2545968 2:36 
-1 1:2545968 2:36 3:5 
-1 0:13.11 1:2545972 2:36 3:6 
-0.2261192079779989 1:2545964 2:36 
-0.811297908791997 0:0.22 1:2545972 2:36 
-0.7992769882042844 1:2545972 2:36 
-0.9248159341976143 1:2545976 2:36 
-1 1:2545968 2:36 
-1 0:0.3 1:2545976 2:36 3:6 
-0.5970219127036122 1:2545980 2:36 
-1 1:2545980 2:36 
-0.2840671044154243 1:2545984 2:36 
-1 0:1.62 1:2545984 2:36 
-1 1:2554144 2:36 
-1 0:0.3 1:2554440 2:36 
-1 1:2554348 2:36 
-1 1:2554372 2:36 
-1 1:2554376 2:36 3:6 
-1 1:2554676 2:36 
-1 0:25.42 1:2554684 2:36 
-1 0:36.72 1:2554684 2:36 
-1 1:2554680 2:36 
-1 0:0.3 1:2554688 2:36 3:6 
-0.7617277232438244 0:0.09 1:2554688 2:36 
-0.8533816810108684 1:2554688 2:36 
-0.4728202765051487 1:2546436 2:36 
-1 1:2546428 2:36 
-1 1:2546436 2:36 
-1 0:2.43 1:2546436 2:36 
-0.938946052278505 1:2545916 2:36 
-0.9284136972875719 1:2545924 2:36 
-0.7804342846619053 0:0.09 1:2545928 2:36 
-0.8223937289445212 1:2545928 2:36 
-1 1:2545920 2:36 
-0.9392244136659744 1:2546012 2:36 
-0.896281234178919 1:2545984 2:36 
-0.5914530455136975 1:2545992 2:36 
-0.05144873499550157 1:2545996 2:36 
-0.5597079141712813 1:2545988 2:36 
-0.7978797668107175 0:0.22 1:2545996 2:36 
-0.09253648578672052 1:2545996 2:36 
-0.7915346356945701 0:0.26 1:2545988 2:36 
-1 1:2545996 2:35 3:6 
-0.9329014985011526 1:2545996 2:35 
-0.7873592382553065 0:0.3 1:2546000 2:35 
-0.1266385183473289 1:2546012 2:35 
-1 1:2546000 2:35 3:6 
-1 0:0.6 1:2545992 2:35 
-1 0:13.62 1:2546000 2:35 
-0.008069504060741084 1:2546008 2:35 
-1 1:2546008 2:35 3:5 
-1 0:2.52 1:2546008 2:35 
-1 0:0.3 1:2546020 2:35 3:6 
-0.7600467324213351 1:2546000 2:35 
-0.4338054860373698 1:2546008 2:35 
-0.9735486112443124 1:2546008 2:35 
-0.3903482325929915 0:2.33 1:2546008 2:35 
-1 0:0.07 1:2546004 2:35 
-0.01661794435481168 1:2546012 2:35 
-1 0:0.3 1:2546016 2:35 
-0.8066603951982992 0:0.22 1:2546020 2:35 
-0.8149105282947117 1:2546020 2:35 
-0.8018011627720494 0:0.26 1:2546012 2:35 
-1 0:0.9 1:2554336 2:35 
-1 1:2556020 2:35 3:6 
-1 0:1.42 1:2560036 2:35 
-1 0:382.09 1:2557784 2:35 3:6 
-1 0:83.15 1:2553348 2:35 3:6 
-1 0:394.95 1:2552676 2:35 
-1 0:73.17 1:2552088 2:35 
-1 0:209.21 1:2552560 2:35 
-1 0:362.63 1:2554320 2:35 3:26 
-1 0:187.61 1:2561792 2:35 3:6 
