svm_type c_svc
kernel_type rbf
gamma 0.0078125
nr_class 2
total_sv 70
rho -0.585424
label 12 13
nr_sv 41 29
SV
0.2074361284294574 2:1195 3:632.2 4:22 
0.1757473074830716 2:1194 3:82.1 4:22.2 
0.2096548679115889 2:1195 3:633.4 4:22 
0.08228576445698293 2:1198 3:85.7 4:22.2 
0.3509078546778546 1:14.4545 2:1194 3:97 4:22.1 
0.0008895279319757711 1:14.4545 2:1198 3:92.7 4:22.1 
0.1427955998974474 2:1194 3:88.4 4:22.2 
0.2033716500154912 1:40.0909 2:1194 3:81.7 4:22.2 
0.2091929627419469 1:100.545 2:1198 3:82.3 4:22.1 
0.178274420651452 1:58.0909 2:1194 3:82 4:22.3 
0.2713420663914336 1:14.4545 2:1198 3:80.3 4:22.2 
0.1723934425251975 1:40.0909 2:1194 3:82.9 4:22.1 
0.0169459921550216 1:49.0909 2:1194 3:83 4:22.2 
0.2075583216007761 1:100.545 2:1198 3:83.5 4:22.1 
0.2008749550823588 1:58.0909 2:1193 3:83.2 4:22.3 
0.05604776848113824 1:14.4545 2:1194 3:81.5 4:22.2 
0.322497255649439 1:26.7143 2:1194 3:40.7 4:23.6 
0.04635372464525046 1:15.1429 2:1193 3:39.8 4:23.7 
0.1588856125309312 1:10.4286 2:1194 3:47.1 4:23.6 
0.2202980030150829 1:7.57143 2:1197 3:40.95 4:23.6 
0.0469755001538549 1:26.7143 2:1194 3:41.3 4:23.65 
0.05887011699770051 1:7.57143 2:1193 3:45 4:23.7 
0.2369600139226816 1:15.1429 2:1468 3:433.2 4:23.45 
0.2065653500389313 1:83.381 2:1464 3:38.5 4:23.6 
0.1423612994987876 1:16.1429 2:1468 3:39.45 4:23.6 
0.2375275365882277 1:18 2:1468 3:438.6 4:23.45 
0.4134250609138612 1:7.57143 2:1464 3:74.7 4:23.6 
0.175901857484811 1:7.57143 2:1464 3:39.95 4:23.6 
0.2088742741465888 1:83.381 2:1464 3:39.1 4:23.55 
0.2547876603328128 1:7.57143 2:1464 3:48.2 4:23.6 
0.3458347477248853 1:26.7143 2:1464 3:43.05 4:23.65 
0.168363482493738 1:27 2:1582 3:43.6 4:23.85 
0.38056429444788 1:51.5714 2:1588 3:9 4:24.9 
0.2459318966740169 1:27 2:1582 3:44.2 4:23.85 
0.2085038460814244 1:87.9524 2:1588 3:11.95 4:24.9 
0.3519283350820646 1:32.4286 2:1588 3:9.6 4:25 
0.2779822077040241 1:19 2:1588 3:18.45 4:24.5 
0.2085722947655979 1:87.9524 2:1588 3:13.15 4:24.85 
0.1841125824742877 1:7.57143 2:1591 3:15.5 4:24.9 
0.01390723688609558 1:51.5714 2:1588 3:9.2 4:24.9 
0.2943005814215243 1:7.57143 2:1589 3:6 4:24.95 
-0.5 1:12261.7 2:158 3:652.75 4:2.625 
-0.05787929613786125 1:12261.9 2:158 3:637.375 4:2.75 
-0.1844418062251435 1:12262.1 2:158 3:632.625 4:3 
-0.3007354551740801 1:12261.9 2:158 3:644.375 4:2.75 
-0.2812942227095563 1:12261.4 2:158 3:634.5 4:3 
-0.5 1:12261 2:161 3:652.5 4:3.375 
-0.04009897904359108 1:12261.7 2:162 3:627.875 4:2.375 
-0.5 1:12261.6 2:162 3:641.125 4:2.5 
-0.09445431332481544 1:12262 2:162 3:629.875 4:2.625 
-0.31325682627248 1:12261.9 2:162 3:625.875 4:3.125 
-0.41800612099757 1:12261.1 2:158 3:622.875 4:2.5 
-0.02188466159678466 1:12261.9 2:158 3:619.25 4:3.125 
-0.3177627546716819 1:12262 2:158 3:613.75 4:2.25 
-0.1435042193057094 1:12261.9 2:162 3:630.75 4:2.875 
-0.01173537357173305 1:12262 2:162 3:614 4:2.5 
-0.0547506675501805 1:12261.9 2:162 3:607.875 4:2.375 
-0.01405899980027268 1:12261.9 2:162 3:606.125 4:2.75 
-0.2692439693363628 1:12262 2:158 3:603.625 4:2.5 
-0.1678841475222682 1:12261.3 2:158 3:608.5 4:2.25 
-0.4545224238442308 1:12261.4 2:162 3:615 4:3.125 
-0.1202157538293833 1:12261.4 2:162 3:595.75 4:2.75 
-0.1039777661709577 1:12261.9 2:162 3:587 4:2.75 
-0.4490009136950744 1:12261 2:162 3:587.625 4:2.5 
-0.5 1:12261.9 2:157 3:593.25 4:2.625 
-0.3425223469055861 1:12261.4 2:157 3:584.875 4:2.25 
-0.4347723844223709 1:12261.9 2:158 3:572.75 4:2.5 
-0.5 1:12261.9 2:158 3:571.875 4:2.625 
-0.5 1:12261.4 2:162 3:602.375 4:3.25 
-0.5 1:12262 2:162 3:573.875 4:2.625 
