svm_type c_svc
kernel_type rbf
gamma 0.333333
nr_class 2
total_sv 593
rho 0.0283334
label 12 13
nr_sv 293 300
SV
1 0:10.51 1:796317 2:1717 
1 0:12.99 1:795669 2:1715 3:100 
1 0:18.59 1:693937 2:1717 
1 0:11.54 1:694333 2:1715 
1 0:10.12 1:694361 2:1713 
1 0:18.03 1:694381 2:1712 3:6 
1 0:34.24 1:694373 2:1710 
1 0:10.88 1:694353 2:1709 
1 0:15.12 1:694377 2:1707 
1 0:13.19 1:694353 2:1706 
1 0:10.95 1:694357 2:1704 3:6 
1 0:10.38 1:694377 2:1702 
1 0:9.07 1:694445 2:1700 
1 0:1.89 1:694445 2:1699 
1 0:9.03 1:694433 2:1697 3:6 
1 0:12.56 1:694445 2:1696 3:6 
1 0:8.58 1:694717 2:1694 3:6 
1 0:0.72 1:694997 2:1693 3:6 
1 0:53.14 1:695073 2:1691 
1 0:1.77 1:695049 2:1690 3:6 
1 0:22.91 1:695045 2:1688 
1 0:16.48 1:695037 2:1687 
1 0:11.48 1:695049 2:1685 
1 0:20.65 1:695041 2:1684 
1 0:22.9 1:695041 2:1682 3:6 
1 0:18.89 1:695037 2:1681 
1 0:12.75 1:694993 2:1679 
1 0:21.47 1:694985 2:1678 
1 0:14.5 1:694989 2:1676 
1 0:22.42 1:694985 2:1675 3:6 
1 0:9.64 1:695125 2:1674 
1 0:20.62 1:695781 2:1672 
1 1:695781 2:1671 
1 0:20.31 1:695785 2:1669 
1 0:22.31 1:695781 2:1668 
1 0:7.16 1:695785 2:1666 
1 0:16.56 1:695785 2:1665 
1 0:19.69 1:696681 2:1663 
1 0:16.43 1:696709 2:1662 
1 0:9.97 1:696749 2:1661 
1 0:14.53 1:696733 2:1659 
1 0:15.13 1:696749 2:1658 3:6 
1 0:23.8 1:696809 2:1656 
1 0:11.81 1:697117 2:1655 
1 0:14.42 1:697093 2:1653 
1 0:13.21 1:697089 2:1652 3:6 
1 0:17.63 1:697085 2:1651 
1 0:10.43 1:697217 2:1649 3:6 
1 0:14.88 1:697197 2:1648 
1 0:14.06 1:697257 2:1646 
0.8325148885211537 0:12.06 1:697269 2:1645 
0.8321552239041069 0:12.64 1:697269 2:1643 
1 0:14.85 1:697261 2:1642 
1 0:19.8 1:697257 2:1641 3:6 
1 0:13.1 1:697265 2:1639 
1 0:15.83 1:697221 2:1638 3:6 
1 0:12.25 1:697217 2:1636 
1 0:20.77 1:697221 2:1635 
1 0:20.91 1:697185 2:1634 
1 0:12.22 1:697189 2:1632 
1 0:8.85 1:697193 2:1631 3:6 
1 0:16.6 1:697185 2:1629 
1 0:12.47 1:697193 2:1628 
1 0:11.4 1:697189 2:1627 
1 0:14.59 1:697193 2:1625 
1 0:9.81 1:697189 2:1624 
1 0:15.26 1:697193 2:1622 3:6 
1 0:10.64 1:697189 2:1621 3:6 
1 0:11.04 1:697193 2:1620 
1 0:8.94 1:697221 2:1618 
1 0:20.77 1:697241 2:1617 
1 0:16.97 1:697257 2:1616 
1 0:16.13 1:697313 2:1614 
0.59900083601133 0:12.15 1:697501 2:1613 
0.5998303675304615 0:12.21 1:697501 2:1612 
1 0:21.13 1:697525 2:1610 3:5 
1 0:15.21 1:697477 2:1609 
1 0:61.6 1:697461 2:1607 3:6 
1 0:51.74 1:697457 2:1606 
1 0:19.71 1:697461 2:1605 
1 0:19.1 1:697473 2:1603 
1 0:14.67 1:697481 2:1602 
1 0:33.5 1:697489 2:1601 
1 0:31.67 1:697509 2:1598 
1 0:29.43 1:697497 2:1597 
1 0:16.08 1:697497 2:1596 3:6 
1 0:13.74 1:697493 2:1594 
1 0:13.83 1:697501 2:1593 3:6 
1 0:12.01 1:697477 2:1592 3:6 
1 0:38.56 1:697477 2:1590 
1 0:13.06 1:697473 2:1589 
1 0:17.58 1:697473 2:1588 3:6 
1 0:32.18 1:697517 2:1586 
1 0:49.09 1:697489 2:1585 3:6 
1 0:24.57 1:697489 2:1584 
1 0:39.67 1:697505 2:1583 3:6 
1 0:16.38 1:697517 2:1581 3:6 
1 0:14.39 1:697529 2:1580 
1 0:14.2 1:697541 2:1579 3:6 
1 0:11.01 1:697541 2:1577 
1 0:18.29 1:722117 2:1576 3:6 
1 0:14.65 1:720717 2:1575 3:6 
1 0:12.51 1:725189 2:1574 3:20 
1 0:25.23 1:711209 2:1572 
1 0:25.42 1:711801 2:1571 3:6 
1 0:20.5 1:713413 2:1570 3:6 
1 0:21 1:713425 2:1569 3:6 
1 0:19.29 1:713429 2:1567 
1 0:14.64 1:713765 2:1566 3:6 
1 0:22.2 1:712741 2:1565 
1 0:19.04 1:712681 2:1564 3:6 
1 0:24.01 1:712545 2:1562 3:6 
1 0:24.86 1:713137 2:1561 
1 0:11.69 1:713653 2:1560 3:6 
1 0:15.15 1:714913 2:1559 3:6 
1 0:12.41 1:715045 2:1557 3:6 
1 0:31.65 1:715041 2:1556 3:6 
1 0:15.15 1:715041 2:1555 
1 0:21.4 1:715041 2:1553 
1 0:17.4 1:715025 2:1552 
1 0:32.72 1:715029 2:1551 
1 0:21.64 1:706785 2:1550 3:6 
1 0:17.53 1:706957 2:1548 
1 0:16.97 1:714389 2:1547 3:6 
1 0:16.84 1:718365 2:1546 
1 0:15.21 1:718437 2:1545 3:6 
1 1:713297 2:1544 
1 0:18.8 1:713301 2:1543 3:6 
1 0:19.43 1:713297 2:1541 3:6 
1 0:29.04 1:713257 2:1540 
1 0:18.41 1:713329 2:1539 
1 0:33.85 1:706053 2:1538 
1 0:19.42 1:706065 2:1536 
1 0:16.76 1:714769 2:1535 3:6 
1 0:15.85 1:714757 2:1534 3:13 
1 0:27.21 1:714713 2:1533 3:6 
1 0:19.82 1:714805 2:1532 3:6 
1 0:12.68 1:714849 2:1530 
1 0:24.13 1:714921 2:1529 3:6 
1 0:13.2 1:714961 2:1528 
1 0:23.01 1:714977 2:1527 
0.8170976250814398 0:10.68 1:715001 2:1525 
0.8177855574817762 0:12.43 1:715001 2:1524 
1 0:2.68 1:715025 2:1523 
1 0:19.38 1:715221 2:1522 3:12 
1 0:14.1 1:716049 2:1521 3:13 
1 0:21.78 1:715941 2:1519 3:6 
1 0:13.85 1:715849 2:1518 3:20 
1 0:13.79 1:703765 2:1517 
1 0:33.87 1:703777 2:1516 
1 0:17.69 1:703785 2:1515 
1 0:18.08 1:703749 2:1513 
1 0:17.28 1:703737 2:1512 3:12 
1 0:19.63 1:702865 2:1511 3:6 
1 0:11.51 1:698633 2:1510 3:6 
1 0:9.12 1:710985 2:1509 
1 0:8.52 1:141443 2:2653 
1 0:21.47 1:175578 2:2566 
1 0:16.09 1:179487 2:2554 
1 0:13.3 1:183368 2:2541 
1 0:13.27 1:190010 2:2530 
1 0:23.14 1:197628 2:2519 
1 0:15.3 1:203954 2:2508 3:6 
1 0:24.58 1:210648 2:2497 
1 0:12.81 1:220184 2:2486 3:6 
1 0:21.51 1:226502 2:2477 
1 0:25.29 1:227766 2:2490 
1 0:21.45 1:236909 2:2479 3:6 
1 0:23.42 1:240798 2:2468 
1 0:14.02 1:244411 2:2456 
1 0:13.96 1:251909 2:2447 3:6 
1 0:12.79 1:256643 2:2437 
1 0:20.94 1:261260 2:2425 
1 0:17.25 1:265738 2:2414 
1 0:19.87 1:272960 2:2404 3:6 
1 0:15.17 1:278961 2:2395 
1 0:33.85 1:281386 2:2384 
1 0:16.85 1:283810 2:2373 
1 0:24.87 1:288559 2:2363 
1 0:15.48 1:292427 2:2352 3:6 
1 0:13.89 1:298096 2:2343 
1 0:10.78 1:305141 2:2334 
1 0:18.33 1:316390 2:2326 
1 0:8.25 1:326721 2:2317 
1 0:24.02 1:328497 2:2307 3:6 
1 0:20.22 1:332942 2:2297 
1 0:78.04 1:335850 2:2287 
1 0:19.71 1:355626 2:2278 3:18 
1 0:17.95 1:354730 2:2268 
1 0:19.53 1:354678 2:2257 
1 0:11.26 1:354721 2:2247 3:12 
1 0:15.93 1:355181 2:2236 
1 0:18.91 1:354065 2:2224 
1 0:15.76 1:354193 2:2213 
1 0:35.17 1:354181 2:2204 
1 0:20.26 1:354168 2:2193 
1 0:19.71 1:354176 2:2183 
1 0:15.19 1:353652 2:2172 
1 0:20.81 1:354072 2:2163 
1 0:11.27 1:354080 2:2152 
1 0:17 1:354056 2:2142 
1 0:14.7 1:354060 2:2132 
1 0:9.33 1:354291 2:2122 
1 0:28.49 1:354231 2:2113 
1 0:11.16 1:354263 2:2103 
1 0:21.61 1:354263 2:2094 3:6 
1 0:5.46 1:354242 2:2084 
1 0:27.73 1:354762 2:2075 
1 0:16.33 1:354890 2:2065 
1 0:18.86 1:354882 2:2056 
1 0:10.31 1:355230 2:2046 
1 0:16.91 1:355198 2:2038 3:6 
1 0:16.91 1:355730 2:2029 
1 0:69.59 1:355725 2:2020 
1 0:35.06 1:355745 2:2011 
1 0:23.29 1:355721 2:2002 
1 0:18.05 1:355733 2:1994 
1 0:13.59 1:355732 2:1984 
1 0:26.72 1:355728 2:1976 
1 0:13.44 1:355744 2:1968 3:5 
1 0:20.67 1:355704 2:1959 
1 0:21.22 1:355724 2:1951 
1 0:20.38 1:355727 2:1942 
1 0:22.5 1:355711 2:1934 
1 0:16.46 1:355835 2:1926 
1 0:14.51 1:355815 2:1919 
1 0:10.18 1:355827 2:1910 
1 0:17.78 1:355839 2:1902 
1 0:17.27 1:355838 2:1895 3:6 
1 0:16.81 1:355838 2:1886 
1 0:11.65 1:355850 2:1879 
1 0:14.76 1:355838 2:1871 
1 0:17.8 1:355838 2:1864 
1 0:11.83 1:355845 2:1855 
1 0:10.39 1:355837 2:1848 3:6 
1 0:11.89 1:355841 2:1841 
1 0:11.16 1:355837 2:1834 
1 0:7.92 1:355833 2:1826 3:6 
1 0:11.23 1:355821 2:1819 
1 0:10.62 1:355828 2:1811 
1 0:17.85 1:355824 2:1804 
1 0:6.4 1:355820 2:1798 
1 0:11.93 1:355832 2:1791 3:6 
1 0:8.1 1:355824 2:1783 
1 0:4.58 1:355832 2:1776 3:5 
1 0:6.85 1:355827 2:1769 
1 0:5.74 1:355831 2:1763 
1 0:6.69 1:355831 2:1756 3:6 
1 0:2.8 1:355831 2:1749 3:6 
1 0:6.54 1:355831 2:1743 
1 0:8.1 1:355823 2:1736 
1 0:6.56 1:355834 2:1730 
1 0:6.11 1:355830 2:1723 
1 0:5.73 1:355822 2:1716 
1 0:5.25 1:355830 2:1709 
1 0:15.28 1:355826 2:1703 
1 0:9.08 1:355802 2:1697 
1 0:10.26 1:355818 2:1690 
1 0:6.03 1:355825 2:1684 3:6 
1 0:9.35 1:355825 2:1678 
1 0:4.17 1:355817 2:1672 
1 0:8.1 1:355813 2:1666 3:6 
1 0:16.66 1:355581 2:1660 
1 0:15.1 1:355905 2:1654 3:6 
1 0:13.35 1:355897 2:1648 
1 0:16.25 1:355909 2:1642 3:6 
1 0:7.95 1:355900 2:1637 
1 0:8.43 1:355920 2:1631 3:6 
1 0:21.75 1:355920 2:1625 
1 0:14.95 1:355928 2:1619 
1 0:17.84 1:355932 2:1614 
1 0:12.82 1:355932 2:1608 
1 0:13.22 1:355920 2:1602 
1 0:13.28 1:355907 2:1597 
1 0:17.06 1:355931 2:1591 3:6 
1 0:12.1 1:355907 2:1585 
1 0:10.79 1:355931 2:1580 3:6 
1 0:23.76 1:355935 2:1574 
1 0:12.28 1:355923 2:1569 
1 0:27.06 1:355931 2:1564 
1 0:13.3 1:356027 2:1559 
1 0:11.4 1:356242 2:1553 
1 0:10.51 1:356242 2:1548 
1 0:12.24 1:356242 2:1543 
1 0:16.17 1:356234 2:1537 3:6 
1 0:15.76 1:356274 2:1533 
1 0:22.61 1:356686 2:1528 
1 0:13.78 1:356686 2:1522 
1 0:28.54 1:357726 2:1518 
1 0:15.53 1:358742 2:1514 
1 0:7.99 1:361187 2:1510 
1 0:19.46 1:364939 2:1506 
1 0:16.67 1:375375 2:1502 3:6 
-0.9718090381355751 0:4607.53 1:621113 2:2627 3:6 
-0.9716991252237032 0:1751.4 1:621081 2:2623 3:12 
-0.9717844415933552 0:1595.49 1:621017 2:2620 3:6 
-0.971759093955019 0:1745.45 1:621009 2:2616 3:6 
-0.9717588077301345 0:4811.89 1:621001 2:2612 3:6 
-0.9717587095369375 0:1343.51 1:621013 2:2609 3:6 
-0.9715963327639334 0:1746.97 1:621109 2:2605 3:6 
-0.9711635897404903 0:3668.78 1:621045 2:2602 3:6 
-0.9719606817194992 0:1771.71 1:620997 2:2598 3:46 
-0.9721308107409571 0:1596.82 1:621061 2:2595 3:6 
-0.9717364695818981 0:1304.67 1:621109 2:2591 3:12 
-0.9717844415933552 0:4043.84 1:621229 2:2588 3:13 
-0.971800690836059 0:1743.18 1:621181 2:2584 3:6 
-0.9717046076965831 0:1738.83 1:621261 2:2580 3:13 
-0.9717077684348582 0:4234.7 1:621245 2:2577 3:6 
-0.9716990727028486 0:2924.76 1:621237 2:2573 3:6 
-0.9717096936822471 0:1332.01 1:621269 2:2569 3:6 
-0.9716992060950513 0:1742.91 1:621281 2:2565 3:13 
-0.9717587095369375 0:4327.88 1:621297 2:2562 3:6 
-0.9717588401457071 0:1334.84 1:621153 2:2559 3:6 
-0.9717590331409964 0:1327.66 1:621229 2:2555 3:6 
-0.971759093955019 0:1320.23 1:621217 2:2552 3:6 
-0.9715889097760912 0:4648.76 1:621121 2:2548 3:12 
-0.9716742445841803 0:1581.87 1:621077 2:2545 3:13 
-0.9721187914451194 0:1743.75 1:621193 2:2541 3:6 
-0.9719449433714379 0:4381.69 1:621269 2:2538 3:6 
-0.9714945173132361 0:1335.51 1:621257 2:2535 3:6 
-0.9712618453892118 0:1332.44 1:621273 2:2531 3:6 
-0.9712199072048637 0:1313.05 1:621289 2:2528 3:6 
-0.9718097417300109 0:5221.04 1:621313 2:2525 3:12 
-0.9717590939550228 0:1730.13 1:621265 2:2521 3:6 
-0.971588909776098 0:1744.41 1:621409 2:2518 3:6 
-0.9717365677408647 0:4810.42 1:621477 2:2514 3:6 
-0.9717588077301345 0:1334.66 1:621505 2:2511 3:43 
-0.9717592401873524 0:1326.06 1:621565 2:2508 3:13 
-0.971758840159749 0:1762.79 1:621209 2:2505 3:6 
-0.9717880479774116 0:4246.72 1:621261 2:2501 3:6 
-0.9717917261870294 0:1740.61 1:621125 2:2498 3:6 
-0.9713830716241909 0:1613.85 1:621197 2:2495 3:13 
-0.9713830715575218 0:3488.28 1:621189 2:2491 3:12 
-0.9713830715362639 0:4237.81 1:621133 2:2488 3:13 
-0.9718951937136194 0:1334.05 1:621133 2:2485 3:6 
-0.9718951936849871 0:1669.58 1:621113 2:2482 3:6 
-0.971895193709662 0:3661.55 1:621129 2:2478 3:13 
-0.9712760708620312 0:1345.55 1:621009 2:2475 3:6 
-0.9712760708702451 0:1622.76 1:621081 2:2472 3:6 
-0.9712760708713302 0:1738.6 1:621113 2:2469 3:6 
-0.9712760708720845 0:4074.67 1:621113 2:2465 3:6 
-0.9712760708722449 0:1741.8 1:621145 2:2462 3:6 
-0.971276070872344 0:1740.74 1:621177 2:2459 3:6 
-0.971276070872403 0:4812.79 1:621145 2:2456 3:6 
-0.9715963327639561 0:1584.82 1:621137 2:2453 3:6 
-0.9715963327639334 0:1598.89 1:621145 2:2450 3:6 
-0.9717082265475088 0:1323.72 1:621145 2:2445 3:6 
-0.9717036523097449 0:3649.2 1:621145 2:2442 3:6 
-0.9716991252237032 0:1749.54 1:621081 2:2439 3:6 
-0.9717231138007554 0:1782.83 1:621169 2:2436 3:6 
-0.971800690836059 0:4648.01 1:621177 2:2433 3:6 
-0.9715918940642605 0:1334.33 1:621129 2:2430 3:40 
-0.9716491650884281 0:1338.73 1:621129 2:2427 3:6 
-0.9715889097760912 0:1324.38 1:621129 2:2423 3:6 
-0.9717590939550228 0:4328.22 1:621105 2:2420 3:6 
-0.971759093955019 0:1339.84 1:620985 2:2417 3:12 
-0.971759093955019 0:1334.34 1:621049 2:2414 3:6 
-0.9717590331409964 0:5227.45 1:621049 2:2411 3:6 
-0.9712251371756878 0:4809.54 1:620965 2:2408 3:20 
-0.9712251371756878 0:1329.31 1:620917 2:2405 3:6 
-0.9711635897404903 0:1322.48 1:621029 2:2402 3:12 
-0.9711635897404903 0:4370.33 1:620981 2:2399 3:6 
-0.9711635897404903 0:1746.7 1:620993 2:2396 3:13 
-0.9711635897404903 0:1779.33 1:621141 2:2393 3:13 
-0.9712618453892118 0:1308.6 1:621141 2:2390 3:20 
-0.9713834639001404 0:4818.03 1:621029 2:2387 3:6 
-0.9713830715575287 0:1741.24 1:621045 2:2384 3:13 
-0.9713830716241978 0:1626.36 1:621117 2:2381 3:6 
-0.971494517313243 0:5212.53 1:621069 2:2378 3:6 
-0.971494517313243 0:1337.05 1:621097 2:2375 3:6 
-0.9719449433714379 0:1593.2 1:621177 2:2372 3:12 
-0.9719449433714379 0:1310.1 1:621233 2:2369 3:6 
-0.9716999977090661 0:4734.81 1:621217 2:2366 3:6 
-0.971699997709066 0:1336.86 1:621233 2:2363 3:6 
-0.9719606817194992 0:1620.09 1:621181 2:2360 3:13 
-0.9719606817194992 0:4079.66 1:621149 2:2357 3:6 
-0.9715912564664297 0:1762.16 1:621173 2:2354 3:46 
-0.9715918940642605 0:1333.64 1:622193 2:2351 3:13 
-0.9721308107409571 0:1745.18 1:622269 2:2348 3:12 
-0.9721308107409571 0:4807.59 1:622221 2:2346 3:13 
-0.9715877667100866 0:1738.87 1:622237 2:2343 3:6 
-0.971589443344902 0:1618.8 1:622313 2:2340 3:6 
-0.9717590939531345 0:4839.71 1:622297 2:2337 3:6 
-0.9717590939531345 0:4248.08 1:621133 2:2334 3:68 
-0.9717590939531345 0:1338.57 1:621009 2:2331 3:6 
-0.9717590331409964 0:1339.84 1:621081 2:2328 3:13 
-0.9717590331409964 0:4244.64 1:621009 2:2325 3:6 
-0.9717590331409964 0:1749.09 1:620913 2:2323 3:6 
-0.9717592401873524 0:1740.25 1:620945 2:2319 3:6 
-0.9717588401457071 0:1321.59 1:620993 2:2316 3:6 
-0.9717588401457071 0:4816.41 1:620953 2:2313 3:6 
-0.9717588401457071 0:1341.75 1:621125 2:2310 3:12 
-0.9716991252237032 0:1665.02 1:622117 2:2308 3:6 
-0.971589443344902 0:4644.63 1:622117 2:2305 3:6 
-0.9717077684348582 0:1748.82 1:622133 2:2302 3:13 
-0.9715912757955045 0:1319.84 1:622101 2:2299 3:6 
-0.9717087748716331 0:1314.24 1:622165 2:2296 3:6 
-0.9717098481439238 0:4641.98 1:622085 2:2294 3:6 
-0.971800690836059 0:1595.45 1:622085 2:2291 3:6 
-0.9717835640076498 0:1319.13 1:622133 2:2288 3:6 
-0.9712215836971062 0:4453.72 1:621997 2:2285 3:6 
-0.9717844415933552 0:1327.33 1:622005 2:2283 3:40 
-0.9718090381355751 0:1599.69 1:621077 2:2280 3:13 
-0.9717096936822471 0:1664.21 1:621045 2:2277 3:6 
-0.9717364695818981 0:4645.3 1:620981 2:2274 3:13 
-0.9717588077301345 0:1749.21 1:621037 2:2272 3:6 
-0.9713942240996913 0:1614.59 1:621093 2:2269 3:13 
-0.9716742445841803 0:4651.43 1:621093 2:2266 3:12 
-0.9721308107409571 0:4648.86 1:621029 2:2263 3:20 
-0.9717683858417229 0:1743.41 1:621029 2:2261 3:13 
-0.9719606817194992 0:1323.74 1:621085 2:2258 3:6 
-0.9715342373374261 0:4240.78 1:621057 2:2255 3:13 
-0.9716462036277559 0:1765.18 1:621137 2:2253 3:6 
-0.9711635897404903 0:1627.19 1:621169 2:2250 3:13 
-0.9716742445841803 0:1746.64 1:621265 2:2247 3:12 
-0.9721088005765801 0:4234.74 1:621273 2:2245 3:6 
-0.9717036523097449 0:1580.87 1:621317 2:2242 3:6 
-0.9717036523097449 0:1745.53 1:621413 2:2239 3:6 
-0.9713942240996913 0:4368.53 1:621349 2:2237 3:6 
-0.9715963327639334 0:1343.1 1:621437 2:2234 3:6 
-0.9716991252237032 0:1341.52 1:621417 2:2231 3:6 
-0.9717036523097449 0:1743.67 1:621385 2:2229 3:6 
-0.9717083591209035 0:4234.65 1:621341 2:2226 3:13 
-0.9717083591209035 0:1587.91 1:621445 2:2224 3:6 
-0.9717231138007554 0:1744.47 1:621497 2:2221 3:13 
-0.9717683858417229 0:4368.1 1:621553 2:2218 3:6 
-0.9718090381355751 0:1744.71 1:621505 2:2216 3:43 
-0.9718090381355751 0:1743.48 1:621585 2:2213 3:6 
-0.9717880479774116 0:1664.93 1:621561 2:2211 3:6 
-0.9717835640076498 0:4811.61 1:621525 2:2208 3:6 
-0.9717590939531345 0:1586.16 1:621605 2:2206 3:6 
-0.9717590939550228 0:1622.08 1:621661 2:2203 3:13 
-0.9717592401873524 0:4822.92 1:621673 2:2200 3:26 
-0.9717592401873524 0:4814.84 1:621633 2:2198 3:25 
-0.971758840159749 0:1746.9 1:621709 2:2194 3:13 
-0.971758840159749 0:1749.54 1:621725 2:2192 3:12 
-0.971758840159749 0:4049.72 1:621677 2:2189 3:6 
-0.971758840159749 0:1580.24 1:621789 2:2187 3:6 
-0.9717587095369375 0:1739.93 1:621861 2:2184 3:6 
-0.9717587095369375 0:5235.28 1:621469 2:2182 3:12 
-0.9717364695818981 0:4053.92 1:621393 2:2179 3:6 
-0.9717364695818981 0:1585.2 1:621457 2:2177 3:6 
-0.9716491650884281 0:1753.36 1:621465 2:2174 3:13 
-0.971589443344902 0:4822.66 1:621417 2:2172 3:13 
-0.971588909776098 0:1746.53 1:621561 2:2169 3:12 
-0.9716671531422574 0:1595.86 1:621625 2:2167 3:6 
-0.9715918940642605 0:1318.13 1:621440 2:2164 3:6 
-0.9721308107409571 0:4244.23 1:621456 2:2162 3:6 
-0.9721308107409571 0:1731.74 1:621432 2:2159 3:6 
-0.9721187914451194 0:1611.14 1:621456 2:2157 3:6 
-0.9721088005765801 0:4772.05 1:621440 2:2154 3:12 
-0.9719606817194992 0:1757.04 1:621376 2:2152 3:40 
-0.9719606817194992 0:1349.06 1:621440 2:2150 3:6 
-0.9719449433714379 0:1668.93 1:621440 2:2147 3:6 
-0.9716999977090661 0:4237.41 1:621376 2:2145 3:6 
-0.9715113855813524 0:1580.17 1:621368 2:2142 3:6 
-0.9717365677408647 0:1737.14 1:621440 2:2140 3:6 
-0.9717592401873524 0:4045.27 1:621448 2:2137 3:6 
-0.9717590939550228 0:4234.59 1:621384 2:2135 3:18 
-0.9716169823833791 0:1595.75 1:621448 2:2133 3:6 
-0.971494517313243 0:1742.27 1:621440 2:2130 3:6 
-0.971494517313243 0:4623.54 1:621384 2:2128 3:6 
-0.9712215836971062 0:1333.37 1:621384 2:2126 3:13 
-0.971587766709243 0:1740.49 1:621392 2:2123 3:6 
-0.9713830715354116 0:1744.4 1:621400 2:2121 3:6 
-0.9717592401873524 0:4237.01 1:621304 2:2118 3:12 
-0.9717590331409964 0:1587.8 1:621436 2:2116 3:6 
-0.971758840159749 0:1655.21 1:621436 2:2114 3:6 
-0.971589443344902 0:4457.14 1:621824 2:2111 3:6 
-0.9713834639001404 0:1734.42 1:621776 2:2109 3:6 
-0.9713830715575287 0:1737.58 1:621856 2:2107 3:6 
-0.9718951936849871 0:1738.53 1:621880 2:2104 3:13 
-0.971895193709662 0:3192.15 1:621888 2:2102 3:6 
-0.9712760708713302 0:1761.31 1:621904 2:2100 3:6 
-0.9717588077301345 0:1317.45 1:621948 2:2097 3:12 
-0.9712760708720845 0:4443.76 1:621956 2:2095 3:6 
-0.9712760708722449 0:1570.89 1:621896 2:2093 3:50 
-0.9717880479774116 0:1326.53 1:621944 2:2090 3:6 
-0.9712760708620312 0:1689.26 1:621960 2:2088 3:6 
-0.9715963327639561 0:4139.91 1:621904 2:2086 3:6 
-0.9717036523097449 0:1590.85 1:622080 2:2084 3:6 
-0.9717683858417229 0:1603.32 1:622100 2:2081 3:13 
-0.9717917261870294 0:4641.78 1:622112 2:2079 3:13 
-0.9717365677408647 0:4236.01 1:622056 2:2077 3:18 
-0.971758840159749 0:1741.56 1:622128 2:2074 3:6 
-0.9717364695818981 0:1344.76 1:622148 2:2072 3:6 
-0.9717587095369375 0:4652.85 1:622192 2:2069 3:6 
-0.971494517313243 0:1740.07 1:622144 2:2067 3:6 
-0.9717587095369375 0:1780.37 1:622288 2:2064 3:12 
-0.9717880479774116 0:4192.76 1:622368 2:2062 3:6 
-0.9717880479774116 0:4236.55 1:622252 2:2060 3:6 
-0.9716742445841803 0:1340.48 1:625369 2:2058 3:6 
-0.9711635596667976 0:1730.83 1:625393 2:2056 3:6 
-0.9716169823833791 0:4803.59 1:625409 2:2053 3:13 
-0.9712660449177304 0:1746.3 1:624865 2:2051 3:12 
-0.9713830715575218 0:1343.29 1:625021 2:2049 3:6 
-0.971494517313243 0:1739.3 1:625125 2:2047 3:6 
-0.9715342373374261 0:4316.88 1:625069 2:2045 3:6 
-0.9715113855813524 0:1580.42 1:625181 2:2042 3:13 
-0.9719606817194992 0:1743.38 1:625245 2:2040 3:6 
-0.9721308107409571 0:4234.34 1:625249 2:2038 3:6 
-0.9721308107409571 0:1340.32 1:625169 2:2036 3:37 
-0.9712378803926752 0:1330.46 1:625205 2:2034 3:6 
-0.9715633471524178 0:1325.19 1:625205 2:2032 3:6 
-0.9715912757955045 0:4648.51 1:625189 2:2029 3:6 
-0.9717588077301345 0:1739.67 1:625189 2:2027 3:6 
-0.9717588077301345 0:1613.31 1:625229 2:2025 3:6 
-0.9717588077301345 0:4229.49 1:625237 2:2023 3:6 
-0.9717588077301345 0:4640.76 1:625173 2:2021 3:25 
-0.9717365677408647 0:1748.8 1:625253 2:2019 3:13 
-0.9712622377580563 0:1741.61 1:625209 2:2016 3:6 
-0.9712251371756878 0:3742.68 1:625213 2:2014 3:6 
-0.9712251371756878 0:1334 1:625085 2:2012 3:6 
-0.9712199072048637 0:1344.68 1:625141 2:2010 3:13 
-0.9711635897404903 0:1758.27 1:625149 2:2008 3:12 
-0.9711635897404903 0:4268.86 1:625053 2:2006 3:6 
-0.9711635596667976 0:1748.34 1:625053 2:2004 3:6 
-0.9716671531422574 0:1752.4 1:625117 2:2002 3:13 
-0.9718097417300109 0:4237.28 1:625157 2:1999 3:6 
-0.9718097417300109 0:1577.48 1:625085 2:1997 3:6 
-0.9705695699271988 0:1740.34 1:625181 2:1995 3:6 
-0.9705695354543338 0:1744.37 1:625181 2:1993 3:6 
-0.9717590331409964 0:4325.21 1:625053 2:1991 3:6 
-0.9717590331409964 0:1332.1 1:625109 2:1989 3:6 
-0.9717590939531345 0:1611.48 1:625125 2:1987 3:12 
-0.9717590939531345 0:4642.76 1:625141 2:1985 3:6 
-0.9717587095369375 0:1335.75 1:625085 2:1983 3:43 
-0.9717587095369375 0:1335.77 1:625237 2:1981 3:6 
-0.9717592401873524 0:1657.55 1:625253 2:1979 3:6 
-0.9717592401873524 0:4812.7 1:625277 2:1976 3:6 
-0.9717364695818981 0:1740.43 1:625341 2:1974 3:6 
-0.9717364695818981 0:1327.19 1:625381 2:1972 3:12 
-0.9717365677408647 0:4651.85 1:625421 2:1970 3:6 
-0.9716491650884281 0:4232.39 1:625409 2:1968 3:6 
-0.9715912564664297 0:1579.9 1:625457 2:1966 3:6 
-0.9717588401457071 0:1657.55 1:625481 2:1964 3:6 
-0.9715918940642605 0:4330.45 1:625497 2:1962 3:6 
-0.971800690836059 0:1336.47 1:625449 2:1960 3:6 
-0.9717077684348582 0:1616.5 1:625513 2:1958 3:12 
-0.9717588401457071 0:1752.78 1:625493 2:1956 3:13 
-0.9717077684348582 0:4254.82 1:625465 2:1954 3:6 
-0.9717083591209035 0:1334.19 1:625493 2:1952 3:13 
-0.9717046076965831 0:1667.03 1:625477 2:1950 3:6 
-0.9715963327639334 0:4654.37 1:625489 2:1948 3:6 
-0.9715963327639561 0:1331.03 1:625377 2:1946 3:13 
-0.971758840159749 0:1740.55 1:625461 2:1943 3:12 
-0.9715963327639561 0:1750.26 1:625493 2:1941 3:6 
-0.9717590939531345 0:4899.87 1:625533 2:1939 3:6 
-0.9717844415933552 0:1571.74 1:625485 2:1937 3:6 
-0.9713830716241978 0:1781.77 1:625633 2:1935 3:20 
-0.9718951937136194 0:4649.61 1:625145 2:1933 3:13 
-0.971276070872344 0:1341.43 1:625077 2:1931 3:46 
-0.9712760708702451 0:1595.52 1:625141 2:1929 3:6 
-0.9716990727028486 0:1810.95 1:625165 2:1927 3:13 
-0.9717364695818981 0:4154.17 1:625173 2:1925 3:12 
-0.9717588401457071 0:1758.6 1:625133 2:1923 3:6 
-0.9717590939531345 0:1334.57 1:606369 2:1921 3:6 
-0.9718097417300109 0:4768.77 1:628981 2:1920 3:12 
-0.9717835640076498 0:4446.08 1:624049 2:1918 3:6 
-0.9713830716241909 0:604.86 1:736158 2:1921 3:6 
-0.9715113855813524 0:1642.79 1:761006 2:1920 3:13 
-0.9719606817194992 0:4642.73 1:734038 2:1918 3:12 
-0.9721187914451194 0:1735.26 1:734146 2:1916 3:6 
-0.9717365677408647 0:1329.87 1:733890 2:1914 3:13 
-0.9717365677408647 0:1308.66 1:733746 2:1912 3:6 
-0.9717365677408647 0:4231.9 1:746306 2:1911 3:12 
-0.9716992060950513 0:1585.24 1:740786 2:1910 3:13 
-0.9717036523097449 0:1345.15 1:750058 2:1908 3:6 
-0.9717036523097449 0:4211.61 1:750878 2:1907 3:6 
-0.9717036523097449 0:1331.56 1:751014 2:1905 3:6 
-0.9717082265475088 0:1326.52 1:751198 2:1903 3:6 
-0.9717094289439444 0:1741.63 1:751506 2:1901 3:6 
-0.9717096936822471 0:4236.72 1:752206 2:1899 3:13 
-0.9717096936822471 0:1740.34 1:744054 2:1897 3:6 
-0.9717098481439238 0:1320.5 1:744366 2:1895 3:13 
-0.9717683858417229 0:4171.41 1:744434 2:1894 3:12 
-0.9717809340425569 0:1747.35 1:744394 2:1892 3:53 
-0.9717917261870294 0:1330.09 1:744402 2:1890 3:12 
-0.9717917261870294 0:1656 1:744362 2:1888 3:6 
-0.9718097417300109 0:4243 1:744558 2:1886 3:6 
-0.9718097417300109 0:1580.32 1:744530 2:1884 3:13 
-0.9715877667100946 0:1611.11 1:744578 2:1882 3:6 
-0.971276070872403 0:4813.89 1:744554 2:1881 3:6 
-0.9717588401457071 0:4241.72 1:744518 2:1879 3:13 
-0.9717835640076498 0:1743.7 1:744530 2:1877 3:12 
-0.9714945173132361 0:1344.51 1:744630 2:1875 3:6 
-0.9721187914451194 0:4667.04 1:744810 2:1873 3:6 
-0.9716491650884281 0:1744.91 1:744650 2:1871 3:6 
-0.9718097417300109 0:1748.89 1:751282 2:1870 3:6 
-0.9718097417300109 0:1740.89 1:761958 2:1868 3:6 
-0.9717880479774116 0:4810.29 1:770078 2:1867 3:13 
-0.9717880479774116 0:1580.88 1:782922 2:1865 3:68 
-0.9717880479774116 0:1751.32 1:808730 2:1864 3:13 
