svm_type c_svc
kernel_type rbf
gamma 0.00012207
nr_class 2
total_sv 116
rho -0.571824
label 12 14
nr_sv 59 57
SV
0.03125 2:1195 3:632.2 4:22 
0.03125 2:1195 3:632.2 4:22 
0.03125 2:1195 3:633 4:22 
0.03125 1:14.4545 2:1194 3:97 4:22.1 
0.03125 2:1195 3:633.4 4:22 
0.01859293256921232 1:14.4545 2:1194 3:97 4:22.1 
0.03125 1:100.545 2:1198 3:82.3 4:22.1 
0.03125 1:58.0909 2:1193 3:82.8 4:22.2 
0.03125 2:1194 3:88.4 4:22.2 
0.03125 1:100.545 2:1198 3:82.3 4:22.1 
0.03125 2:1194 3:87.6 4:22.2 
0.03125 1:100.545 2:1198 3:83.1 4:22.2 
0.01636383177947084 1:58.0909 2:1193 3:82.4 4:22.3 
0.03125 2:1194 3:87.2 4:22.2 
0.03125 1:100.545 2:1198 3:83.5 4:22.1 
0.03125 1:58.0909 2:1193 3:83.2 4:22.3 
0.03125 2:1194 3:88 4:22.2 
0.03125 1:7.57143 2:1197 3:40.95 4:23.6 
0.03125 1:7.57143 2:1193 3:42.3 4:23.65 
0.03125 1:7.57143 2:1197 3:41.35 4:23.6 
0.03125 1:7.57143 2:1193 3:42.3 4:23.65 
0.03125 1:7.57143 2:1197 3:41.35 4:23.6 
0.02797273313597487 1:7.57143 2:1193 3:42.3 4:23.65 
0.03125 1:7.57143 2:1197 3:40.95 4:23.6 
0.03125 1:18 2:1468 3:438.6 4:23.45 
0.03125 1:7.57143 2:1464 3:74.7 4:23.6 
0.03125 1:7.57143 2:1464 3:39.95 4:23.6 
0.03125 1:83.381 2:1464 3:39.1 4:23.55 
0.03125 1:18 2:1468 3:438.6 4:23.45 
0.03125 1:7.57143 2:1464 3:74.7 4:23.6 
0.03125 1:7.57143 2:1464 3:40.35 4:23.6 
0.03125 1:83.381 2:1464 3:39.1 4:23.55 
0.03125 1:7.57143 2:1464 3:44.5 4:23.6 
0.03125 1:15.1429 2:1468 3:433.2 4:23.45 
0.03125 1:7.57143 2:1464 3:74.7 4:23.6 
0.03125 1:7.57143 2:1464 3:40.55 4:23.55 
0.03125 1:83.381 2:1464 3:38.5 4:23.6 
0.03125 1:7.57143 2:1464 3:44.5 4:23.6 
0.03125 1:18 2:1468 3:438.6 4:23.45 
0.03125 1:7.57143 2:1464 3:74.7 4:23.6 
0.03125 1:7.57143 2:1464 3:39.95 4:23.6 
0.03125 1:83.381 2:1464 3:39.1 4:23.55 
0.01581548196930223 1:7.57143 2:1464 3:44.7 4:23.6 
0.03125 1:87.9524 2:1588 3:11.95 4:24.9 
0.02645630715494282 1:51.5714 2:1588 3:9 4:24.9 
0.03125 1:7.57143 2:1592 3:8.95 4:24.9 
0.03125 1:7.57143 2:1589 3:6.2 4:24.95 
0.03125 1:87.9524 2:1588 3:12.95 4:24.9 
0.03125 1:7.57143 2:1592 3:9.35 4:24.9 
0.03125 1:7.57143 2:1589 3:6.6 4:24.95 
0.03125 1:27 2:1582 3:44.2 4:23.85 
0.03125 1:87.9524 2:1588 3:11.95 4:24.9 
0.00358048272304215 1:7.57143 2:1591 3:14.9 4:25 
0.03125 1:7.57143 2:1592 3:8.75 4:24.95 
0.03125 1:7.57143 2:1589 3:6.4 4:24.95 
0.03125 1:27 2:1582 3:44 4:23.85 
0.03125 1:87.9524 2:1588 3:13.15 4:24.85 
0.03125 1:7.57143 2:1592 3:9.15 4:24.9 
0.03125 1:7.57143 2:1589 3:6 4:24.95 
-0.03125 2:159 3:2 4:0.75 
-0.03125 1:36 2:161 3:2 4:0.5 
-0.03125 1:52.2 2:160 3:1 4:0.75 
-0.03125 2:163 3:1 4:0.75 
-0.03125 2:164 3:1 4:0.75 
-0.03125 1:72.6 2:164 3:2 4:0.5 
-0.03125 1:43.8 2:164 3:2 4:0.75 
-0.03125 2:167 3:1 4:0.5 
-0.03125 2:164 3:1 4:0.5 
-0.03125 1:50.2 2:164 3:2 4:0.75 
-0.03125 2:161 3:1 4:0.5 
-0.03125 2:161 3:1 4:0.5 
-0.03125 1:43.8 2:159 3:2 4:0.75 
-0.03125 2:160 3:1 4:0.75 
-0.03125 1:55.8 2:160 3:2 4:0.75 
-0.03125 1:36 2:161 3:1 4:0.5 
-0.03125 1:43.8 2:161 3:1 4:0.75 
-0.03125 2:159 3:2 4:0.75 
-0.03125 2:160 3:1 4:0.5 
-0.03125 1:43.8 2:161 3:2 4:0.75 
-0.01503176933194522 2:161 3:1 4:0.75 
-0.03125 2:160 3:1 4:0.5 
-0.03125 2:161 3:1 4:0.75 
-0.03125 2:161 3:1 4:0.75 
-0.03125 1:56.4 2:161 3:3 4:0.5 
-0.03125 2:161 3:1 4:0.75 
-0.03125 2:161 3:1 4:0.75 
-0.03125 1:43.8 2:160 3:1 4:0.75 
-0.03125 2:160 3:1 4:0.75 
-0.03125 2:161 3:1 4:0.5 
-0.03125 1:67.8 2:160 3:1 4:0.75 
-0.03125 1:12 2:163 3:52 4:1.5 
-0.03125 2:163 3:20 4:0.5 
-0.03125 2:164 3:1 4:0.75 
-0.03125 2:165 3:19 4:0.75 
-0.03125 2:164 3:1 4:0.75 
-0.03125 2:164 3:9 4:0.5 
-0.03125 1:55.8 2:164 3:12 4:0.5 
-0.03125 2:164 3:9 4:0.75 
-0.03125 2:165 3:1 4:0.5 
-0.03125 2:164 3:1 4:0.5 
-0.03125 2:164 3:10 4:0.5 
-0.03125 2:163 3:9 4:0.75 
-0.03125 2:160 3:10 4:0.5 
-0.03125 2:160 3:11 4:0.5 
-0.03125 2:161 3:14 4:0.75 
-0.03125 2:160 3:9 4:0.75 
-0.03125 2:161 4:0.75 
-0.03125 1:92.4 2:160 4:0.5 
-0.03125 2:160 4:0.75 
-0.03125 2:160 3:14 4:0.75 
-0.03125 1:62.4 2:161 3:3 4:0.75 
-0.03125 1:43.8 2:160 3:3 4:0.75 
-0.03125 2:160 3:10 4:1 
-0.03125 1:36 2:160 3:3 4:0.5 
-0.03125 1:55.8 2:160 3:3 4:0.75 
-0.03125 1:43.8 2:160 3:7 4:0.75 
