svm_type c_svc
kernel_type rbf
gamma 0.0078125
nr_class 2
total_sv 1200
rho 0.0189302
label 13 14
nr_sv 600 600
SV
0.03125 1:0.76 4:0.02 
0.03125 1:0.76 4:0.02 
0.03125 1:0.76 4:0.02 
0.03125 1:0.76 4:0.02 
0.03125 1:0.76 4:0.02 
0.03125 1:0.76 4:0.02 
0.03125 1:0.76 4:0.02 
0.03125 1:0.76 4:0.02 
0.03125 1:0.76 4:0.02 
0.03125 1:0.77 4:0.02 
0.03125 1:0.76 4:0.02 
0.03125 1:0.76 4:0.02 
0.03125 1:0.76 4:0.02 
0.03125 1:0.76 4:0.02 
0.03125 1:0.76 4:0.02 
0.03125 1:0.76 4:0.02 
0.03125 1:0.76 4:0.02 
0.03125 1:0.76 4:0.02 
0.03125 1:0.76 4:0.02 
0.03125 1:0.76 4:0.02 
0.03125 1:0.77 4:0.02 
0.03125 1:0.76 4:0.02 
0.03125 1:0.76 4:0.02 
0.03125 1:0.76 4:0.02 
0.03125 1:0.76 4:0.02 
0.03125 1:0.76 4:0.02 
0.03125 1:0.76 4:0.02 
0.03125 1:0.76 4:0.02 
0.03125 1:0.76 4:0.02 
0.03125 1:0.76 4:0.02 
0.03125 1:0.77 4:0.02 
0.03125 1:0.76 4:0.02 
0.03125 1:0.76 4:0.02 
0.03125 1:0.76 4:0.02 
0.03125 1:0.76 4:0.02 
0.03125 1:0.76 4:0.02 
0.03125 1:0.76 4:0.02 
0.03125 1:0.76 4:0.02 
0.03125 1:0.77 4:0.02 
0.03125 1:0.76 4:0.02 
0.03125 1:0.76 4:0.02 
0.03125 1:0.76 4:0.02 
0.03125 1:0.76 4:0.02 
0.03125 1:0.76 4:0.02 
0.03125 1:0.76 4:0.02 
0.03125 1:0.76 4:0.03 
0.03125 1:0.76 4:0.02 
0.03125 1:0.76 4:0.02 
0.03125 1:0.76 4:0.02 
0.03125 1:0.76 4:0.02 
0.03125 1:0.76 4:0.02 
0.03125 1:0.76 4:0.02 
0.03125 1:0.76 4:0.02 
0.03125 1:0.76 4:0.02 
0.03125 1:0.76 4:0.02 
0.03125 1:0.76 4:0.02 
0.03125 1:0.76 4:0.02 
0.03125 1:0.76 4:0.02 
0.03125 1:0.76 4:0.02 
0.03125 1:0.76 4:0.02 
0.03125 1:0.76 4:0.02 
0.03125 1:0.76 4:0.02 
0.03125 1:0.76 4:0.02 
0.03125 1:0.76 4:0.02 
0.03125 1:0.76 4:0.02 
0.03125 1:0.76 4:0.02 
0.03125 1:0.76 4:0.02 
0.03125 1:0.76 4:0.02 
0.03125 1:0.77 4:0.02 
0.03125 1:0.76 4:0.02 
0.03125 1:0.76 4:0.02 
0.03125 1:0.76 4:0.02 
0.03125 1:0.76 4:0.02 
0.03125 1:0.76 4:0.02 
0.03125 1:0.76 4:0.02 
0.03125 1:0.76 4:0.02 
0.03125 1:0.76 4:0.02 
0.03125 1:0.76 4:0.02 
0.03125 1:0.77 4:0.02 
0.03125 1:0.76 4:0.02 
0.03125 1:0.76 4:0.02 
0.03125 1:0.76 4:0.02 
0.03125 1:0.76 4:0.02 
0.03125 1:0.76 4:0.02 
0.03125 1:0.76 4:0.02 
0.03125 1:0.76 4:0.02 
0.03125 1:0.76 4:0.02 
0.03125 1:0.76 4:0.02 
0.03125 1:0.76 4:0.02 
0.03125 1:0.76 4:0.02 
0.03125 1:0.76 4:0.02 
0.03125 1:0.76 4:0.02 
0.03125 1:0.76 4:0.02 
0.03125 1:0.76 4:0.02 
0.03125 1:0.76 4:0.02 
0.03125 1:0.76 4:0.02 
0.03125 1:0.76 4:0.02 
0.03125 1:0.76 4:0.02 
0.03125 1:0.76 4:0.02 
0.03125 1:0.76 4:0.02 
0.03125 1:0.76 4:0.02 
0.03125 1:0.76 4:0.02 
0.03125 1:0.76 4:0.02 
0.03125 1:0.76 4:0.02 
0.03125 1:0.76 4:0.02 
0.03125 1:0.76 4:0.02 
0.03125 1:0.76 4:0.02 
0.03125 1:0.76 4:0.02 
0.03125 1:0.76 4:0.02 
0.03125 1:0.76 4:0.02 
0.03125 1:0.77 4:0.02 
0.03125 1:0.76 4:0.02 
0.03125 1:0.76 4:0.02 
0.03125 1:0.76 4:0.02 
0.03125 1:0.76 4:0.02 
0.03125 1:0.76 4:0.02 
0.03125 1:0.76 4:0.02 
0.03125 1:0.76 4:0.02 
0.03125 1:0.76 4:0.02 
0.03125 1:0.76 4:0.02 
0.03125 1:0.76 4:0.02 
0.03125 1:0.76 4:0.02 
0.03125 1:0.76 4:0.02 
0.03125 1:0.76 4:0.02 
0.03125 1:0.76 4:0.02 
0.03125 1:0.76 4:0.02 
0.03125 1:0.76 4:0.02 
0.03125 1:0.77 4:0.02 
0.03125 1:0.76 4:0.02 
0.03125 1:0.76 4:0.02 
0.03125 1:0.76 4:0.02 
0.03125 1:0.76 4:0.02 
0.03125 1:0.76 4:0.02 
0.03125 1:0.76 4:0.02 
0.03125 1:0.76 4:0.02 
0.03125 1:0.76 4:0.02 
0.03125 1:0.76 4:0.02 
0.03125 1:0.77 4:0.02 
0.03125 1:0.76 4:0.02 
0.03125 1:0.76 4:0.02 
0.03125 1:0.76 4:0.02 
0.03125 1:0.76 4:0.02 
0.03125 1:0.76 4:0.02 
0.03125 1:0.76 4:0.02 
0.03125 1:0.76 4:0.02 
0.03125 1:0.76 4:0.02 
0.03125 1:0.76 4:0.02 
0.03125 1:0.77 4:0.02 
0.03125 1:0.76 4:0.02 
0.03125 1:0.76 4:0.02 
0.03125 1:0.76 4:0.02 
0.03125 1:0.76 4:0.02 
0.03125 1:0.76 4:0.02 
0.03125 1:0.76 4:0.02 
0.03125 1:0.76 4:0.02 
0.03125 1:0.76 4:0.02 
0.03125 1:0.76 4:0.02 
0.03125 1:0.76 4:0.02 
0.03125 1:0.76 4:0.02 
0.03125 1:0.77 4:0.02 
0.03125 1:0.76 4:0.02 
0.03125 1:0.76 4:0.02 
0.03125 1:0.76 4:0.02 
0.03125 1:0.76 4:0.02 
0.03125 1:0.76 4:0.02 
0.03125 1:0.77 4:0.02 
0.03125 1:0.76 4:0.02 
0.03125 1:0.76 4:0.02 
0.03125 1:0.76 4:0.02 
0.03125 1:0.76 4:0.02 
0.03125 1:0.76 4:0.02 
0.03125 1:0.76 4:0.02 
0.03125 1:0.76 4:0.02 
0.03125 1:0.76 4:0.02 
0.03125 1:0.76 4:0.02 
0.03125 1:0.77 4:0.02 
0.03125 1:0.76 4:0.02 
0.03125 1:0.76 4:0.02 
0.03125 1:0.76 4:0.02 
0.03125 1:0.76 4:0.02 
0.03125 1:0.76 4:0.02 
0.03125 1:0.76 4:0.02 
0.03125 1:0.76 4:0.02 
0.03125 1:0.76 4:0.02 
0.03125 1:0.76 4:0.02 
0.03125 1:0.76 4:0.02 
0.03125 1:0.76 4:0.02 
0.03125 1:0.76 4:0.02 
0.03125 1:0.76 4:0.02 
0.03125 1:0.76 4:0.02 
0.03125 1:0.76 4:0.02 
0.03125 1:0.76 4:0.02 
0.03125 1:0.76 4:0.02 
0.03125 1:0.76 4:0.02 
0.03125 1:0.76 4:0.02 
0.03125 1:0.76 4:0.02 
0.03125 1:0.76 4:0.02 
0.03125 1:0.76 4:0.02 
0.03125 1:0.76 4:0.02 
0.03125 1:0.66 4:0.02 
0.03125 1:1 4:0.02 
0.03125 1:1 4:0.02 
0.03125 1:1 4:0.02 
0.03125 1:1 4:0.01 
0.03125 1:1 4:0.02 
0.03125 1:1 4:0.02 
0.03125 1:1 4:0.02 
0.03125 1:1 4:0.02 
0.03125 1:1 4:0.02 
0.03125 1:1 4:0.02 
0.03125 1:1 4:0.02 
0.03125 1:1 4:0.02 
0.03125 1:1 4:0.02 
0.03125 1:1 4:0.02 
0.03125 1:1 4:0.02 
0.03125 1:1 4:0.01 
0.03125 1:1 4:0.02 
0.03125 1:1 4:0.02 
0.03125 1:1 4:0.02 
0.03125 1:1 4:0.01 
0.03125 1:1 4:0.02 
0.03125 1:1 4:0.02 
0.03125 1:1 4:0.01 
0.03125 1:1 4:0.02 
0.03125 1:1 4:0.02 
0.03125 1:1 4:0.02 
0.03125 1:1 4:0.02 
0.03125 1:1 4:0.02 
0.03125 1:1 4:0.02 
0.03125 1:1 4:0.02 
0.03125 1:1 4:0.02 
0.03125 1:1 4:0.02 
0.03125 1:1 4:0.02 
0.03125 1:1 4:0.02 
0.03125 1:1 4:0.02 
0.03125 1:1 4:0.02 
0.03125 1:1 4:0.02 
0.03125 1:1 4:0.02 
0.03125 1:1 4:0.02 
0.03125 1:1 4:0.02 
0.03125 1:1 4:0.02 
0.03125 1:1 4:0.01 
0.03125 1:1 4:0.02 
0.03125 1:1 4:0.02 
0.03125 1:1 4:0.02 
0.03125 1:1 4:0.02 
0.03125 1:1 4:0.02 
0.03125 1:1 4:0.02 
0.03125 1:1 4:0.02 
0.03125 1:1 4:0.02 
0.03125 1:1 4:0.02 
0.03125 1:1 4:0.02 
0.03125 1:1 4:0.02 
0.03125 1:1 4:0.02 
0.03125 1:1 4:0.02 
0.03125 1:1 4:0.02 
0.03125 1:1 4:0.02 
0.03125 1:1 4:0.02 
0.03125 1:1 4:0.02 
0.03125 1:1 4:0.02 
0.03125 1:1 4:0.02 
0.03125 1:1 4:0.02 
0.03125 1:1 4:0.02 
0.03125 1:1 4:0.02 
0.03125 1:1 4:0.02 
0.03125 1:1 4:0.02 
0.03125 1:1 4:0.02 
0.03125 1:1 4:0.02 
0.03125 1:1 4:0.02 
0.03125 1:1 4:0.02 
0.03125 1:1 4:0.02 
0.03125 1:1 4:0.02 
0.03125 1:1 4:0.02 
0.03125 1:1 4:0.02 
0.03125 1:1 4:0.02 
0.03125 1:1 4:0.02 
0.03125 1:1 4:0.02 
0.03125 1:1 4:0.02 
0.03125 1:1 4:0.02 
0.03125 1:1 4:0.02 
0.03125 1:1 4:0.02 
0.03125 1:1 4:0.02 
0.03125 1:1 4:0.01 
0.03125 1:1 4:0.02 
0.03125 1:1 4:0.02 
0.03125 1:1 4:0.02 
0.03125 1:1 4:0.02 
0.03125 1:1 4:0.02 
0.03125 1:1 4:0.02 
0.03125 1:1 4:0.02 
0.03125 1:1 4:0.02 
0.03125 1:1 4:0.02 
0.03125 1:1 4:0.02 
0.03125 1:1 4:0.02 
0.03125 1:1 4:0.02 
0.03125 1:1 4:0.02 
0.03125 1:1 4:0.02 
0.03125 1:1 4:0.02 
0.03125 1:1 4:0.02 
0.03125 1:1 4:0.02 
0.03125 1:1 4:0.01 
0.03125 1:1 4:0.02 
0.03125 1:1 4:0.02 
0.03125 1:1 4:0.02 
0.03125 1:1 4:0.02 
0.03125 1:1 4:0.02 
0.03125 1:1 4:0.02 
0.03125 1:1 4:0.02 
0.03125 1:1 4:0.02 
0.03125 1:1 4:0.02 
0.03125 1:1 4:0.02 
0.03125 1:1 4:0.01 
0.03125 1:1 4:0.02 
0.03125 1:1 4:0.02 
0.03125 1:1 4:0.02 
0.03125 1:1 4:0.02 
0.03125 1:1 4:0.02 
0.03125 1:1 4:0.02 
0.03125 1:1 4:0.02 
0.03125 1:1 4:0.02 
0.03125 1:1 4:0.02 
0.03125 1:1 4:0.02 
0.03125 1:1 4:0.02 
0.03125 1:1 4:0.02 
0.03125 1:1 4:0.02 
0.03125 1:1 4:0.02 
0.03125 1:1 4:0.02 
0.03125 1:1 4:0.02 
0.03125 1:1 4:0.02 
0.03125 1:1 4:0.02 
0.03125 1:1 4:0.02 
0.03125 1:1 4:0.02 
0.03125 1:1 4:0.02 
0.03125 1:1 4:0.02 
0.03125 1:1 4:0.02 
0.03125 1:1 4:0.02 
0.03125 1:1 4:0.02 
0.03125 1:1 4:0.02 
0.03125 1:1 4:0.02 
0.03125 1:1 4:0.02 
0.03125 1:1 4:0.02 
0.03125 1:1 4:0.02 
0.03125 1:1 4:0.02 
0.03125 1:1 4:0.02 
0.03125 1:1 4:0.02 
0.03125 1:1 4:0.02 
0.03125 1:1 4:0.02 
0.03125 1:1 4:0.02 
0.03125 1:1 4:0.02 
0.03125 1:1 4:0.02 
0.03125 1:1 4:0.02 
0.03125 1:1 4:0.02 
0.03125 1:1 4:0.02 
0.03125 1:1 4:0.02 
0.03125 1:1 4:0.02 
0.03125 1:1 4:0.02 
0.03125 1:1 4:0.02 
0.03125 1:1 4:0.02 
0.03125 1:1 4:0.02 
0.03125 1:1 4:0.02 
0.03125 1:1 4:0.02 
0.03125 1:1 4:0.02 
0.03125 1:1 4:0.02 
0.03125 1:1 4:0.02 
0.03125 1:1 4:0.02 
0.03125 1:1 4:0.02 
0.03125 1:1 4:0.02 
0.03125 1:1 4:0.02 
0.03125 1:1 4:0.02 
0.03125 1:1 4:0.02 
0.03125 1:1 4:0.01 
0.03125 1:1 4:0.02 
0.03125 1:1 4:0.02 
0.03125 1:1 4:0.02 
0.03125 1:1 4:0.02 
0.03125 1:1 4:0.02 
0.03125 1:1 4:0.02 
0.03125 1:1 4:0.02 
0.03125 1:1 4:0.02 
0.03125 1:1 4:0.02 
0.03125 1:1 4:0.02 
0.03125 1:1 4:0.02 
0.03125 1:1 4:0.02 
0.03125 1:1 4:0.02 
0.03125 1:1 4:0.02 
0.03125 1:1 4:0.02 
0.03125 1:1 4:0.02 
0.03125 1:1 4:0.02 
0.03125 1:1 4:0.02 
0.03125 1:1 4:0.02 
0.03125 1:1 4:0.02 
0.03125 1:1 4:0.02 
0.03125 1:1 4:0.02 
0.03125 1:1 4:0.02 
0.03125 1:1 4:0.02 
0.03125 1:1 4:0.02 
0.03125 1:1 4:0.02 
0.03125 1:1 4:0.02 
0.03125 1:1 4:0.02 
0.03125 1:1 4:0.02 
0.03125 1:0.71 4:0.02 
0.03125 1:0.7 4:0.02 
0.03125 1:0.7 4:0.02 
0.03125 1:0.7 4:0.03 
0.03125 1:0.7 4:0.02 
0.03125 1:0.7 4:0.02 
0.03125 1:0.7 4:0.03 
0.03125 1:0.7 4:0.02 
0.03125 1:0.7 4:0.02 
0.03125 1:0.7 4:0.02 
0.03125 1:0.7 4:0.03 
0.03125 1:0.7 4:0.03 
0.03125 1:0.71 4:0.02 
0.03125 1:0.7 4:0.02 
0.03125 1:0.7 4:0.02 
0.03125 1:0.7 4:0.02 
0.03125 1:0.7 4:0.02 
0.03125 1:0.7 4:0.03 
0.03125 1:0.7 4:0.02 
0.03125 1:0.7 4:0.02 
0.03125 1:0.7 4:0.03 
0.03125 1:0.7 4:0.02 
0.03125 1:0.7 4:0.03 
0.03125 1:0.71 4:0.02 
0.03125 1:0.7 4:0.02 
0.03125 1:0.71 4:0.03 
0.03125 1:0.7 4:0.02 
0.03125 1:0.71 4:0.02 
0.03125 1:0.7 4:0.02 
0.03125 1:0.7 4:0.02 
0.03125 1:0.7 4:0.02 
0.03125 1:0.7 4:0.02 
0.03125 1:0.7 4:0.02 
0.03125 1:0.7 4:0.02 
0.03125 1:0.7 4:0.02 
0.03125 1:0.7 4:0.02 
0.03125 1:0.71 4:0.02 
0.03125 1:0.71 4:0.02 
0.03125 1:0.7 4:0.02 
0.03125 1:0.71 4:0.02 
0.03125 1:0.7 4:0.02 
0.03125 1:0.7 4:0.02 
0.03125 1:0.71 4:0.02 
0.03125 1:0.7 4:0.02 
0.03125 1:0.7 4:0.02 
0.03125 1:0.7 4:0.02 
0.03125 1:0.7 4:0.03 
0.03125 1:0.7 4:0.02 
0.03125 1:0.7 4:0.02 
0.03125 1:0.7 4:0.02 
0.03125 1:0.7 4:0.02 
0.03125 1:0.7 4:0.03 
0.03125 1:0.7 4:0.02 
0.03125 1:0.7 4:0.03 
0.03125 1:0.7 4:0.02 
0.03125 1:0.71 4:0.02 
0.03125 1:0.7 4:0.03 
0.03125 1:0.7 4:0.03 
0.03125 1:0.71 4:0.02 
0.03125 1:0.7 4:0.02 
0.03125 1:0.71 4:0.02 
0.03125 1:0.7 4:0.02 
0.03125 1:0.7 4:0.02 
0.03125 1:0.7 4:0.02 
0.03125 1:0.7 4:0.02 
0.03125 1:0.71 4:0.02 
0.03125 1:0.7 4:0.02 
0.03125 1:0.7 4:0.02 
0.03125 1:0.7 4:0.02 
0.03125 1:0.7 4:0.02 
0.03125 1:0.7 4:0.02 
0.03125 1:0.7 4:0.02 
0.03125 1:0.71 4:0.02 
0.03125 1:0.7 4:0.02 
0.03125 1:0.71 4:0.02 
0.03125 1:0.7 4:0.02 
0.03125 1:0.7 4:0.02 
0.03125 1:0.7 4:0.02 
0.03125 1:0.7 4:0.03 
0.03125 1:0.71 4:0.02 
0.03125 1:0.71 4:0.02 
0.03125 1:0.71 4:0.02 
0.03125 1:0.71 4:0.02 
0.03125 1:0.7 4:0.02 
0.03125 1:0.71 4:0.02 
0.03125 1:0.7 4:0.02 
0.03125 1:0.7 4:0.02 
0.03125 1:0.7 4:0.02 
0.03125 1:0.7 4:0.02 
0.03125 1:0.7 4:0.02 
0.03125 1:0.7 4:0.02 
0.03125 1:0.71 4:0.02 
0.03125 1:0.7 4:0.02 
0.03125 1:0.71 4:0.02 
0.03125 1:0.7 4:0.02 
0.03125 1:0.7 4:0.03 
0.03125 1:0.7 4:0.02 
0.03125 1:0.7 3:0.01 4:0.03 
0.03125 1:0.7 4:0.02 
0.03125 1:0.7 4:0.02 
0.03125 1:0.71 4:0.02 
0.03125 1:0.7 4:0.02 
0.03125 1:0.7 4:0.02 
0.03125 1:0.7 4:0.02 
0.03125 1:0.7 4:0.02 
0.03125 1:0.7 4:0.02 
0.03125 1:0.7 4:0.03 
0.03125 1:0.7 4:0.03 
0.03125 1:0.7 4:0.02 
0.03125 1:0.7 4:0.02 
0.03125 1:0.7 4:0.02 
0.03125 1:0.7 4:0.02 
0.03125 1:0.7 4:0.02 
0.03125 1:0.7 4:0.02 
0.03125 1:0.7 4:0.02 
0.03125 1:0.71 4:0.02 
0.03125 1:0.7 4:0.02 
0.03125 1:0.7 4:0.02 
0.03125 1:0.71 4:0.03 
0.03125 1:0.7 4:0.02 
0.03125 1:0.7 4:0.02 
0.03125 1:0.71 4:0.02 
0.03125 1:0.7 4:0.02 
0.03125 1:0.7 4:0.02 
0.03125 1:0.71 4:0.02 
0.03125 1:0.7 4:0.02 
0.03125 1:0.71 4:0.02 
0.03125 1:0.7 4:0.02 
0.03125 1:0.7 4:0.02 
0.03125 1:0.71 4:0.03 
0.03125 1:0.7 4:0.03 
0.03125 1:0.7 4:0.02 
0.03125 1:0.7 4:0.03 
0.03125 1:0.7 4:0.02 
0.03125 1:0.7 4:0.02 
0.03125 1:0.7 4:0.02 
0.03125 1:0.7 4:0.02 
0.03125 1:0.7 4:0.02 
0.03125 1:0.7 4:0.02 
0.03125 1:0.71 4:0.02 
0.03125 1:0.7 4:0.03 
0.03125 1:0.7 4:0.02 
0.03125 1:0.71 4:0.02 
0.03125 1:0.7 4:0.02 
0.03125 1:0.7 4:0.02 
0.03125 1:0.7 4:0.02 
0.03125 1:0.7 4:0.02 
0.03125 1:0.7 4:0.02 
0.03125 1:0.7 4:0.02 
0.03125 1:0.7 4:0.02 
0.03125 1:0.7 4:0.03 
0.03125 1:0.7 4:0.02 
0.03125 1:0.71 4:0.02 
0.03125 1:0.7 4:0.02 
0.03125 1:0.7 4:0.02 
0.03125 1:0.7 4:0.03 
0.03125 1:0.7 4:0.02 
0.03125 1:0.7 4:0.02 
0.03125 1:0.71 4:0.02 
0.03125 1:0.7 4:0.02 
0.03125 1:0.7 4:0.02 
0.03125 1:0.7 4:0.02 
0.03125 1:0.7 4:0.03 
0.03125 1:0.7 4:0.02 
0.03125 1:0.7 4:0.02 
0.03125 1:0.7 4:0.02 
0.03125 1:0.7 4:0.02 
0.03125 1:0.7 4:0.02 
0.03125 1:0.7 4:0.03 
0.03125 1:0.7 4:0.02 
0.03125 1:0.71 4:0.02 
0.03125 1:0.7 4:0.02 
0.03125 1:0.7 4:0.03 
0.03125 1:0.7 4:0.03 
0.03125 1:0.71 4:0.02 
0.03125 1:0.7 4:0.02 
0.03125 1:0.7 4:0.02 
0.03125 1:0.71 4:0.02 
0.03125 1:0.7 4:0.02 
0.03125 1:0.7 4:0.03 
0.03125 1:0.71 4:0.03 
0.03125 1:0.7 4:0.03 
0.03125 1:0.7 4:0.02 
0.03125 1:0.71 4:0.02 
0.03125 1:0.7 4:0.02 
0.03125 1:0.7 4:0.02 
0.03125 1:0.71 4:0.03 
0.03125 1:0.7 4:0.02 
0.03125 1:0.7 4:0.02 
0.03125 1:0.71 4:0.02 
0.03125 1:0.7 4:0.03 
0.03125 1:0.7 4:0.03 
0.03125 1:0.71 4:0.03 
0.03125 1:0.7 4:0.03 
0.03125 1:0.71 4:0.03 
0.03125 1:0.7 4:0.03 
0.03125 1:0.71 4:0.02 
0.03125 1:0.71 4:0.02 
0.03125 1:0.7 4:0.02 
0.03125 1:0.61 4:0.02 
-0.03125 
-0.03125 4:0.01 
-0.03125 4:0.01 
-0.03125 
-0.03125 4:0.01 
-0.03125 4:0.01 
-0.03125 4:0.01 
-0.03125 
-0.03125 
-0.03125 
-0.03125 
-0.03125 4:0.01 
-0.03125 4:0.01 
-0.03125 
-0.03125 4:0.01 
-0.03125 
-0.03125 4:0.01 
-0.03125 4:0.01 
-0.03125 4:0.01 
-0.03125 
-0.03125 
-0.03125 
-0.03125 4:0.01 
-0.03125 
-0.03125 
-0.03125 
-0.03125 4:0.01 
-0.03125 4:0.01 
-0.03125 4:0.01 
-0.03125 4:0.01 
-0.03125 
-0.03125 
-0.03125 
-0.03125 4:0.01 
-0.03125 4:0.01 
-0.03125 
-0.03125 
-0.03125 4:0.01 
-0.03125 4:0.01 
-0.03125 4:0.01 
-0.03125 
-0.03125 4:0.01 
-0.03125 
-0.03125 1:0.01 4:0.01 
-0.03125 4:0.01 
-0.03125 4:0.01 
-0.03125 4:0.01 
-0.03125 
-0.03125 4:0.01 
-0.03125 
-0.03125 
-0.03125 
-0.03125 
-0.03125 
-0.03125 4:0.01 
-0.03125 1:0.02 4:0.01 
-0.03125 1:0.01 
-0.03125 
-0.03125 4:0.01 
-0.03125 4:0.01 
-0.03125 4:0.01 
-0.03125 1:0.01 4:0.01 
-0.03125 4:0.01 
-0.03125 4:0.01 
-0.03125 4:0.01 
-0.03125 
-0.03125 
-0.03125 
-0.03125 4:0.01 
-0.03125 4:0.01 
-0.03125 
-0.03125 4:0.01 
-0.03125 4:0.01 
-0.03125 
-0.03125 4:0.01 
-0.03125 
-0.03125 
-0.03125 
-0.03125 4:0.01 
-0.03125 
-0.03125 
-0.03125 
-0.03125 
-0.03125 4:0.01 
-0.03125 4:0.01 
-0.03125 4:0.01 
-0.03125 4:0.01 
-0.03125 
-0.03125 4:0.01 
-0.03125 4:0.01 
-0.03125 
-0.03125 
-0.03125 
-0.03125 4:0.01 
-0.03125 4:0.01 
-0.03125 4:0.01 
-0.03125 4:0.01 
-0.03125 
-0.03125 4:0.01 
-0.03125 
-0.03125 4:0.01 
-0.03125 
-0.03125 
-0.03125 
-0.03125 
-0.03125 
-0.03125 
-0.03125 4:0.01 
-0.03125 4:0.01 
-0.03125 4:0.01 
-0.03125 4:0.01 
-0.03125 
-0.03125 4:0.01 
-0.03125 
-0.03125 1:0.01 
-0.03125 
-0.03125 
-0.03125 4:0.01 
-0.03125 4:0.01 
-0.03125 1:0.01 
-0.03125 4:0.01 
-0.03125 4:0.01 
-0.03125 4:0.01 
-0.03125 4:0.01 
-0.03125 4:0.01 
-0.03125 
-0.03125 4:0.01 
-0.03125 
-0.03125 
-0.03125 
-0.03125 4:0.01 
-0.03125 
-0.03125 
-0.03125 
-0.03125 4:0.01 
-0.03125 4:0.01 
-0.03125 4:0.01 
-0.03125 
-0.03125 
-0.03125 1:0.01 4:0.01 
-0.03125 
-0.03125 4:0.01 
-0.03125 4:0.01 
-0.03125 4:0.01 
-0.03125 
-0.03125 4:0.01 
-0.03125 4:0.01 
-0.03125 
-0.03125 4:0.01 
-0.03125 4:0.01 
-0.03125 4:0.01 
-0.03125 4:0.01 
-0.03125 
-0.03125 4:0.01 
-0.03125 4:0.01 
-0.03125 
-0.03125 4:0.01 
-0.03125 4:0.01 
-0.03125 4:0.01 
-0.03125 4:0.01 
-0.03125 4:0.01 
-0.03125 
-0.03125 
-0.03125 4:0.01 
-0.03125 
-0.03125 
-0.03125 
-0.03125 
-0.03125 4:0.01 
-0.03125 4:0.01 
-0.03125 4:0.01 
-0.03125 4:0.01 
-0.03125 4:0.01 
-0.03125 4:0.01 
-0.03125 4:0.01 
-0.03125 4:0.01 
-0.03125 
-0.03125 
-0.03125 
-0.03125 4:0.01 
-0.03125 4:0.01 
-0.03125 
-0.03125 
-0.03125 
-0.03125 
-0.03125 4:0.01 
-0.03125 4:0.01 
-0.03125 
-0.03125 4:0.01 
-0.03125 4:0.01 
-0.03125 
-0.03125 
-0.03125 
-0.03125 4:0.01 
-0.03125 4:0.01 
-0.03125 4:0.01 
-0.03125 
-0.03125 4:0.01 
-0.03125 4:0.01 
-0.03125 4:0.01 
-0.03125 4:0.01 
-0.03125 4:0.01 
-0.03125 
-0.03125 4:0.01 
-0.03125 4:0.02 
-0.03125 4:0.01 
-0.03125 4:0.01 
-0.03125 4:0.01 
-0.03125 4:0.01 
-0.03125 4:0.01 
-0.03125 
-0.03125 
-0.03125 
-0.03125 
-0.03125 
-0.03125 4:0.01 
-0.03125 4:0.01 
-0.03125 
-0.03125 4:0.01 
-0.03125 4:0.01 
-0.03125 
-0.03125 
-0.03125 4:0.01 
-0.03125 
-0.03125 
-0.03125 4:0.01 
-0.03125 4:0.01 
-0.03125 4:0.01 
-0.03125 4:0.01 
-0.03125 4:0.01 
-0.03125 
-0.03125 4:0.01 
-0.03125 
-0.03125 4:0.01 
-0.03125 
-0.03125 1:0.01 4:0.01 
-0.03125 4:0.01 
-0.03125 4:0.01 
-0.03125 
-0.03125 4:0.01 
-0.03125 
-0.03125 
-0.03125 4:0.01 
-0.03125 4:0.01 
-0.03125 
-0.03125 
-0.03125 4:0.01 
-0.03125 4:0.01 
-0.03125 4:0.01 
-0.03125 
-0.03125 
-0.03125 4:0.01 
-0.03125 
-0.03125 4:0.01 
-0.03125 4:0.01 
-0.03125 4:0.01 
-0.03125 4:0.01 
-0.03125 4:0.01 
-0.03125 
-0.03125 
-0.03125 
-0.03125 4:0.01 
-0.03125 
-0.03125 4:0.01 
-0.03125 4:0.01 
-0.03125 
-0.03125 4:0.01 
-0.03125 
-0.03125 4:0.01 
-0.03125 4:0.01 
-0.03125 1:0.01 
-0.03125 
-0.03125 
-0.03125 
-0.03125 4:0.01 
-0.03125 
-0.03125 4:0.01 
-0.03125 1:0.01 4:0.01 
-0.03125 
-0.03125 4:0.01 
-0.03125 
-0.03125 
-0.03125 4:0.01 
-0.03125 
-0.03125 4:0.01 
-0.03125 4:0.01 
-0.03125 4:0.01 
-0.03125 
-0.03125 
-0.03125 4:0.01 
-0.03125 4:0.01 
-0.03125 
-0.03125 4:0.01 
-0.03125 4:0.01 
-0.03125 4:0.01 
-0.03125 4:0.01 
-0.03125 
-0.03125 
-0.03125 4:0.01 
-0.03125 4:0.01 
-0.03125 4:0.01 
-0.03125 
-0.03125 
-0.03125 4:0.01 
-0.03125 
-0.03125 
-0.03125 1:0.01 4:0.01 
-0.03125 4:0.01 
-0.03125 4:0.01 
-0.03125 
-0.03125 4:0.01 
-0.03125 
-0.03125 
-0.03125 4:0.01 
-0.03125 
-0.03125 4:0.01 
-0.03125 
-0.03125 4:0.01 
-0.03125 4:0.01 
-0.03125 
-0.03125 
-0.03125 
-0.03125 4:0.01 
-0.03125 4:0.01 
-0.03125 4:0.01 
-0.03125 
-0.03125 
-0.03125 4:0.01 
-0.03125 4:0.01 
-0.03125 
-0.03125 4:0.01 
-0.03125 
-0.03125 
-0.03125 4:0.01 
-0.03125 4:0.01 
-0.03125 
-0.03125 4:0.01 
-0.03125 4:0.01 
-0.03125 
-0.03125 4:0.01 
-0.03125 4:0.01 
-0.03125 
-0.03125 
-0.03125 
-0.03125 
-0.03125 4:0.01 
-0.03125 1:0.01 4:0.01 
-0.03125 
-0.03125 
-0.03125 4:0.01 
-0.03125 
-0.03125 4:0.01 
-0.03125 4:0.01 
-0.03125 4:0.01 
-0.03125 4:0.01 
-0.03125 4:0.01 
-0.03125 4:0.01 
-0.03125 4:0.01 
-0.03125 4:0.01 
-0.03125 4:0.01 
-0.03125 4:0.01 
-0.03125 
-0.03125 
-0.03125 4:0.01 
-0.03125 4:0.01 
-0.03125 4:0.01 
-0.03125 
-0.03125 
-0.03125 4:0.01 
-0.03125 4:0.01 
-0.03125 4:0.01 
-0.03125 4:0.01 
-0.03125 4:0.01 
-0.03125 
-0.03125 4:0.01 
-0.03125 4:0.01 
-0.03125 
-0.03125 
-0.03125 
-0.03125 4:0.01 
-0.03125 
-0.03125 
-0.03125 
-0.03125 4:0.01 
-0.03125 
-0.03125 4:0.01 
-0.03125 
-0.03125 
-0.03125 4:0.01 
-0.03125 4:0.01 
-0.03125 4:0.01 
-0.03125 4:0.01 
-0.03125 
-0.03125 
-0.03125 4:0.01 
-0.03125 
-0.03125 4:0.01 
-0.03125 
-0.03125 
-0.03125 
-0.03125 2:0.01 
-0.03125 2:0.01 4:0.01 
-0.03125 2:0.01 
-0.03125 2:0.01 4:0.01 
-0.03125 2:0.01 
-0.03125 2:0.01 4:0.01 
-0.03125 2:0.01 4:0.01 
-0.03125 2:0.01 4:0.01 
-0.03125 2:0.01 4:0.01 
-0.03125 2:0.01 
-0.03125 1:0.01 2:0.01 
-0.03125 2:0.01 4:0.01 
-0.03125 2:0.01 4:0.01 
-0.03125 2:0.01 
-0.03125 2:0.01 4:0.01 
-0.03125 2:0.01 4:0.01 
-0.03125 2:0.01 4:0.01 
-0.03125 2:0.01 
-0.03125 2:0.01 4:0.01 
-0.03125 2:0.01 
-0.03125 2:0.01 4:0.01 
-0.03125 2:0.01 
-0.03125 2:0.01 4:0.01 
-0.03125 2:0.01 4:0.01 
-0.03125 2:0.01 4:0.01 
-0.03125 2:0.01 
-0.03125 2:0.01 
-0.03125 2:0.01 
-0.03125 2:0.01 
-0.03125 2:0.01 4:0.01 
-0.03125 2:0.01 4:0.01 
-0.03125 2:0.01 4:0.01 
-0.03125 2:0.01 4:0.01 
-0.03125 2:0.01 4:0.01 
-0.03125 2:0.01 4:0.01 
-0.03125 2:0.01 4:0.01 
-0.03125 2:0.01 4:0.01 
-0.03125 2:0.01 
-0.03125 2:0.01 
-0.03125 2:0.01 
-0.03125 2:0.01 
-0.03125 2:0.01 4:0.01 
-0.03125 2:0.01 
-0.03125 2:0.01 4:0.01 
-0.03125 2:0.01 
-0.03125 2:0.01 4:0.01 
-0.03125 2:0.01 4:0.01 
-0.03125 2:0.01 4:0.01 
-0.03125 2:0.01 4:0.01 
-0.03125 2:0.01 4:0.01 
-0.03125 2:0.01 
-0.03125 2:0.01 4:0.01 
-0.03125 2:0.01 
-0.03125 2:0.01 
-0.03125 2:0.01 4:0.01 
-0.03125 2:0.01 4:0.01 
-0.03125 2:0.01 
-0.03125 2:0.01 4:0.01 
-0.03125 2:0.01 
-0.03125 2:0.01 4:0.01 
-0.03125 2:0.01 4:0.01 
-0.03125 2:0.01 
-0.03125 2:0.01 4:0.01 
-0.03125 2:0.01 
-0.03125 2:0.01 4:0.01 
-0.03125 2:0.01 4:0.01 
-0.03125 2:0.01 4:0.01 
-0.03125 2:0.01 4:0.01 
-0.03125 2:0.01 
-0.03125 2:0.01 4:0.01 
-0.03125 2:0.01 
-0.03125 2:0.01 4:0.01 
-0.03125 2:0.01 4:0.01 
-0.03125 2:0.01 4:0.01 
-0.03125 2:0.01 4:0.01 
-0.03125 2:0.01 4:0.01 
-0.03125 2:0.01 4:0.01 
-0.03125 2:0.01 4:0.01 
-0.03125 2:0.01 4:0.01 
-0.03125 2:0.01 
-0.03125 2:0.01 
-0.03125 2:0.01 
-0.03125 2:0.01 
-0.03125 2:0.01 4:0.01 
-0.03125 2:0.01 4:0.01 
-0.03125 2:0.01 4:0.01 
-0.03125 2:0.01 
-0.03125 2:0.01 4:0.01 
-0.03125 2:0.01 
-0.03125 2:0.01 4:0.01 
-0.03125 2:0.01 
-0.03125 2:0.01 4:0.01 
-0.03125 2:0.01 4:0.01 
-0.03125 2:0.01 4:0.01 
-0.03125 2:0.01 4:0.01 
-0.03125 2:0.01 4:0.01 
-0.03125 2:0.01 
-0.03125 2:0.01 
-0.03125 2:0.01 
-0.03125 2:0.01 4:0.01 
-0.03125 2:0.01 
-0.03125 2:0.01 
-0.03125 2:0.01 4:0.01 
-0.03125 2:0.01 4:0.01 
-0.03125 2:0.01 4:0.01 
-0.03125 2:0.01 4:0.01 
-0.03125 2:0.01 
-0.03125 2:0.01 4:0.01 
-0.03125 2:0.01 4:0.01 
-0.03125 2:0.01 
-0.03125 2:0.01 
-0.03125 1:0.01 2:0.01 4:0.01 
-0.03125 2:0.01 4:0.01 
-0.03125 2:0.01 
-0.03125 2:0.01 4:0.01 
-0.03125 2:0.01 4:0.01 
-0.03125 2:0.01 
-0.03125 2:0.01 
-0.03125 2:0.01 
-0.03125 2:0.01 4:0.01 
-0.03125 2:0.01 4:0.01 
-0.03125 2:0.01 
-0.03125 2:0.01 4:0.01 
-0.03125 2:0.01 
-0.03125 2:0.01 4:0.01 
-0.03125 2:0.01 
-0.03125 2:0.01 4:0.01 
-0.03125 2:0.01 4:0.01 
-0.03125 2:0.01 4:0.01 
-0.03125 2:0.01 4:0.01 
-0.03125 2:0.01 4:0.01 
-0.03125 2:0.01 4:0.01 
-0.03125 2:0.01 
-0.03125 2:0.01 
-0.03125 2:0.01 4:0.01 
-0.03125 2:0.01 
-0.03125 2:0.01 4:0.01 
-0.03125 2:0.01 4:0.01 
-0.03125 2:0.01 
-0.03125 2:0.01 
-0.03125 2:0.01 
-0.03125 2:0.01 
-0.03125 2:0.01 4:0.01 
-0.03125 2:0.01 4:0.01 
-0.03125 2:0.01 4:0.01 
-0.03125 2:0.01 
-0.03125 2:0.01 
-0.03125 2:0.01 4:0.01 
-0.03125 2:0.01 4:0.01 
-0.03125 2:0.01 4:0.01 
-0.03125 2:0.01 
-0.03125 2:0.01 4:0.01 
-0.03125 2:0.01 4:0.01 
-0.03125 2:0.01 4:0.01 
-0.03125 1:0.01 2:0.01 
-0.03125 2:0.01 4:0.01 
-0.03125 2:0.01 4:0.01 
-0.03125 2:0.01 
-0.03125 2:0.01 
-0.03125 2:0.01 4:0.01 
-0.03125 1:0.01 2:0.01 4:0.01 
-0.03125 2:0.01 4:0.01 
-0.03125 2:0.01 4:0.01 
-0.03125 2:0.01 4:0.01 
-0.03125 2:0.01 4:0.01 
-0.03125 2:0.01 4:0.01 
-0.03125 2:0.01 
-0.03125 2:0.01 4:0.01 
-0.03125 2:0.01 4:0.01 
-0.03125 2:0.01 4:0.01 
-0.03125 2:0.01 
-0.03125 2:0.01 4:0.01 
-0.03125 2:0.01 
-0.03125 2:0.01 4:0.01 
-0.03125 2:0.01 
-0.03125 2:0.01 
-0.03125 2:0.01 4:0.01 
-0.03125 2:0.01 
-0.03125 2:0.01 
-0.03125 2:0.01 4:0.01 
-0.03125 2:0.01 
-0.03125 2:0.01 
-0.03125 2:0.01 4:0.01 
-0.03125 2:0.01 4:0.01 
-0.03125 2:0.01 4:0.01 
-0.03125 2:0.01 
-0.03125 2:0.01 4:0.01 
-0.03125 2:0.01 4:0.01 
-0.03125 2:0.01 4:0.01 
-0.03125 2:0.01 4:0.01 
-0.03125 2:0.01 
-0.03125 2:0.01 
-0.03125 2:0.01 4:0.01 
-0.03125 2:0.01 
-0.03125 2:0.01 4:0.01 
-0.03125 2:0.01 
-0.03125 2:0.01 4:0.01 
-0.03125 2:0.01 
-0.03125 2:0.01 4:0.01 
-0.03125 2:0.01 
