svm_type c_svc
kernel_type rbf
gamma 0.0078125
nr_class 2
total_sv 94
rho 0.106861
label 13 14
nr_sv 50 44
SV
0.125 1:12261.7 2:158 3:652.75 4:2.625 
0.125 1:12261.9 2:158 3:637.375 4:2.75 
0.125 1:12261.9 2:158 3:644.375 4:2.75 
0.125 1:12261.4 2:158 3:634.5 4:3 
0.1147357683483917 1:12261.7 2:158 3:633.625 4:2.625 
0.125 1:12261 2:161 3:652.5 4:3.375 
0.125 1:12261.1 2:161 3:635.625 4:3 
0.09716881882185895 1:12261.7 2:162 3:627.875 4:2.375 
0.125 1:12261.6 2:162 3:641.125 4:2.5 
0.005697626390587478 1:12261.9 2:162 3:630.75 4:2.875 
0.125 1:12261.9 2:162 3:625.875 4:3.125 
0.125 1:12261.7 2:158 3:634.875 4:2.75 
0.125 1:12261.1 2:158 3:622.875 4:2.5 
0.05626411966658702 1:12261.7 2:158 3:619.25 4:2.375 
0.09120421492215836 1:12261.9 2:158 3:621.375 4:2.375 
0.04798359727329336 1:12261.9 2:158 3:617.625 4:3 
0.125 1:12261.9 2:158 3:619.25 4:3.125 
0.038554536866175 1:12262 2:158 3:613.75 4:2.25 
0.02809972571819211 1:12262 2:158 3:610 4:2.375 
0.125 1:12261.9 2:162 3:630.75 4:2.875 
0.125 1:12262 2:162 3:614 4:2.5 
0.08348556578496412 1:12261.9 2:162 3:613.625 4:2.375 
0.06049002722250953 1:12261.9 2:162 3:606.75 4:2.875 
0.125 1:12261.9 2:162 3:606.125 4:2.75 
0.008019404952452571 1:12262 2:158 3:603.625 4:2.5 
0.08109696925874389 1:12261.9 2:158 3:602.125 4:2.375 
0.125 1:12261.7 2:158 3:602.25 4:2.25 
0.009300935321543467 1:12262 2:158 3:602.25 4:2.5 
0.125 1:12261.3 2:158 3:608.5 4:2.25 
0.09525650316501363 1:12261.1 2:158 3:598.5 4:2.25 
0.08295322007956643 1:12262 2:158 3:593.25 4:3.375 
0.125 1:12261.4 2:162 3:615 4:3.125 
0.125 1:12261.4 2:162 3:595.75 4:2.75 
0.05743598236550575 1:12261.3 2:162 3:591.375 4:2.75 
0.125 1:12261.9 2:162 3:587.625 4:2.375 
0.125 1:12261.1 2:162 3:587.375 4:2.625 
0.008911406962587326 1:12261.9 2:162 3:587 4:2.75 
0.125 1:12261 2:162 3:587.625 4:2.5 
0.09091045578109279 1:12261.3 2:157 3:583.25 4:2.375 
0.125 1:12261.9 2:157 3:593.25 4:2.625 
0.125 1:12261.4 2:157 3:584.875 4:2.25 
0.125 1:12261.7 2:158 3:573.5 4:2.75 
0.125 1:12261.7 2:158 3:573.25 4:2.75 
0.125 1:12262 2:158 3:573.25 4:2.625 
0.125 1:12261.9 2:158 3:572.75 4:2.5 
0.125 1:12261.9 2:158 3:571.875 4:2.625 
0.125 1:12262 2:158 3:573.625 4:2.25 
0.125 1:12261.4 2:162 3:602.375 4:3.25 
0.07620666974263708 1:12262 2:162 3:577.625 4:2.75 
0.125 1:12262 2:162 3:573.875 4:2.625 
-0.125 1:24 2:159 4:0.5 
-0.125 2:159 3:2 4:0.75 
-0.06052400000689119 1:52.2 2:160 3:1 4:0.75 
-0.125 1:12 2:164 3:1 4:0.75 
-0.125 1:72.6 2:164 3:2 4:0.5 
-0.125 1:43.8 2:164 3:2 4:0.75 
-0.125 1:12 2:164 3:1 4:0.75 
-0.125 2:167 3:1 4:0.5 
-0.125 1:50.2 2:164 3:2 4:0.75 
-0.125 1:31.8 2:164 3:1 4:1 
-0.125 1:43.8 2:159 3:2 4:0.75 
-0.125 1:55.8 2:160 3:2 4:0.75 
-0.07497793206485752 1:36 2:161 3:1 4:0.5 
-0.05394936792002147 2:159 3:2 4:0.75 
-0.02769652537696071 1:31.8 2:160 3:1 4:0.75 
-0.125 1:24 2:160 3:1 4:0.75 
-0.125 1:56.4 2:161 3:3 4:0.5 
-0.08516941132231554 1:24 2:159 3:2 4:0.75 
-0.125 1:12 2:160 3:11 4:0.5 
-0.1243917828308443 1:43.8 2:160 3:1 4:0.75 
-0.125 1:67.8 2:160 3:1 4:0.75 
-0.1158717356060211 1:12 2:160 3:1 4:0.75 
-0.125 1:12 2:163 3:52 4:1.5 
-0.125 2:163 3:20 4:0.5 
-0.125 2:165 3:19 4:0.75 
-0.125 1:12 2:164 3:13 4:0.75 
-0.125 1:31.8 2:164 3:10 4:0.75 
-0.125 1:55.8 2:164 3:12 4:0.5 
-0.05857367712231729 1:24 2:164 3:2 4:0.75 
-0.125 2:165 3:1 4:0.5 
-0.125 1:31.8 2:164 3:9 4:0.5 
-0.125 1:12 2:164 3:12 4:0.75 
-0.09934511134043691 1:31.8 2:164 3:9 4:0.75 
-0.125 1:31.8 2:161 3:10 4:0.75 
-0.0936914798963023 2:160 3:11 4:0.5 
-0.125 2:161 3:14 4:0.75 
-0.125 2:161 4:0.75 
-0.125 1:92.4 2:160 4:0.5 
-0.125 2:160 4:0.75 
-0.125 2:160 3:14 4:0.75 
-0.125 1:62.4 2:161 3:3 4:0.75 
-0.08958452515689219 1:20.4 2:160 3:7 4:0.75 
-0.125 1:55.8 2:160 3:3 4:0.75 
-0.125 1:43.8 2:160 3:7 4:0.75 
